-0.000758608985963356
0.517918490557589
-0.00984786966804004
0.575125220314152
0.847818297499956
-0.262028487306794
-0.224963842556111
0.119497450246359
0.957668691757946
0.822240516191253
-0.735663619027769
0.776948322633383
-0.693927485377407
0.175828909760767
0.0221903641385631
-0.462662629027748
-0.471102373767246
-0.362991958067186
-0.254023226887492
-0.606246564968747
-0.930550312318524
-0.297938238835646
0.279838085687538
-0.291882730589804
-0.524574020004905
0.743374552720799
0.671635393416474
0.840405513959906
-0.669912792700917
0.502407310552051
0.788110786731126
0.914033112322946
0.922180151809504
-0.0421930339343173
-0.756456714855273
-0.834854054673154
0.554231713992959
-0.727642819981084
0.14561927758061
-0.0319480617285692
-0.67112599892009
-0.276535070043118
1.03819871738716
-0.780010723632658
-0.161350615246154
0.00240858422322409
-0.0401634828780844
0.976294400567797
0.932346703273971
0.424531485736475
0.905260825627326
0.793008762387021
-0.624608280143221
-0.198463721876652
0.751078289129502
-0.74797322208486
-0.760817694621465
-0.717096325987047
0.0829726421656798
-0.946561004901534
-0.0190098564631862
-0.147667066859734
-0.235106038226208
-0.536177538842121
-0.939329348704099
-0.638339070406625
0.783246896534721
0.214431608390009
-0.204700025729555
-0.185340429775046
0.0620197362750946
-0.61444726339018
0.579222220482046
0.857067509174243
-0.881033250551224
0.434763442670089
-0.138005656612194
0.29281319357076
0.978739776203729
0.57733563570865
-0.112439737019772
0.71218006328819
0.942934280613514
-0.0418901981235384
0.632880803125254
-0.981491400638266
0.536159140842261
0.0873333929982892
0.15630722854455
-1.0617159507878
0.911785231830384
0.282610623174029
0.199640988988083
0.0409014803536455
0.87402793361412
0.35265299551492
0.88900211410813
0.548410123652164
-0.760226008082085
-0.386991092519167
0.247873813336739
0.656637197501068
0.137885910735571
0.231128737701301
-0.418743642160528
0.752937120990947
-0.65712859672663
-0.364116385605871
-0.214566300402466
-0.632132448810982
0.496494928081277
0.0619861659133251
-0.646857202274786
0.552125395691085
0.164834537831539
0.232333215700211
-0.113784368305082
0.766436453116767
-0.201518515636545
-0.992470213180672
-0.26806012757275
-0.397454350584018
-0.987578203185728
-0.145428089672315
-0.0666143216658987
0.788580366746361
0.224462311440138
-0.398620378951626
0.938879826629093
-0.337847725221
0.465950756774863
0.326608411826747
0.164339854226065
0.56778036031055
-0.489540826301311
0.381767911668008
-0.246102207836117
-0.105141921919948
-0.462058663225992
-0.995271555884758
0.725102756954237
-0.0374688982065194
-0.695310627947912
-0.212253992183765
-0.538573183238092
-0.156587873812789
-0.122173408120744
0.512595069542888
0.69907178578776
-0.445206734274336
-0.533991423960973
-0.855784167032041
-0.253914716181983
-0.932824462910029
0.619807271757201
-0.590424833531678
0.48494218648331
-0.823522000041273
-0.762125028308726
-0.189592862808534
-0.398047544137919
0.87338216244597
-0.167191532583431
-0.698071671001328
0.134734303526647
-0.604307718685882
-0.96883782009014
-0.141668972296931
0.120204548338879
0.890380406889029
-0.48894762972277
-0.980622116181157
0.237837963137931
-0.218280173096933
-0.750094182760655
0.678402569651798
-0.818426490556967
0.152883091834551
-0.656522716342357
-1.04402388882292
-0.3493244814515
0.288777324901208
-0.641439559217309
-0.016581449617098
-1.04712397785054
0.165893007313764
-0.498056481066413
0.0929753260770418
0.865994148587339
0.988515222418058
0.803140211199465
-0.360167537158001
-0.179905250789296
0.925044908626603
0.565108182039372
0.895811736651462
-0.836727964485252
-0.893225721243823
0.702396637488712
-0.937732031119407
-0.227951049638172
-1.01594008999357
-0.530573943207139
0.889780494050181
-0.969279507706639
-0.604713500389238
-0.167379840099486
0.819722796143127
0.673926589836296
0.727481452399131
-1.01835005175809
-0.814938814196046
0.637227699531213
-0.924867153895671
1.00071079243643
0.221091687349436
0.426058568358458
0.762564829448647
-0.717290082777674
0.950757732162777
0.958064712177728
0.131782357116803
0.242347347046951
0.255695638357036
-0.902041120029044
0.955921509721201
0.242119814702582
0.321346999738351
0.199202462792274
-0.695310016356916
0.526966955440025
-0.882127850927028
0.357673350030976
-0.850698759497591
0.124311753585896
-0.31655522998075
-0.0457278439070479
-0.406852129118018
-0.033286965566903
0.38562061008981
-0.920059011682313
-0.480694830354698
0.298445990422931
1.11943545659738
1.01509782077231
0.665086017301933
-0.009456634230973
-0.242454919111633
1.01495064189222
-0.426340261561305
-0.178220092030057
-0.328245370716971
0.931127050083902
0.886454345182875
-0.807754070757646
0.733476412960275
-0.137570218734189
0.240531581492548
0.755389497519251
-0.974864296653964
-0.0361037063194696
0.306714548285692
-0.425490094150932
0.464367575295476
-0.633919853617934
-1.04489215910346
-0.295777464454095
0.132999702479208
-0.395807872365167
0.168343068695038
-0.782553307202215
-0.269408503915252
-0.340046311444538
-0.317246275389481
0.653455366782076
0.409539111312022
0.927954179089432
0.341986294782509
0.560179988223479
-0.262088974535405
0.125055697761213
-0.334368521634571
0.458320302917192
-0.177351229043376
0.734668607966497
0.0196362563695215
-0.82124705218784
0.419359768560632
0.857687781888529
0.243492569914315
0.771737523647319
0.739995116727875
-0.0786994909705768
-0.0333654439390369
-0.629819228922435
-0.48600191885829
0.661918995000105
0.757325994346385
0.716449941763834
0.893595098132159
-0.32971338704978
0.440133747667118
0.80678006043918
-0.221777076999527
-0.563226280824517
-0.803716571965159
-0.780159259241878
0.481074499604967
-0.640989247016053
-0.04465527238902
-0.982044966710191
0.741640815475395
0.90066063787448
0.141193566948158
-0.108016398626349
-0.675903043000993
0.851017444375039
0.660233415407965
0.642983284218511
0.245460794375793
0.756894542165795
0.297428133298003
0.302047004631001
0.310099707522442
0.345089902814475
-0.534306513120395
0.794753475600963
0.563009467752919
1.02557754963705
-0.24994031996695
0.404143522956056
1.03273876703092
0.621440830119171
0.729750897104848
-0.747330973420267
0.860660956152762
-0.0483745896428264
-0.151906924405938
-0.416854725372715
0.668336978619628
-0.0783082338530229
-0.246736935215043
0.0753184100833859
-0.0879856905808505
0.209922579468519
0.938179845358064
0.703061760706234
0.659570806300532
-0.927390432837004
-0.865466205235315
-0.219772759105554
-0.816406212290589
-0.7175282586855
-0.442084107884429
-0.887575802981995
0.239458335753049
0.850435560147169
-0.76332773879186
0.246350086611683
0.875171237264538
-0.610382713239061
-0.27175840844164
0.602697646265882
0.757439563834112
0.634748378354007
-0.858445941093833
-0.706821507924333
-0.73707449117454
-0.0597467717493575
0.0682724853675955
0.374513640174046
-0.00313334865334942
0.0026349817096667
0.817058185840543
-0.805006890806761
-0.039412415826809
-0.684953245717532
-0.386552423789476
-0.658160508792914
0.690206753121178
-0.0365920810823567
-0.73844858114614
0.537295631912555
0.86259224710374
0.767750779834066
0.144711725754183
0.772977560839611
0.121911977258621
0.68024951259122
0.103104099280749
-0.830161639089486
-0.107247766810573
0.697317874455012
-0.130566847814907
0.436429460571135
-0.740975817911144
0.186476965338601
0.380982402794175
0.332055407218677
0.102728199236128
0.589956157814825
0.32177856871429
-0.400584189747413
-0.0617149738022421
-0.221039435375698
0.946243088292022
0.421365111902173
-0.327043213458182
-0.522716496006444
0.275774910441847
0.0686822146009566
0.320311006469899
0.849936597934805
0.660186835600961
0.0614328707753688
-0.697684139267901
0.317926627187094
0.8544723470061
-0.878776241732048
-0.331699195615784
-0.512168375937301
0.324191538707453
-0.304778618415008
-1.06009097044571
-0.0154543450809179
-0.385171909232814
0.456832817084064
-0.763894911408713
-0.572136234069307
0.873254583486956
0.619750283518291
-0.205533524078364
0.298114426339295
0.410830177243747
-0.753151875132454
0.734135019576603
0.668429969027169
-0.337352478773203
0.195893898660947
0.887160763223635
0.792148230626201
0.285100979488528
-0.207609406609882
-0.441725339644503
-0.822206257643195
0.00463436188986092
0.163074921884532
-0.809765848442305
0.931423056610338
0.272474595857483
0.0415976708452769
0.450692668361057
0.351142129124039
-0.193300426217672
-0.249588888456204
-0.65942507797553
-0.36638896438631
-0.421452208751583
0.819897749337997
-0.925213734663293
-0.345541797786608
0.36145382949293
-0.633252276522456
-0.361845890042677
0.574450562331869
-0.792230840279764
1.034889711362
-0.530167511294077
0.438958884136332
0.384868852947922
-0.362889832424155
-0.277797442190287
-0.212050268555795
-0.617589793417148
-0.0133179036331116
0.305172390719365
-0.412982044776418
-0.763102380857553
0.837018211302785
-0.947802127915848
0.488673269387293
0.335311289830567
-0.645438211999647
0.199208545119714
-0.176910375518553
-0.888759062505328
0.316570920659156
-0.640888339737511
-0.287015265965574
0.964493653933104
0.137379214217541
0.0558967519156869
-0.333251506743402
-0.118141663440088
0.124943464770792
-0.656116243344188
-0.124769275822332
-0.848900120031223
-0.0160831703859129
-1.0243820239482
0.0367838416832815
-0.229768451036609
-0.245428233422078
-0.497136401233796
-0.444819840743727
-0.683831331602001
-0.2762821276658
0.0100952435956189
0.787686901070459
0.430280342147911
0.813750278029023
-0.494112970641991
-0.162416315449116
0.803882074711522
-0.451659055606785
0.224958420350183
-0.00354439471281851
0.115974322074729
0.754945034683514
0.353160761413957
-0.390081414992413
0.354645442206121
0.559239853002929
0.304141007295346
-0.832444392319191
0.627954689409373
-0.902552129369881
0.854567813903428
0.215038124167298
-0.382198600426526
-0.662859409944096
-0.707926915581137
0.119206813556856
0.77457367701288
0.0714487023655218
-0.233774587018342
-0.526098326569816
0.774617307612383
-0.319699627689446
-0.384806140173204
0.575659216787068
-0.489922339165649
-0.281032105108368
0.397237970099986
-0.672529674869269
-0.277321960971002
-0.773608458274983
-0.195402695267135
-0.784387393157417
0.790383340546775
0.315835427252488
0.667801293176246
-0.662849127957861
0.662746200864419
0.347819725927574
0.569998425046034
0.0985808215657371
0.386807481785654
-0.768610481733859
-0.219189171095132
-0.913434996859759
-0.256434340561359
0.824406832517523
0.228587356418343
0.0252598568287375
0.443541009012629
0.30288548136993
0.0382439180732846
-0.0246720716459643
-0.879468209275773
-0.000252723053854476
0.359369214832553
-0.351032538498769
0.2949992913724
0.848274841348446
-0.85480129719673
-0.261194353601336
-0.596252941440477
0.239221362786798
0.575378296891323
0.477520494501884
0.370037581737639
0.677049456742395
0.380494964141822
0.20287878615071
-0.430498115426464
0.844261630513883
0.319579216579841
-0.724765876048475
0.318788997838057
0.63271953769523
0.179198937310768
0.561608040306728
0.79175487785964
-0.683684703305754
-0.289977306556155
-0.164147659816694
0.757813723279813
-0.504529557240254
-0.0980627602319425
0.461824671788862
0.162418558014418
0.826129004788538
-0.843592770559134
-0.0504093084745694
-0.750284163505762
0.349607033580604
0.28792118387597
-1.01854546037238
0.355370675248983
0.00967823880890592
-0.181801291890781
-0.8400495379141
-0.385933254960847
0.225355887246898
-0.369416852134048
-0.0581136418045187
-0.749168955427255
0.963900396723146
-0.436253242641265
0.674076667706974
0.883224838442491
-0.409506470066906
0.545274781726839
-0.457624422237252
0.990190598254732
0.857385680945518
-0.165989565425374
-0.119579656832417
-0.00522754037293539
0.237383456623577
-0.0451569404936403
0.901616047484461
-0.592654104895331
-0.74366177950861
-0.52404730460382
0.666642099500516
0.675339030805459
-0.336872076605273
0.152412062138515
0.328583336217571
-0.416630917975987
0.293757618622537
-0.124995612828147
-0.748842211476049
-0.321890126895596
-0.0202507286664807
0.0637660498796507
-0.294904188560768
0.691594584042595
0.684490523162871
-0.432566735767307
0.898370774395727
-0.849305515915862
0.459429608910576
0.647344397570766
-0.45542542323641
-0.732827041024859
0.617607318038718
-0.0423583131086544
-0.647410362674446
-0.46206802574648
-0.553883457277161
0.111463877215171
-0.745955686466352
-0.789180316440618
0.127281824731549
0.921555731477494
-0.554934368200896
-0.241454394975199
-0.0766747485103327
0.24669278259287
0.561783208569204
-0.275559003190122
0.179901232891409
0.114334323697829
-0.296841216355791
0.823355811521449
0.325360287992549
0.940685909407543
0.201819583263479
0.0871170805594923
-0.606156577530633
0.30395326626638
0.376762031493591
-0.27789833247143
0.0779612963495034
0.730634486779982
-0.00880673958443093
-0.316078993205325
1.00958788940769
0.550417937411671
-0.77524631568157
0.895523458418299
0.0137087874522836
-0.00797344318221321
-0.744636387243103
-0.754923130544345
-0.381889666846658
-0.952241483167125
0.534919279537804
-0.00788927157501443
-0.407696266649047
0.981909387440655
-0.0493396706826634
-0.327015329363142
0.170192731564018
0.329124939210311
0.190173591369728
-0.44658283756755
0.0839422350775319
-0.205522193558999
-0.0146333765855795
0.682541206192198
0.72757624648838
0.217213902476878
-0.869707103137539
0.153806415486211
0.80591426523239
0.685595803802927
0.274806147085981
0.560772373414973
0.156359404541142
0.942208071413009
-0.141684053044478
0.423754633279031
0.0487635450805934
0.677488953704341
0.701676262393905
-0.800833120977792
-0.0636494277618853
-0.412284980374035
0.339937497008713
0.419443468382435
-0.494568829537644
-0.728895473795884
-0.465636586695165
-0.563739610664717
-0.602109478008019
-0.281931523639879
0.571861161002479
0.773661453540296
-0.426127616641091
-0.574887894094733
0.570831104648299
0.172294229064281
-0.428704687260657
-0.430560685958763
-0.791678707517261
0.860828163498881
-0.0868911952574991
0.11578909350505
-0.573954186929842
-0.0699706700086766
-0.214766122492538
-0.989899630080653
0.86849195398871
-0.301349406336736
0.21367389183619
0.568373988939205
0.576219555688628
0.369971351024457
0.43398909229278
-0.250416884378347
0.391632922837434
-0.666333816788665
0.387731630210114
0.609891511897577
0.331123485565156
0.66940158260426
-0.113385529862787
0.822556731457598
-0.188576539976837
0.0779057412939975
-0.927810785671825
0.405797542750622
-0.136655256658534
-0.36371373174114
-0.711659619585733
0.564006974212807
-0.22274447268504
-0.549403612554611
0.491640785946298
0.899674115759869
0.325483110630903
0.69355688647368
-0.826868883675567
-0.611141743698447
-0.469469329118557
-0.675959226269574
-0.801967797139706
0.635078449448882
0.0429694723663298
-0.288434709140149
0.111624898994596
-0.787802373756274
-0.587196129722933
0.916589518288489
0.0959904520235557
0.264644665976904
0.819980175021095
-0.0348310343480371
0.220638796719008
-0.498304691749412
-0.0915088347345786
0.0528854662549667
-0.723665486035611
0.315774970085072
-0.163975335869576
0.363844565645847
0.140254146589681
0.231050793302461
-0.58920815835515
0.649621485110372
-0.208886862859373
0.110662959193558
0.819778088504982
0.418722064701075
0.255132761672975
0.370147658648154
-1.04826092688764
-0.17236629371758
0.0269084248351895
0.0246172197686371
0.489384697545421
0.230307602506839
-0.277254287816389
-1.01846772058256
0.798615485711487
0.756804066663851
-0.034274801380124
0.000635867544800152
0.666596169174479
0.0308218860508944
0.609799134104496
0.693894068497001
0.164048310072578
-0.10272719182409
-0.0179111272050674
-0.708863267805608
0.558731304366156
-0.14526816886249
0.551003958020562
0.135896564633705
0.108317138830459
-0.176025667339117
-0.0198220484603324
0.0945694303026008
0.572681406766968
0.73066482152957
-0.741838937149113
-0.0101054141738169
-0.394090393095285
0.518641830577538
-0.00235466770611133
-0.326753454755745
0.860112839797094
-0.634282069966931
0.15025576907583
0.69326466898439
-0.66966999594252
-0.787457422855788
0.213921797995276
-0.237360924106163
-0.833943119973643
-1.00618108029203
0.555826057611007
0.314537780334248
0.839932721793634
-0.0179096952858388
0.896333050757274
-0.111231418403619
-0.457167452128821
0.0486477178831354
0.732806219265159
-0.0114812753478095
0.127120258345202
0.704260578899285
0.843593131957665
-0.331439387417793
-0.87263235174796
0.319850803312543
-1.03803585846258
0.741514239438566
0.485868029885056
-0.701235411570498
-0.414774407114525
0.881770905933114
0.700336833013844
-0.221834000352657
0.651252721649975
-0.356929189795003
0.503602974904729
-0.0784686587458439
0.667986307960854
0.200170335738319
0.408934020707884
-0.427252342315389
-0.208510160056676
0.0449996700939795
0.311729508128189
0.813649017451994
0.304563183133928
-0.28914491866441
-1.14165579753434
0.342899255945212
-0.577856568487691
0.450072801567291
0.557797187122228
0.665082823855213
0.162343286387005
0.773156789770282
-0.635956208344838
-0.403905818508557
0.626688232816513
-0.1494629620796
-1.07122963119193
0.277733313912644
0.259255202524736
-1.01285738992122
0.353228531789956
0.246277290426336
0.0715962892649329
-0.208031135866862
0.0732979430078926
-0.107317909169335
-0.0592340882405063
0.312629755860392
0.220684848372547
-0.395298673620088
0.704420972262866
-0.254042461057776
0.026362118681973
-0.177839588428614
0.314884690772606
-0.697182027572805
0.935772028876691
0.202256486352485
0.810272661535283
-0.952336686893583
0.756030151538659
0.0241378259353579
-0.616909054823794
-0.835328007573429
0.591755258823291
0.867946262578214
-0.484979179131075
0.343971239581056
0.490477993399858
-0.252584230830608
0.0273351500980277
-1.00307752337263
0.262652954118927
-0.460378729223705
0.243476892589291
0.655060383086568
-0.571149901174099
-0.49010479515943
0.864824873238053
0.197710381310498
-0.495295714713669
0.0964124924453128
-0.693529198672554
0.0858111563358842
-0.861924525728474
-0.389116785367585
-0.148295329523893
0.594442683284853
0.292401640426479
0.314832202099837
-0.00391960986267235
-0.214282465275759
0.437653295518847
0.355074121948921
-0.519794715410529
-0.267889692122342
0.289273162001441
0.217874633248113
0.257953307105535
0.0584778348459326
-0.609215886576621
0.540054733220463
0.543813747442309
-0.879597847814475
0.311797229856546
0.754668700797381
0.840252372296257
-0.404802862325342
0.541085939412094
0.644177563773009
1.00290353463491
0.485049000719412
0.390199417478853
-0.234681018755178
0.579253067388655
-0.320877684970343
-0.0916733826491364
0.398283939228134
-0.919387294969112
0.02476709254591
-0.0170870385207786
0.0118660681852899
-0.873857196485933
-0.659512216898747
-0.771787690770343
-0.458533215052218
-0.541653397200962
0.609307250823742
-0.951609894555933
-0.383178663284885
-0.701546197127641
0.0320003101615376
0.109021998166023
-0.118362476759295
0.0923260574227341
0.0277544698198867
0.521680105683533
-0.705999099581984
0.929435914191974
-0.582811279143507
-0.293627778774155
-0.761249653521386
0.932859450594314
0.657781598045552
0.545055945977736
0.419280129018425
0.331178148415386
-0.224728641754565
0.632673904484401
0.72687016617388
0.727688172093041
0.793666002793736
0.285590417660156
-0.729613509261407
-1.20314583147467
-0.0157667885446835
0.275136591909749
0.304663771864792
0.917327403509589
-0.322221692716281
0.11744502948274
-0.803405252042989
-0.23831065643301
0.0969062324375229
0.450809779960914
0.111169297611116
-0.430170829420527
-0.333215438132264
0.679101537996754
-0.509822417333725
0.0895556118078992
-0.192007117741334
0.688189466168277
0.562238807786946
-0.866478964404074
-0.26795388960582
-0.0170661372096495
-0.51100998865536
-0.327620321515127
-0.542533319050703
0.0657705852673856
0.610834448272834
0.63206865769216
-1.16130064691684
-0.398195571640539
-0.479990353194789
0.614561361449372
-0.417549221441061
-0.244033496051614
0.920940072122573
0.788355545226507
-0.53745200447917
-0.588191798426459
0.190067436481858
0.359529757338498
-0.158527280180994
0.722265261633254
-0.145871959910981
-0.724216293730224
-0.2681778684191
0.0911161733015261
-0.356012996188545
-0.0145343075019666
0.298521816444489
-0.266165346450973
-0.0131015031962465
-1.02778604604596
0.441750262632192
-0.895027402232393
0.10083171893563
-1.21231235390945
-0.634266138141641
-0.754078199259417
0.364648543017629
0.407004034018406
0.234217783824873
-0.839689295022128
-0.559601075375065
-0.718396836982588
0.0508183333289132
0.332498911004783
0.880631923865356
1.00889238967139
-0.810868236090563
0.0433946803136952
-0.293232281630465
-0.558924539769715
-0.316939610684979
-0.489749229724762
0.527404702394684
0.190175995605066
-0.718740832759883
-0.819100508940387
0.835901581181991
0.185626370208155
-0.741930011336814
-0.298931285630052
-0.399847425477117
0.151289763296334
0.241960914759529
-0.92855130642469
-0.97875524363135
-0.666838054386728
0.439241300263012
0.561140964010712
-0.35273192478546
0.775086652875826
0.00878421734263086
0.5860976151659
-0.96272945528425
-0.20648702762615
0.586483312461854
-0.107890296388026
0.215463761113236
0.146828994611516
0.274710729698073
0.0850410920673894
0.250222367613738
-0.596529981767595
0.892842522748303
-0.723061792577216
0.0767321637816777
-0.136155126101251
-0.53157426119941
-0.9571608166194
-1.13102780531677
-0.733448001212448
-1.13830482785735
0.459628048197897
-0.0121987689143735
-0.540617466294539
0.352536457582803
-0.452748259178127
-0.855450348367973
-0.537990309714108
0.315642696298205
0.436787123497014
-0.521545792077614
-0.349404225114999
-0.386108732675448
0.297549906426142
0.480930192268203
-0.256867182918993
-0.645716766083248
0.187480428050274
0.924232737905328
0.376880703002095
-0.290332630138775
-0.616623115785911
-1.16558145843971
0.120490768234987
0.327438085202368
-0.689969974865417
0.630514283633
0.0272722560570718
-0.633503316272582
-0.609021060213284
0.658188151615595
0.378265822323001
0.491923578684046
0.604810577608264
-0.0747392522851768
-0.0310467823968249
-0.318758069205303
0.61014134228528
0.361211994352622
0.0716766472051598
-0.0147743338425796
0.195270681817324
-0.801736035697338
0.837553488203921
-0.305951102022213
-0.13813615125415
0.944564764992539
-0.460536205321776
-0.452679822429724
-0.883973552264142
-0.517151689063539
0.203680294433101
-0.972366848790042
-0.3913846167295
-1.05564897833705
-1.35745215581937
0.241992838435043
0.10081217712445
-0.252519548403124
-0.0266090034464458
-0.166715862143083
-0.516806734932748
0.236835551378377
-0.496379044484252
0.897832307362794
0.0998786576606386
0.0362279163233736
-0.042542597755409
-0.524867045661178
-0.13519862030796
-0.513650408777015
0.0378505621888889
1.09503587608258
0.0737311484570437
-0.493522443678466
0.340476411325121
-0.979423442215191
-1.06322777221283
-0.488733984611545
-0.575050265981444
-0.724008392846795
0.10833703237853
-0.305850457630723
-0.560317717403788
-1.31774179887116
0.717476133184872
-0.108604806286752
-0.1923879367253
0.658286896932034
-0.174294761568607
0.169700219325722
0.405763300273308
-0.00889168376480671
-0.625592706148126
1.09455659789432
-0.597389520798594
0.994861848511292
0.657856833877539
0.879507653095685
0.61494872917831
0.914165301486091
-0.0452950666258883
-1.1442609819464
0.368933768334994
-1.47047214215566
-1.46080723377003
0.358387696924944
0.0234878315531537
-1.00776551941786
-0.573190000950261
0.562380099057444
0.306237107945712
-0.729808785024354
0.581796998291763
-0.791734090014184
0.632892357506763
0.78274853856667
-0.480012178804561
-0.476629782952255
1.06723804734396
-0.721154424103362
-0.715514027647452
0.333090914178652
0.706129619929717
0.707324240063044
-0.0879246711111083
0.823225256303748
0.602810210207177
-0.0973979653836052
-1.01651760512505
0.171467257285026
-0.775195303716366
-0.830393401615384
0.193313816463642
-0.16522963659316
0.339598661377437
-0.185309059811221
-0.202780229783014
-0.387043498702552
-1.03774433837286
-1.04038821024721
0.246408421700032
-0.558791740912585
0.12518701673136
0.247539258805498
0.762474750951927
-0.026614331218956
0.263679088643176
1.06208549391196
-0.447278569378365
-0.154835872614457
0.806868129616116
0.476611678674877
0.922101284966915
0.419517075669747
0.748636725022127
0.786594124539068
-0.51984259205465
-1.04479419117356
-0.117356523701168
-0.808684041039614
-0.851699946629658
-0.607992412470991
-1.05841623590396
-0.332483768604138
-0.296948811546174
-0.143892106492856
-0.156412920353973
-0.614556067817682
-0.590729806687254
-0.451583167454509
-0.198577802748968
0.822897198533678
-0.43830321706438
1.12502957194094
-0.117809013001167
0.557460702656322
1.18035947494572
-0.29809720157239
-0.499618183617367
-0.539687198811309
-0.191997830604764
0.792649730945743
-0.360171726034589
0.563245933000067
-0.866353938132998
0.448834515781199
-0.327932259937973
-0.685658739225576
0.370001451042591
0.712176152889488
-0.616642408882126
-0.366567130756321
0.447076531358704
0.696469578543791
0.639024213202086
-0.386993552595331
-0.756278105414092
-0.746285671470056
-0.729524367633427
-0.250533206132418
1.20000246532864
0.0280342884169017
0.497954627308941
0.564619266085847
0.739144103338703
0.999452344769331
0.357238136429643
1.19601838518659
-0.323512776838138
-0.644012225795895
0.821457194996012
-0.844313234743792
1.14338331218794
-0.00262816139096218
0.582712678057597
-0.420465722418506
0.788062531934255
-0.643476139323479
-0.20185707837155
0.567473983042468
-0.700231732368277
-0.439128418182327
-0.121120337521399
-0.446173472655046
-0.921578868170873
-0.925093370727612
-0.892250221883043
-0.308897218012987
-0.452555562730937
-0.576502074870175
0.218486115852338
0.504270571230616
-0.925009855985695
0.750034390255752
-0.380939924796775
1.14842112689296
-0.610695894277915
0.139529284168891
0.935623415241638
-0.743829645574352
-0.586730785759905
-0.256337294160592
0.643762026838911
0.0603842877489775
0.815405103946825
-0.660534305384709
-0.0982279721763616
-0.167286346376766
-0.839212906114677
-0.134211413940915
-0.466140786440398
0.727153942513156
0.44341969899786
-0.28727337312936
-0.813551893923401
0.36936776769878
1.01553081805765
-0.00598125121027273
0.552330803273992
0.522030298231914
0.714480299257171
-0.249039545586736
0.905451701371009
-0.433225539247952
0.219220275870236
-0.549824196352997
-0.765024742859135
-0.51920857617585
-0.411056895192514
0.755463839687231
-0.4966707245073
-0.052678958560161
-0.327731862568636
-0.105063315975649
0.534600605567262
0.77039188306302
-0.164269711283928
0.529592388733646
-0.519335272233523
0.825399720618995
0.333701444191009
0.310345032616695
-0.833744066277119
0.275908864356072
0.675266018443033
0.528841884534165
-0.72430375841815
0.492180572099279
0.479829853918676
0.280322398591489
-0.88196140815534
0.308824860911584
0.387671086807127
-0.648510269084256
-0.464753443207903
0.557837834417338
-0.208192223817284
0.379885217638633
-0.749116449288397
0.798873853831575
-0.666392059233197
-0.299765412659045
-0.469001970152896
-0.355790896217679
-0.446533969054063
0.640743128950544
0.202033404256099
-0.072221170683379
0.417206723085243
-0.619208207085061
-0.874386170503024
-0.921205113500813
-0.589295491610833
0.824942770864643
-0.589086566954489
-0.398123524262735
-0.419334019421401
-0.370100255680297
-0.237603307071273
0.370087585600283
0.744573801647704
-0.542837481952545
-0.236217493243921
0.0883477203049607
0.466205127200614
0.0833203273861088
0.316556856096202
-0.908812827087199
-0.825254306261954
0.885162053949863
0.013126469635848
0.683354390081429
0.585686132902409
-0.0974974011705458
0.786368604398698
0.053016533692862
0.0253724966902635
0.536544856072704
-0.489576344189986
0.704159468361859
-0.783974486473753
0.37056264956303
-0.874490946032286
0.225618330896955
0.152413483897263
0.968697988349874
-0.118831862872422
0.600997004618175
-1.1609290491132
-1.20466535080409
-0.0697766473841996
-0.925422332041772
-0.55785035005359
-0.54545694030903
0.427964622133299
0.232651722280002
0.393260770428461
0.162293603724637
-0.00631160352941835
0.390160217815143
-0.63854221025888
0.139270837867504
-0.132884226093568
0.69333917512876
0.456961250212242
-0.496930397987108
-0.517040600517312
0.301743977635036
0.857308803039676
0.250043000646422
0.539869509766379
0.141665795056362
-0.772004449042714
0.0820989330402656
0.268655957572619
-0.367715013242427
-0.437107343881941
0.654996513546878
-1.01217613407451
0.479410595057715
-0.86196678008036
0.543449612514028
-1.02700635170399
-0.980881742338379
-0.354594790332303
-0.249300366686198
-0.0863787920479544
-0.219182734597575
0.235488847023143
-0.606775758698564
0.572607460308763
0.876439504980247
-0.447600445941438
0.150633823767882
0.458485551335374
0.164627508260731
-0.467087436704152
-0.637972629040082
0.626528277117023
-0.412393705102982
0.51337783172917
0.488279641054613
0.683190923687581
-0.297635180102443
-0.470038796860573
-0.874709341642661
-0.866069787518867
0.660960345069433
0.528912509625118
0.0677380359955163
-0.290101258705649
0.558678012469911
-0.0390640952127343
0.348381232428054
-0.0279822824661406
-0.576043436172404
-0.115046949804003
-0.285437557440475
-0.00121364728897769
-0.278173708594181
0.549094095112449
0.689370689860595
-0.894455775868587
0.601264846417611
0.75457753514518
0.6073834759713
-0.591031915156817
-0.0475465048231662
0.547836000871706
-0.9337991732644
-0.890274082008979
-0.675064284824178
-0.757624982481373
0.557047179917323
-0.873746900517391
-0.095126386397172
-0.816743852836377
0.491477579685888
0.57276131452547
-0.454437398048071
-0.396001699034855
0.314464060722928
0.269417485082784
-0.85495336554488
0.668411206845778
-0.992096169818217
-0.0850374875513432
0.201029075702823
-0.822728388185741
0.0354683731783266
-0.720198961023592
0.820036141985141
0.3690790824217
-0.0861324595694117
-0.0170121381497224
0.705093338193695
0.203899800011529
-0.968528764948217
-0.0906493504843633
-0.0894974317393308
0.748591732131598
0.20273708699352
-0.864235151439995
0.495176939792555
0.0592365891273317
-0.502280322281538
0.309874275028203
0.346037714723409
0.276152659173273
-0.815664142482524
-0.668613301229743
0.438764240460558
0.179918166324246
-0.501142885824775
-0.837982146123139
-0.683415901587375
-0.504622307482656
-0.895834645730514
0.939023260289876
0.753497788684579
-0.286265455938609
0.198338427195956
-0.323556732294748
-0.663455785917498
0.65975606811607
-0.763952859884571
-0.0823667355548546
0.319434289627222
-0.452204534752377
-0.722859767418604
0.511978777589446
-0.908800784362872
-0.426076123488219
-0.321860341128507
-0.322735456452104
0.260748283834207
0.138497439516321
0.757146851219382
0.0721239579739699
0.0927751965360865
-0.484755522004814
0.342975680846878
0.859057811903355
-0.919775415137617
-0.178678436959089
-0.0827071297067012
-0.336107125094203
-0.106448585490677
-0.202161336345726
-0.239865938527891
0.275972379176058
0.10054829086751
-0.89237115145919
0.269084669348352
-0.770583562771353
-0.560495892327969
-0.682213529366976
0.387635245404629
0.420508124525707
-0.475594231446622
0.315623085641663
0.876311464341274
-0.268234779985842
-0.184112582575293
-0.483887071527776
-0.750369296687807
-0.0785904856317237
-0.538231172758709
0.471045640601657
-0.491221783287863
-0.089826714063614
-0.421758407385301
-0.121783912965229
-0.33159500916807
0.0711775928700512
0.18631575827964
0.21741988793019
-0.408977495798145
0.590977488298449
-0.247516788980683
0.597159525678179
-0.850945285302821
-0.412808658642001
0.586949454394688
-0.350631208751256
-0.953113432196301
0.674219630669906
0.135154044189402
-0.739934609950716
-0.7284540443036
0.0378647232822187
0.652341269748903
-0.741381993107947
-0.380639443179339
0.889323683569605
-0.325156217442975
-0.517366404149179
-0.12381029820757
0.527231764110595
-0.32213781903754
1.06780433369807
-0.831030459328066
0.238188578735333
-0.973496995189688
0.653931302860353
-0.30953561951773
-0.693073567931582
0.363463119331923
-0.845000895671189
0.120228779479294
0.268819539036171
0.552887644678547
0.566519465456367
-0.45315346696672
-0.132711229767987
0.10867733152918
0.141903978805857
-0.0158105700307557
-1.0023506634773
-0.836487183611585
-0.779529716710839
0.518541297479159
-1.00472258948104
0.10510039055649
0.427874737017287
0.275432025467157
-0.419970158991218
-0.488336617649436
-0.141207697779756
-0.673121663664376
-0.435281630035806
-0.82969730885378
0.0375649415686664
0.0937206424385371
-0.12153255619956
0.381056362546524
-0.139838551311927
-0.380604517069269
-0.885659873188101
-0.940110080219448
0.629250877414949
-0.73464372042676
0.0956379112057196
0.100976476532939
-0.354651238846289
-0.0450881894274053
0.528540603054272
0.162081402976727
0.260396852698651
-0.619542583338869
0.0799389010090413
0.20836231685793
-0.201317065963015
0.36352622074818
-0.425093967996739
-0.405740005000336
-0.962702918592436
0.81887640094092
-0.709441980554658
-0.785160497072495
-0.74097193523054
-0.924513123478119
-0.328711859135404
0.692304566604327
-0.476951977985567
0.228326365157622
-0.132998587762191
-0.202371072661719
0.764486702738768
0.57037023356463
-0.393305029883852
-0.222361944324221
-0.0814323237614045
0.761043028992217
-0.827824822506069
0.518947105278018
-0.919150136608237
-0.231349164157305
-0.550329622878028
-0.465017127788237
0.773119604715512
0.352328503263601
0.203296238325856
-0.530689854343146
0.0645644604328307
0.0481795019538949
0.129389073970847
0.609251264749239
-0.228233258417975
-0.413217701110822
0.57215911007674
-0.022836041652148
-0.629169638195028
1.04081424947546
1.18065787306069
1.00655533238702
0.941816180749791
0.704438771929983
0.166315294181936
1.03911379599058
-0.247652587730543
0.149885634038192
0.519458376262034
0.807994301019168
1.0320924397312
-0.255531325117168
-0.342119484159829
0.366887054975377
0.31756624270408
-0.0666540172163027
-0.575679529270814
0.381260404576253
0.56323464768021
0.836938760918463
-0.562853179268747
0.0945084355114514
0.271240158635269
-0.43661299902165
-0.136099663572531
0.495624807009532
1.16534085916044
0.347836534067219
-0.677838686802595
0.531025356480549
-0.593837495302609
0.947189761491511
-0.0696869680550615
0.404736216484405
1.23546029985556
-0.219298174085728
1.03607372042157
-0.00867971844891409
1.05880371449386
-0.28175906615009
1.14122222480139
-0.0127565993803214
0.787702114998494
0.196470183022316
-0.40414815391202
-0.180018176909396
-0.182643136451626
1.00953088019369
-0.575219790094781
-0.932743505689821
-0.470549090276256
-0.51799943748214
0.677545115889835
-0.403618939301794
0.622246587033074
0.0942455848905499
-0.0424702666150309
0.692182240747778
0.202914911063866
0.868236786731635
1.16393263118326
0.648856086523768
0.231068029418882
-0.506435261368154
0.93396417626113
-0.48605160795471
0.855077922215069
0.121185377268001
0.238919518732793
-0.201040964303379
-0.27525852206808
0.316069716513061
0.594735039835513
0.325714320482058
1.03553045521915
0.630041521192633
0.446332541257039
-0.81612204712667
-0.799313539123098
-0.623025006414287
0.0193780517576765
1.24212779210405
-0.11049962039116
1.25781571861719
0.187831654349682
1.16116837901119
-0.372951940836484
-0.453662959583724
1.05822661215182
0.300801683187487
0.913240761140604
-0.281228457521284
-0.740514231446011
-0.536198408425907
-0.573221723903223
-0.796567213785674
0.771398099965819
0.42922495402012
0.155892614644279
1.03634877574492
0.0359936293094509
0.860981882892315
-0.133443821621489
0.627078370961357
0.389016647476114
0.232520107505011
0.0496735617808672
-0.272581939099798
-0.080178841271802
1.03462603509167
0.504147419528218
-0.355145854233396
0.48469236704631
-0.0971836948149796
0.125017825258122
1.23408116662429
-0.00209751072030129
0.0598348109582847
0.284942231692684
1.01284768885121
-0.705364150173408
0.534919663756507
-0.0318894186748931
0.763040047430264
-0.181715469383794
-0.983961971976318
0.014016346945069
0.0913871412228693
-0.18847277891726
0.769933500869709
0.72456145363251
0.880011172468537
0.0344141326747211
-0.873258174132414
0.409225303407629
0.479197525877053
0.706232727621697
0.220779045966866
-0.393658381573537
0.687422341628163
-0.0454192508166226
0.804545937472159
0.882250439578316
-0.563281066676839
1.05504813766415
0.443463010246211
0.300647049427144
0.457394554404779
0.49878206034155
-0.578897374609827
0.336935359521721
-0.230530546445061
-0.869093398767346
0.13276358581829
0.687562784019008
0.393637193949107
-0.255277262512836
-0.0617825534084248
-0.432243290203285
0.158908399465385
-0.787696805375755
0.869642097857678
0.885430749369743
0.340122016070775
-0.497922114877862
0.538008780800706
0.358951055479281
0.0983500234114432
0.375510630531842
0.767631006643121
-0.125884545754676
1.06831229538032
-0.434864482408683
0.741415994126734
0.181930795630238
-0.484574939138816
0.791110727602952
-0.109307485641071
-0.833690876926688
0.722110581781499
-0.0837416266089947
0.62849189743754
0.554503021352025
-0.696962900927086
-0.671231476007436
-0.154182154103789
0.642807601041362
0.725857536598338
-0.529545433886318
0.91377760585932
-0.436031552309189
-0.212089246298542
-0.295510798211092
0.346553309213963
0.323681166473708
-0.106948697279742
-0.965064080849855
-0.127914672065313
-0.708727826612367
-0.420891031468398
0.900686159091385
1.1189478411153
1.03396633294924
0.79446408906558
0.744561261025473
0.587453016435069
-0.250846032478828
-0.106522255753223
-0.677437238939249
0.337291203661934
0.511132754725397
0.787999936423605
-0.238763949705417
-0.162593078059183
-0.786255776917161
-0.497452338727715
-0.572031748659712
0.515193243294755
-0.245659208890518
0.484517426602166
0.87616267271941
0.543079240660976
-0.403212960914295
0.416534113187959
0.429075233033273
-0.535848504129321
0.70381698362387
0.106994201040313
-0.896921745322379
0.977788835513047
-0.497951727527712
0.110486875010182
-0.185697489931366
0.844204146369472
1.27718125134224
0.305265183476674
0.969105527275334
0.89498038820203
-0.582282014532208
-0.307602847388191
-0.840805457223147
-0.171575903794005
0.468064457552615
0.0975561289192494
-0.514326213512189
-0.334538810239205
0.693028900947389
0.60508774083865
0.0350652281218133
-0.213033511186773
-0.455004670725188
-0.442913609416083
-0.662256673122986
0.179824430346274
-0.0151184742939567
-0.738372044982085
0.15451419784769
-0.654608533846969
-0.576089056584767
0.521898733355086
1.00681169523548
0.706481382501474
-0.00107968136495995
-0.32523875854927
0.259291217419108
-0.390240455815768
-0.00766810092653185
0.0477897366616453
-0.258849196938644
0.123752998444019
-0.325906249795197
-0.481729092910492
0.118996072343066
0.929491196509107
0.0195000296215619
-0.283072726655709
0.807727986437023
0.377312575673353
0.0519492314720307
-0.139833407736909
-0.0525527423770176
-0.57012353621635
-0.725931159345684
0.155115812428337
0.0796887441798792
0.619318249835971
-0.169362262186377
0.923441036771121
-0.150181284534513
0.837693622020888
0.881113719878003
0.600300821523698
0.617350755007222
0.0594931098754597
-0.231078813194053
-0.272088234739657
-0.902415336247014
0.0592060816596375
-1.07618150447735
0.830645003630889
0.678253655020946
-0.464057986173698
-0.3651165485501
0.560718442414675
0.702629208277673
-1.16285472403715
0.431098615304625
-0.506411189136573
-0.703877307246235
-0.521264370821126
-0.570468792839983
0.555859868560432
-0.0128517795673653
0.45607852769195
-0.295820388425756
0.801417687401845
0.221326626032953
0.396242599469039
0.0653220892153738
0.417208707605026
0.766512511293889
0.184847559067905
-0.7424213085942
0.0590572142326149
0.338161706275117
0.141832713680604
-0.203347404057804
-1.07167302267185
0.158580129460053
-0.775582728724886
-0.67449332202315
-0.641669539551801
0.0273466959076764
-0.0532557213095238
-0.0551508475994804
-0.670021959482673
0.73136010966156
-0.431617581302062
0.133754634329086
-0.0740973387960045
0.762824895722486
-0.70458823392399
0.804795084280084
-0.429765898655046
0.245501206199904
-1.01863973613377
-0.737573310704549
-0.758707812840236
-0.554811487669757
-0.111814238402756
0.329349481670145
-0.345040305272623
-0.959738793688502
-0.471549922905447
-1.09828299588928
-0.670933353805192
-0.704413138006247
0.49645147393564
-1.09208243692311
-0.803531039607638
-0.277061714587642
0.253032286405594
-0.0560498795085768
0.776819409684191
0.781675031054363
0.594871270573106
-0.878257806180265
0.672703529069486
-1.11816505225019
-0.823579790519955
-0.804004959098694
-0.26260411811209
-0.852563988091245
-0.986576491361591
0.636186903000178
0.807926005331862
0.589631972661227
0.490069927456707
0.60432000930475
0.397660874081785
0.0758943870357101
-0.353511678742224
0.410458561610559
-0.819031167364006
-0.0742605140033311
0.67150477755934
-0.829433851670381
-0.641891064681437
-0.0327657108987516
-0.389623671479676
0.805370631180554
-0.955837102025155
-0.673583048536829
-0.45222356246038
-0.975614912927093
-0.707882082422486
-0.178902718749488
0.764325019786862
-0.215121575505573
0.410973050778473
0.521279838878484
-0.609607955643681
-0.593605832382732
-0.469114469193862
-0.282193579032783
-0.693966784698479
-0.566965945404597
-0.783906464087966
0.219025693626663
-0.636598380550705
-0.105815856260308
-0.143858513127055
0.927272870260169
-0.265612768220244
0.299625796069033
-0.883089677099605
-1.02530773673112
-0.0486361111387071
-0.0903035499796768
-0.885891581547987
0.133162757650912
0.452685665344956
-0.301276184894292
0.345704047312581
-0.727077807944503
-0.698129109094078
-0.441064499407135
0.37251646188728
0.690609417709507
0.156562298764393
-0.0401668757398929
0.806747797558875
-0.530828927753169
0.665426318037036
0.546328617670278
-0.265050256513138
-0.383414256954241
0.17938029700644
0.6179172115005
-0.273804947164809
0.327369642264782
-0.639646201759792
0.445969018282049
-0.337656546082774
0.799474940738939
0.200646675004152
-0.779830373133828
0.575275662232757
-0.0640106334395658
0.544741933908534
-0.784964380004329
0.929717080825562
0.157514133062404
0.0491663956122542
-0.439462195377153
-0.888973571252694
0.571178878336839
-0.0583224950165108
-0.691419256262244
-0.563545181905944
0.407805520819062
-0.560281536836272
-0.863857625273856
1.06846902286979
0.619862676263152
0.232011549525257
-0.652951818340386
-0.70227798249914
0.258527596456759
-0.0929754494865223
0.814668222993262
-0.112647999681553
0.424509533327621
-0.695761794154987
-0.104198006267264
-0.147285068574511
-1.16669720767095
0.65992213743253
0.268394461104016
0.000375290126208746
-0.792568790788662
0.1126505564889
-0.45384844154484
-0.961276006487523
-0.354721963015172
-0.271199913719691
-0.380443850431747
0.464505434678269
-0.133414667324338
0.056231748663722
-0.11452502064665
0.627606861727389
-0.0384018015194147
0.142398245939384
0.126415372399744
-0.185086109701016
-0.771140169074721
0.566101190789768
0.328628268915314
-0.113728854892658
0.0404146191157494
1.01706285728974
-0.470025799595871
-0.666229903681872
0.842916420242212
0.140253191033306
-0.742796458495586
-0.311530243124149
-0.849221058614641
0.584771795301084
-1.01947084687204
0.442113898409643
0.196658361753236
-0.0288088867701897
-0.785027169057357
-0.568870480586639
0.816410813364185
0.88060799001671
0.227757607976492
-0.197541673068749
-0.504177390235054
-0.335787133766198
0.159147847762614
-0.916299201091163
0.982384892298629
-0.770853494136439
-0.935903069863343
-0.535604216084071
0.250507587326673
-0.991108376977556
-0.347919181771846
-0.494222274024648
-0.309809299592929
-0.374002551800273
-0.972570262917987
-0.766284686191711
-0.254273005256947
-0.598588906688984
-0.816887015854659
0.357627603390342
-0.600231639594696
0.976939713758481
0.471337865166952
0.381958208335224
0.0053532932478717
0.219582860890048
-0.828746567935614
0.7643049942906
-0.268148438623484
-0.542351496323729
-0.229507715297769
-0.752982423032885
-0.674076030534517
-0.188367004527104
-0.596537948555335
-0.585571843529219
-0.180846652275882
-0.710424157286472
-0.757524568840704
0.736405703878045
0.329589092045433
0.958696672703942
0.493908918595102
-0.828919849460907
0.0928784429315623
0.712704218297986
0.0234346448549259
-0.178873260372042
0.144428175609133
-0.897025566386198
0.809329690205943
0.56782752742072
0.797184141624881
0.882854789925695
-0.670759771544097
-0.568807979619478
0.110218557727375
0.70853098084333
0.0422190726580855
-0.236921593323534
-0.942566270378037
-0.700339570427239
0.732528209877759
-0.213772533980501
0.229362577781659
-0.592904696602952
-0.809828465557776
-0.8355170198282
-0.750365231500998
0.62094167562824
0.427991516325301
-0.534866294014773
-0.838986885267503
-0.54797230925315
-0.952227655583212
-0.512807949653804
-0.466267893411091
0.337407802249689
-0.693119257230685
0.292916242555107
-0.801451075237207
0.357796588722653
-0.376724925009549
-0.354702282764887
-0.335182782080438
0.216282169183352
-0.537257773216414
-0.553083261972595
-0.767004147188313
0.973198655205737
0.304654374585155
0.105383416887602
0.25058485885172
0.496771290654075
0.717343559314835
0.0934153817528699
-0.711538642559599
-0.250420209905328
-0.0191030992693335
-0.273405528080921
0.564380302767191
-0.073842012781207
-0.356078236764067
0.612021413653783
-0.224018948750278
0.415254836844249
0.442481614037112
0.3690923968254
0.877282699558992
0.906842874538524
0.951669164224551
0.821232565202606
0.443124512346536
0.780113761638269
-0.404519129173058
-0.28102844463536
0.687979160318902
0.102167174614475
-0.860155303435455
-0.974680194770455
0.962126517110274
0.751276568862532
0.941050164200327
-0.691852563710786
-0.634891663850997
-0.634846307214911
0.259467788522033
-0.287332440364141
-0.19770724051411
0.0414089837190459
-0.742312921571293
0.852640408633032
-0.55785457095938
0.654930088634022
0.782958865048492
0.328481907012533
-0.214198616981038
0.110561278055925
0.951648415850469
0.303645313476914
0.809815304725791
0.131145216048679
-0.378945994505965
-0.644688791630685
-0.972822690754305
0.494671517579412
0.688859848429775
0.497992547033899
-0.0690784148007265
0.00206013536744862
0.403645982502491
0.196383210100463
-0.357744819738275
-0.0199880575508944
-0.202863951407775
0.841693755761158
0.0153589377278311
-0.595521119630367
0.310709428675821
-0.518948624752923
-0.764379343657541
-0.195762754939891
-0.372070176806072
-0.098344934688083
0.739998545669686
-0.772722661447974
0.496756871044981
0.863753298522031
1.04111062141338
0.320364149064088
1.00064840980732
-0.381990967986777
0.16360839314937
-0.151648472372539
-0.756683948458393
-0.146172862767342
0.151698497037552
0.589753125843049
-0.723619727926348
-0.121148065951297
-0.321503112185725
0.767445503423171
0.80951773752312
0.813963198897936
0.637430693261563
0.105175116296598
0.254673481074119
0.515175198345883
-0.077575070481355
1.00476245835821
-0.63894937621313
-0.559615977316501
0.887490554986319
0.594036961692726
0.210746308914777
0.131081384011171
-0.400826467909138
0.797368349087274
-0.301671343467413
0.867998034020496
-0.95890270806849
0.860043507013504
0.499165190247791
0.630916592104391
-0.00031362693199122
-0.233009126562499
1.01290287310258
0.804250696395855
-0.254229575736152
0.945517604521412
-0.282139861355016
0.472259688219014
-0.836788142858292
-0.51701014826729
0.856010436861286
-0.493008021054783
0.0336254979263623
-0.135446171598154
0.301768195938489
-0.320425890220747
0.0355156630501694
1.07992194802822
0.0786681397656899
-0.806334331819673
0.103542735573271
0.67442818183659
-0.156855654166784
0.676117452533796
0.734965396770503
0.194940899375229
-0.667168392443315
0.388059315080002
-0.117644250570444
-0.612325472139315
-0.177587041186666
-0.151079101752473
-0.693994777041105
-0.801234374992332
-0.145842229838188
-0.0454582939852864
0.172296753100686
0.535353008031967
-0.154613014146998
0.0180357110917817
0.31858875465826
-0.0564122932186452
-0.658979642447806
0.459060231483025
0.808412609920758
-0.21950373476443
-0.825551052190376
0.873193867410643
-0.350839121878321
-0.833623266789365
-0.043178932967166
-0.910816411993519
-0.0926975050815103
0.434520341674685
-0.344554325957803
0.397727705358967
0.936807616120594
-0.660247413341229
-0.904950244989204
0.585440504875862
0.651401871528308
0.345702384038424
-0.383390564026546
0.847447554567136
0.726323977993145
0.081308594427826
-0.703145164203912
-0.0837011549656611
1.0470394341438
-0.598977589377403
0.56052586666356
0.55045405281633
0.295886826310961
-0.889680286816586
-0.100714616532373
-0.756299576883817
0.464268302185926
0.504131263396602
0.970572303991193
0.0599497418749995
0.143457769330083
-0.403216843759225
-0.120134586925686
-0.190694348023943
0.439295472667082
-0.251047317643878
0.975427336849765
-0.114324154884707
0.552581949740453
0.451073755874919
0.0118500499442298
-0.138421325172593
0.509827600306234
0.338082824652149
0.448711173580058
1.05171549109407
-0.623445792838246
-0.455346417057317
0.754150712911541
-0.253688926823497
-0.482208365889638
0.304806669732966
0.822198425968092
-0.706671817860055
-0.319432826828289
0.491043041191681
-0.112141243533487
-0.102977644729303
-0.358152188305442
-0.476194810106513
-0.950500888562157
-0.476361643171461
-0.598560153627533
0.0666456261611659
-0.519130600580972
0.0738563865572671
-0.520718496128036
0.8208100051684
-0.574766234826042
0.0625337867966508
0.239537904629475
0.496619171170506
0.417202746388375
-0.318161327234354
0.46409864762336
-0.248402868438982
1.05899851479039
0.970204369352603
-0.31798556138965
-0.120007620694104
0.888731212820486
-0.0148867997462481
0.803591821629226
0.284996917217998
-0.370557712199366
0.934398377036656
-0.13828054652884
-0.337824851802664
-0.802180829657976
-0.981970362217755
0.902107589414987
0.0904698051628851
-0.740543975837196
0.0236671701295688
0.399268614178426
-0.498037748578114
-0.471323537299918
-0.41377728765186
0.0109493730045366
-0.537736108777365
0.633134049899686
-0.349705489395741
-0.801743479171106
-0.237444444518349
0.560720468637676
0.0486127265314194
0.906368703779634
0.180394404346603
-0.104534886930287
1.03239092923655
0.496554977379741
-0.030707542992447
-0.70559908124008
0.851513965031356
-0.294406066309082
0.118294254412505
-0.23926764452779
0.162234851311096
-0.537474537512122
-0.451018653087838
-0.789499880792206
0.787314474943908
0.566899124667237
-0.631703262158546
0.206153390005103
-0.747374588968611
0.369659206969791
-0.543923735607876
0.312520231182432
0.00765226198978956
-0.729228724596891
0.534709210595546
-0.00673558958787531
-0.755000751907993
0.266375031171472
0.268130500405646
-0.146154567526397
0.151533651822012
0.787679861365981
0.621235819601801
-0.915100665445798
0.746255163780635
0.823916386097022
-0.789792955184397
-0.450651976110697
-0.023980665902578
-0.15851148997001
-0.568998800500269
-0.657655038677884
-0.733270611758628
0.683306413333292
0.322268872499288
-0.849198370595607
-0.462174322788364
-0.647942487843792
0.890944121171759
0.0917402563374498
0.821463787229581
0.553713892040952
0.311331493014288
0.658167004287819
0.439321026812319
0.862407097418475
0.873716665845955
0.788968110403664
-0.95457161159573
1.02400355901535
-0.916354781259513
-0.400636052556038
0.462146314772868
-0.696615832758055
0.646789878845785
0.375059760873307
-0.127725499010864
-0.482069555377467
-0.502136945930528
1.00602291283408
0.371236433368775
0.797548222346099
-0.763961796793552
0.470921226744311
0.0097848288167758
-0.800561554453768
0.0938736906243177
0.354269473138668
-0.0669113185884486
0.358484338497172
-0.553811488024042
0.847675088218646
0.3626700276535
-0.822790967232057
-0.0100988975397015
0.575523042462892
-0.487012356964436
0.96365675191187
-0.37575645481647
0.850986029246859
0.920257002290339
-0.586098014848474
-0.469602671942158
-0.0629978294734525
-0.210210726865557
0.867583827753139
-0.0939830774540351
0.994013464065191
1.05337252815964
0.935624181915637
0.318978951415511
-0.904821122217749
0.92656671185693
0.955356402143301
0.775376914035787
-0.905872642659495
0.342513038538506
0.861570558045835
-0.316372432122353
0.238643595240307
-0.209707794899567
-0.445572527385899
-0.169660522503153
-0.357903628812746
0.554399485779449
-0.829491127223508
0.178665802219474
0.236051151645766
0.269800475857182
-0.955619667750618
-0.125965597205827
-0.124023597583826
0.912533269936172
-0.306037983053125
-0.903167506701541
-0.037194119413139
0.258809000287234
0.274942109441208
-0.261604318452799
0.219096309731159
0.369294301547666
0.165122119014438
0.37952341762248
0.0773017921069006
-0.921299506833234
-0.605597760671348
0.981356460987522
0.428148578856728
-0.553253674533447
-0.0321765357722619
-0.736236771873377
-0.356390212862336
0.234288786532277
0.311812520670302
-0.0162380057920758
0.313462450258042
0.550633178968636
0.866929626533586
0.37791336290547
-0.443799822193354
-0.312928950052945
0.699383931125112
-0.229726221206132
1.02547800631885
0.0468648259254804
-0.569706986988586
-0.766802003024406
0.303126972281441
0.938982441661793
-0.124387428970663
-0.110381410166366
-0.881957738130685
0.169670887418252
0.529577384860371
0.938959536973038
0.678941402882063
0.267619702047361
0.836813375089454
-0.383339935752176
0.172596190258271
-0.83974333289661
0.675242248448763
-0.277004774143005
-0.7476022212399
0.773761338226241
-0.769085799402731
0.631615072443412
-0.469811949982688
0.692967645580142
-0.176437320167771
0.499239216492015
0.448242306259265
0.895867298161848
-0.849738677228144
-0.43993945051021
0.752924516520376
-0.509764919145275
0.400838559686059
1.05581913511651
0.679505092056471
-0.792293541914871
-0.265836209552386
0.555948832755966
0.625639094874019
-0.826371034512479
-0.772242499104669
0.526703763556568
0.739618326138928
0.37383449559973
0.269260255271411
-0.980250265333011
0.694009018095401
0.27462666077755
-0.748836338047555
-0.620765166894427
-0.0843606357418067
-0.084578592715588
-0.468113399081708
-0.671659774195226
-0.116016881174489
-0.190645451236731
0.667760638526458
0.646924653005338
0.211214093098558
0.497989881122286
0.483674241199877
-0.787235588058715
0.00254912186846899
-0.0259127381328452
-0.786433050113774
0.239660624348215
0.935427597002918
0.89467800865999
0.0365259334762791
0.0269758359986499
0.486166000608015
-0.840035823087888
0.124035861971426
-0.891015347741552
0.5867228801356
-0.232884720350404
0.953440841596327
0.150730989694952
-0.66875965595939
-0.256926782272932
0.807395583667517
-0.73602491478876
0.75497580570501
0.810412230591765
0.670461733366669
-0.0882196609468617
-0.899549067756354
0.227027912665554
0.26830180266999
-0.0869566294003963
-0.470976790757953
0.0852521323539564
-0.632149703879766
-0.826189922478721
-0.222571550829215
-0.88762021676753
-0.397177951726818
-0.168379833141838
0.237105177765896
-0.864221636746686
-0.814930513122491
0.870896715591725
-0.705758809257517
0.257919968429768
-0.0564590435196562
-0.238872869405356
0.740236129546664
-0.611896999042888
-0.243553030804725
-0.787058096048875
-0.0175200321632303
-0.401810531954435
0.3773178562722
-0.412710417954727
0.855132253004239
0.398724719968648
-0.388599117102543
0.292798877163739
0.371674003503745
0.356277303385424
0.208101439631545
-0.203262330916041
-0.245921012582323
-0.762511890963331
-0.413235973252914
-0.521424352544339
0.887987690448057
0.0494360668635311
0.428398986462484
0.552431831168688
-0.774484692148537
0.16979611010612
0.998677254633813
-0.732055719275
-0.435638862343705
0.916364952075737
0.958121628894826
-0.459678559603764
-0.0405892098463679
-0.0481687045594536
0.185298220108413
0.79092572344455
-0.4109613903051
0.198056064690258
1.06737579969531
1.04646726454203
0.803562992848488
0.872049964120848
-0.579319835188515
0.482183742380541
0.615494490806594
0.412776080909404
0.53216708218561
0.913560163708519
-0.0381102124473772
0.412537143464695
0.176743784956387
-0.840502480428605
-0.233066892029272
-0.458499967425242
-0.0153702660298179
-0.21114769565733
-0.00596787311482602
0.206398560649069
0.978142044460173
0.815358982977752
-0.372280032639031
0.117939399531122
1.01874713817424
0.976505639255707
0.519371981298805
-0.834295485237191
-0.553664327912236
-0.477751071570879
-0.736594991087768
0.520140828654323
-0.684515753632675
0.648727600238535
-0.77038919423407
-0.412689101823179
-0.272361777271439
1.02042838113667
-0.389784012406049
0.928608277761125
0.955331206112961
-0.112929134385258
0.725468296904732
-0.840522002143333
0.404403724253682
0.216703188477377
-0.231665142759181
0.818827546874724
0.778670958748839
-0.588118608800965
0.974775918203026
-0.599110149298375
-0.205021842863274
0.403338161031911
0.25639758844317
-0.677964658802303
0.511189360326464
-0.244235271186006
0.932878733449423
-0.454141921620206
-0.942173477395119
0.513196424882188
-0.025065489666845
0.0211666247166599
0.685779007437111
0.47073405596365
0.10496399597705
0.503605442716118
0.906759606026583
-0.809505902860114
0.843363725777899
-0.00109211010397781
-0.773684372360989
0.093100707417648
0.257100581850495
0.102087687028894
-0.898510823756436
-0.523362491689834
0.714672142969961
-0.211400581174435
0.201400148436843
0.713045274964992
-0.569083295041998
1.09231783811451
-0.398588142447596
0.893373153172971
-0.241886305566256
-0.0170525805526538
-0.516104997910437
0.985817042027622
0.110238561524028
0.994194539269122
-0.859785970478881
-0.864274650513883
0.898243455168848
-0.580745057754586
0.86174026892184
-0.324561931722569
-0.536167580711792
0.93186004743812
-0.877005650801947
0.265382961506881
0.886179195610698
0.56952970435265
-0.430062671406088
-0.0190508408196454
-0.841533125131443
0.665257830966039
-0.890039790677671
-0.863407764217721
-0.761551685735199
0.0451174720881371
0.0247515749246308
0.115275596564229
0.322164375488367
-0.602247465623884
0.209137476093244
-0.00228198914317039
-0.525692321236883
0.818685950496355
-0.253801382664661
-0.823875780236151
0.049074840879582
0.920301171972715
0.047335538268818
0.821260509787404
-0.157836064787814
-0.921496556111219
0.197275115146989
-0.165727459380154
0.213923787806567
0.38652667841818
0.975950924266106
0.753562453701197
-0.366979766790682
0.881032422890364
0.750280647577947
-0.237998810658849
0.4504932832466
0.573072374618742
0.694775347857646
0.0607640461060085
-0.153892310954145
-0.633729741107091
0.827588339435824
-0.851046950242463
-0.0067096791936919
0.0238799714313512
-0.181156565964866
0.526781224236823
0.239972639739839
-0.126447069052093
-0.813189076271377
-0.368273875598875
0.177603964369611
0.935354054020604
-0.789993666221338
0.95975457339669
-0.421536391528607
-0.293236121870797
-0.897606461411984
-0.935345169679142
-0.553631720596563
0.238460068551393
-0.134102270595825
-0.235385072376084
0.000676033775468889
0.248742141889657
-0.528309084646084
0.428982948821518
-0.381136072412199
-0.578363710990912
0.541616255310187
-0.0871329506478186
-0.874790538210156
0.6817531932115
0.333652873992663
-0.3146462993892
-0.903585572788395
-0.0963295407313418
-0.167673640321344
0.817551167895341
0.258307829333911
0.670211499749192
0.594320548208162
-0.659515110339232
0.199836472295882
0.344097899153148
-0.419231478149513
-0.293163436745562
0.687655586191761
0.814186212608794
-0.701535605884999
-0.239707664587164
0.459349498728749
0.611143857250101
-0.403025708437263
0.596810383758621
0.5050866937177
0.0741420993572678
0.15330723796631
0.743882511743291
-0.476392726478831
0.311027656334614
-0.166628451337031
-0.228038326660303
0.204625703250119
0.105409637065744
-0.626126293068187
0.362044828235378
-0.585814783977266
0.411450993937417
0.83391458653657
0.58333625688516
0.871147635285725
-0.717820008233887
-0.178903105826556
-0.210247483780111
0.654132342617732
-0.432556320288299
0.636084289315915
0.691250136461382
-0.324674934367416
0.768172557892825
0.760790150122915
-0.160983985868611
-0.805460925020605
-0.146581610842903
0.489136711894261
-0.451990145352798
0.0801396830193047
0.660104431476821
0.0792164263220259
-0.0942436312148058
0.575522588529832
-0.106679719615153
0.0986572936252569
0.715178948138129
-0.474984454155897
-0.426009499694456
-0.0746965237878894
0.911154118077729
-0.156445157286273
0.0846613597833605
-0.893621435639635
-0.841147450691233
0.945878333409456
-0.276833483064176
-0.0417892596945452
0.245998179492627
-0.160628680302483
0.835867066783732
0.989241386643667
0.016784193035456
0.551991195576285
0.575361239715747
0.135580771307131
-0.159302409443402
0.67647332113072
-0.935324590970514
-0.465962549346787
-0.657302085327841
0.596816381207197
0.800711517434269
-0.725185053755907
-0.232384284339949
-0.807265504119551
-0.356346140838178
0.738465120452901
-0.187308351913434
0.0161414757436454
-0.0663264387812249
-0.964567681454201
-0.0998309553224678
0.56353468704817
0.710835500825433
-0.082772632316561
0.659504384823266
0.68928218888226
0.609759201511338
-0.0489402702453436
0.560154499901634
0.975423100685682
-0.66733643851637
0.775576732553781
0.328895083466547
0.887638222816206
-0.709101851388331
0.461871498395995
-0.891693683500734
-1.08458349209922
-0.548101893753375
-0.755623676081979
-0.353255233474457
-0.983004237136266
-0.720704641203443
-1.01217873582258
-0.126175570261263
-0.33086062705745
0.224872719955811
0.843033396460251
0.155166661472474
-0.123668643650125
-0.855061335792031
-0.726890944257376
0.958525318983373
0.82131159891065
0.100469598228925
0.493663247278596
0.940142101164888
-0.236670446691411
0.577079804967957
0.241088766801755
-0.807445953428843
0.33135107400842
0.245936088256749
-0.475790883753122
0.486346601107678
-0.630078686221038
0.263808110940352
0.184660495473531
-0.858192936356886
0.185417761835092
0.369773791012887
-0.391832940027072
-0.545356278550937
-0.307232604417982
0.325346319779513
-0.225118913053182
0.0752758212258172
0.55426958063167
1.02526243523563
0.0479089760303309
-0.452417709756119
0.818406381721004
0.819318025211733
-0.282984543416519
0.951444726490915
-0.767496802877246
0.888282961012265
0.546149114636176
-0.215589881057739
-0.235956173485894
0.679435789785888
0.561193673198348
-0.455051962988819
0.513682324317189
-0.661292984360565
0.647933313580566
0.0649297998724126
0.813162918673413
-0.6038243906208
-0.608870175517631
0.348603293360087
-0.886356565437769
0.685504691907133
0.872487708601683
0.311534465924161
0.356227590792043
0.742848503041904
0.368970817614762
-0.33754268216648
-0.563604681125627
-0.499300733032241
-0.538497664507016
-0.132756480364999
-0.26112566910944
-0.219611012467917
-0.693003369605597
0.400211516454839
-0.506244554442669
-0.248571041256673
0.48003122533103
-0.417499243478514
0.923491263221873
-0.383612596263108
0.569261601456795
0.743056622625487
0.978201983827706
-0.844565896817448
0.0291899924551351
-0.634076917757418
0.811655978272664
0.789827355753046
0.22699968497661
0.0856693930439784
0.503995013270879
0.555911062331729
-0.458097773308545
-0.684826249451329
1.10063384463784
0.49991173755396
-0.306859338662471
-0.379495112917922
-0.237759735258177
0.0464598619308599
-0.647623653349739
-0.677501688950033
0.355484018524105
-0.168601700673474
0.968201327454077
-0.18210628152639
1.15248599935364
-0.663090038815504
-0.355357101332358
0.227838364895187
0.0489905598130239
0.914209362796794
0.593071949922055
0.579782893517833
-0.695463669677412
-0.776895839347632
0.360368955280395
0.19944019616468
-0.439955883756782
-0.196586827364338
-0.143646534889226
-0.294203147377168
0.34477686775749
0.394831285062215
0.354971955359985
0.240018087869519
-0.568451520343459
-0.771947489499488
0.490191933351957
0.1045873232359
-0.83674048696916
-0.00581975883920826
0.968096703826021
-0.047175092866561
-0.742217016315939
0.168630676743674
-0.671751269507002
0.115154007740688
-0.808777998140701
-0.756855400283247
-0.662814374002234
0.600149253335754
0.331683358138142
-0.951788146081594
1.01265190859084
0.535332967559038
0.742379520728895
-0.291079862626896
0.900796679583047
0.793673244182815
-0.921696243511394
0.354706090375465
0.922871290574771
0.941075544026694
-0.716295264597398
0.827706700193282
0.0591019791709449
-1.00815310636062
0.511317490710403
-0.171437890217019
-0.514311032882149
0.935560043344833
-0.241774375164028
0.350371837872709
-0.187807156559231
0.875665775458135
-1.1277858432367
-0.350947227961133
0.406504771370743
0.155395375632975
0.971953933204908
-0.794083409789229
-0.100830049609217
-0.80977884962652
-0.749886850535368
0.00799890344807659
0.251298661869686
0.221973033418941
0.309561496638594
0.768751659433591
0.461579729058715
0.70829933258818
-0.68306019966949
0.646683923717746
-0.0752787981270087
-0.234497717975878
0.0704527457159746
-0.930323386746438
-0.367553913369553
-0.714944928464926
-1.06214938235717
-0.845608829208665
0.349026974979964
0.242143584551254
0.802434735521267
-0.525131831665158
-0.136447808162969
0.915361123468212
0.202187845898775
0.999059454709021
0.480698884717073
-0.0599528482017454
0.115373472399736
-0.431272659538422
0.746981468949571
0.829635879119927
-0.505571374195859
0.846845851786281
0.729949299204144
0.267912471727352
-0.46971587997959
0.729547803947507
-0.499780909991229
0.677013755765929
0.357310128965217
-0.28270088618594
0.44652690818772
-0.153117662346641
-0.72338004247879
0.875754907593666
-0.360953870759571
0.801971059254738
-0.895715641627182
0.122365524510211
0.144842257903389
0.712311288981782
-0.256816107114395
0.482884612086523
-0.78266784702054
0.677152674913541
-0.961134874308604
0.261932715144923
-1.0192476911209
0.273456519104149
-0.639840378596208
-0.418492870672948
-0.370138570664248
0.816681223966102
0.892253932326418
-0.0134194552067432
-0.820455606910526
0.224288415664388
-0.681220261022792
0.255038417158339
0.62444236004611
-0.967917276829826
0.508081322882061
0.508969003414562
0.759693756275728
0.0553275571347443
-0.0516355845049971
0.941586126719647
0.60534621561846
0.20978994672293
0.189148285592283
0.524326402181024
-0.283291140437765
0.931117007746962
0.381944390882577
-0.945124898701097
0.12873705104171
0.00579801952275417
0.590947736069967
1.03206323360939
0.326398101572851
0.454359779857897
0.888214928687595
0.294403052408003
0.429707212005169
-0.098091803197138
-0.835095080243177
0.736429144887123
0.022527480876781
0.168641685597936
0.613544414999189
0.29341875202756
0.369379048264934
-0.313867158584946
0.303124752310524
0.0366277548772974
-0.815067853825244
0.108122303255705
0.580764256611376
0.0662146902223716
-0.344752766546986
-0.975117319050106
0.622188670567097
-0.160188090211684
-0.796919637721147
-0.180646223083916
0.7190688737393
-0.335523838460167
-0.41982094114241
1.05938664511271
1.04665653384695
0.335560296733402
0.872835446206435
-0.436310610367764
-0.742028081607663
-0.411060787885129
-0.574249599824514
-0.755020285334034
-0.935605186164422
-0.205955437904647
-0.160634346056329
0.101474552058637
-0.165746437978497
-0.582847633770585
0.584510491573502
0.784890489648607
-0.923613167590654
0.997160490698276
-0.415439310041889
-0.752592770237011
0.778527907506911
-0.913486232365304
0.500338488902101
-0.559114429427866
0.149294921847909
0.19784786237389
0.844889846888066
0.127477497425426
0.231139471817622
-0.197086181627454
0.342085525339513
0.779488383326246
0.523118000032705
0.309963515412181
0.36369601428817
-0.604704661612656
0.486171110685838
-0.160177360240648
-0.529682901505532
-0.24166201135324
-0.313997777345335
1.00997198713492
0.0116293808968586
-0.320477379506063
-0.804299894219302
0.558373912010659
0.163638212376654
0.120995895359538
0.17543984938989
-0.559853537691179
-0.224474615792761
0.611994050235548
0.825175018057749
-0.888217673168064
-0.824355720300628
0.976069633853584
0.879706948621466
0.414314128977609
0.302521525855468
0.127564907509798
-0.12344548026102
0.39076977600321
0.141633364554035
0.438934035798803
0.570293659558706
0.118720099990114
0.612543103769359
0.606471400095297
0.192532910460916
0.293040807116906
-0.757615005618562
0.146980306018741
0.488278841989987
0.836574370961793
0.535882830790894
0.737408207856279
0.0291369548687842
-0.165267012423295
-0.709690128315368
0.571045632315724
0.814548663671008
-0.544451146702561
0.817043354366568
-0.235620097664677
0.977663969813181
0.562319167733289
0.72385182586978
0.410582136804667
0.171641910725356
0.35754934135816
-0.40281019110719
-0.811871252017418
0.640517134211844
0.379337300946904
0.851412471646377
0.342724526118347
0.0234535076926505
0.691679638527113
0.0918756335372523
0.0150361558592644
0.913024532792297
0.606919252567741
-1.02597246284622
0.906929261048033
-0.812939781534055
0.630851776593438
-0.786971136316186
-0.929544180327514
-0.564470174677657
-0.784789413886392
-0.0948483514640616
0.0982343447450248
0.178466057849889
0.630501754141236
0.213125869639404
-0.455594505833979
0.634353592171593
-0.661059993877492
0.513516218215702
-0.903172683648532
0.501546147062636
-0.707259184061397
-0.518095875235865
0.899160831841137
-0.130929012973804
-0.841806754413553
0.531828843680162
-0.931492014821596
0.957068984324198
-0.719627388240799
-0.146625827821479
0.377075672257089
0.758082747340179
0.333610175881417
0.834582432345387
-0.582737147538916
-0.546214651456457
0.780050076103816
-0.319928901567106
-0.500138628848203
0.442029647638798
0.682904677629324
-0.0395066799397609
-0.0216615866512185
-0.520300697789511
0.482477960003776
0.0842077792639558
-0.877778845576359
-0.678355605855953
0.506879608440331
0.829519277809608
-0.243246665631676
-0.691485566459537
0.0460575280527015
0.534831862816572
0.63167651217452
0.143472622355637
-0.794611215249406
0.234641214519663
-0.908360092700992
-0.885921714196004
-0.748630483979912
-0.66067732556349
-0.569454406161343
0.497306139417749
0.543378087671732
0.378702925319514
0.860474972671802
0.877270913476886
-0.0952437275831383
0.989905411009299
0.712437041237182
0.654495911231941
-0.0176693917955635
-0.265497888452464
0.924135351964208
0.441306429206972
0.607747527744932
0.508860717844179
0.405240094919826
0.0902338062023351
0.455046952861459
0.797904231748773
-0.511084317588009
-0.499219472611865
-0.798425867724728
0.249083759818896
-0.243168226122655
0.754127779871745
-0.835355759928403
0.326202384577052
-0.538986361293639
-0.182588262873301
-0.343548978819012
-0.686061270446578
0.0703408105164009
0.380675597948677
-0.351043117440394
0.494979565466898
-0.130273727074831
-0.924183175089807
0.24626510253186
-0.70300951275564
0.474492400818872
0.610820005766244
-0.786120494185997
0.173083588986561
0.328879342933667
-0.67821431790644
0.660940513506391
-0.749353595101666
0.583954410133749
-0.226381372691132
0.899086064414923
0.156060817018192
-0.281164431004169
-0.639159646515542
0.677286742074474
0.824159851728832
0.371162723794428
-0.478640917040209
-0.269141232304146
-0.988864227808511
0.542602006575496
0.608080784702061
0.693227605037746
0.0185326157519446
0.0369567785084758
-0.365377592550219
0.673034364195159
-0.472863192588519
-0.16413256756894
-0.723908059377926
-0.236762772444696
0.389290980526354
0.862113707116171
0.157432220657609
-0.633529297165201
-0.0136940022761948
-0.565390362866737
0.170251132594771
1.00205706136337
-0.400711850874022
-0.762986304462322
0.916371886838922
0.640747901502266
0.615606150749753
-0.0549891856856703
0.612137992261261
0.695931427976218
-0.363405802381773
0.582857019180407
-0.123761858377994
-0.742734628164338
-0.542777165027333
0.414061818590238
0.214335320137221
-0.242008018494482
0.822394358690006
0.896945109784911
0.217540127795114
1.14917704980849
-0.320749129662785
-0.366614056776027
0.113891598510995
0.463332817911068
0.465775226441798
-0.771534866308634
-0.306221349416296
0.400701176988601
0.677018916837983
-0.796684593990727
-0.139156209646693
0.409395169928738
-0.845458592515648
-0.472034205119924
-0.769558583288794
0.910337042608285
0.612362286038218
0.952756076722487
-0.8206335343748
-0.793974589500205
0.50593101926316
0.0314101593603109
0.0340879918408699
-0.0834947261047816
0.891246637517354
0.898850679975152
-0.816387087883707
0.853013202017754
-0.459426671218196
-0.65320525840842
-0.523762287163515
0.0859403371885107
0.329602384367106
0.209189765530394
0.515932584360609
-0.892430994439046
0.207215881783778
-0.374037063960563
-0.692985043124682
0.342738273602594
-0.866695061427401
-0.833485890170452
1.02904020285032
-0.468870471075531
-0.147452860492868
0.552704163211014
-0.784514138900848
-0.924430354872126
0.348611236283827
0.463606494808972
0.214501619606746
0.939445607793229
0.71587672461512
-0.108679642809734
-0.501111064354094
0.480118400730216
0.414775416361075
-0.920078092646243
0.484038261690272
0.519071099287919
-0.918372011146074
-0.0291613240761578
0.00479995368413698
0.508688825460513
0.861930781412472
0.831536388813419
-0.928557174706508
-0.138188455903064
-0.140611343478865
0.974148065197298
-0.471449878138606
-0.0742898990024821
0.687190586707527
-0.129969286460043
-0.865382127368213
0.418888148038837
0.14470020406944
-0.311133611046051
-0.838727395238376
-0.603003146036772
0.714299585891436
-0.953365380996688
-0.630449755528918
-0.0986640346805803
-0.0529583676760471
-0.59623650326923
0.272801946794405
-0.628686729529752
-0.295455085776933
-0.895991599859011
-0.226821297529128
0.32555786689938
0.231038484531732
-0.205077967759155
0.256476349617101
0.132109746080129
0.10425191448767
-0.58245061115631
-0.444536964824976
-0.0308306775278322
0.474521974852664
0.338420674345068
0.222623690007339
0.398359554119743
-0.0332137219001892
-0.678885968071036
-0.747163045048613
-0.14918514483917
-0.237014835385176
0.0525076255248763
-0.728753051993767
-0.350847055052324
0.841180680456027
0.0164807908393311
0.756899302003342
-0.998165289352505
-0.418839128989106
-0.895928075671815
-0.438068383475979
0.458602171971394
-0.440300393949755
0.700236767137986
-0.840694502340219
-0.246163885248506
0.191754509917917
0.25210760321214
0.666472890730193
-0.129449739375938
0.615094101360074
0.0342319419928641
-0.641131658240973
-0.213664692458827
-0.803677957015268
0.251804954084643
-0.0296585559255798
-0.581175349047025
-0.159073290986388
-0.0651065128899227
0.903886501528254
-0.380654209347975
-0.84683020017242
-0.60418072635574
0.571912086251707
0.648823915345784
0.83463941118392
-0.883026290825093
0.408293921441632
-0.786306164451804
0.0395635189328484
0.26437234606293
-0.448571402299655
-0.0200309821678677
0.824038933700417
0.0630371133495837
-0.625122147461899
0.750875324831765
0.190599744692173
-0.504700603313839
-0.78183386544873
0.732530729208416
-0.33694092433192
0.374613477485918
0.226459893543679
0.718098684116668
-0.314082979949347
0.472876747363286
-0.531123607427166
-0.397053737446436
-0.953154465302611
0.296438164573994
0.107990179778442
0.579001836787843
-0.828538646447486
0.93891443995599
0.300177180272533
-0.863273055913966
-0.910524058866022
-0.484769927546353
-0.0832706003163124
0.0487839112466491
0.807456107279568
0.428786275510543
0.811282539346087
-0.649073318233621
-0.513607988609152
0.341823335663727
-0.136198484988649
-0.00705252373545892
-0.244896212380557
0.132098907142075
0.172878358069543
-0.686370086702355
-0.267613656287837
-0.787953935770139
-1.03640000598865
-0.223419742433273
0.162797225403106
0.795619856455489
-0.100733817605471
-0.717297340253885
0.624285279010884
-0.209939708624792
-0.869239690099705
0.661059467493039
-0.921985104829907
-0.0522262232747318
-0.18242389689198
0.888860795825112
0.745069616381391
-0.779532701109107
0.659812755616041
-0.30132299730179
0.592015115819846
0.118454155951252
0.787968270896674
0.0570249180161648
0.440203529397221
-0.151942707049198
0.313041663962633
0.416257072151755
-0.342509960145006
0.464204294278704
0.830785812081223
-0.0314564550794637
-0.793470039018263
-0.178589166649474
-0.170020896254548
0.920479608493547
0.948989847335641
-0.442016685044389
0.00433040068650594
-0.764685120106583
0.585766684662261
-0.361692624672938
0.469316968907867
0.065867344561656
0.315826715627843
-0.843718346725214
-0.710607271999868
0.572422049045503
-0.454616253415289
-0.0500948379962897
0.186849239682473
-0.559465796126664
0.43156705947218
-0.451339225851214
-0.11296618338531
0.71587137196459
-0.599299623806963
-0.168669390485649
0.284331817415955
-0.608855403330034
-0.347257155539837
0.544296089424443
0.661573556803418
-0.824668544174134
-0.0339848257188693
0.273656725198128
0.573330284329075
0.265224892410512
-0.884861812457916
-0.0717341752669661
1.01425298932305
0.287906141371215
0.299393636044297
0.434417532916876
0.137023957235812
0.0152630041276839
0.700922411146385
-0.265682595730605
0.720054042518314
0.25748078008349
-0.429804271330625
0.842271573304687
0.00317428866417429
0.769788877591605
-0.767329228723383
0.348360685634221
0.51762997393623
0.747093776235898
-0.877312093537088
0.236383906749347
0.580583210072428
0.125139080755697
0.293280614063521
-0.246949790816718
0.774684717452612
-0.910912662088824
-0.00334268534576331
0.357798682973127
-0.800555182557633
-0.801020210279276
-0.293337754372166
0.0395461579989836
0.466695294190755
0.688033307428461
-0.0137774752013424
0.914481404019089
0.144209165382793
-0.989997859120361
0.448018224428423
0.938107747507759
-0.930861789597607
0.666946156679847
0.090681413720081
-0.952096712317395
0.806488761441053
-0.137915851517972
-0.338203417609905
0.96018356130474
0.921822957844559
0.586553645628165
0.767534368198897
0.94886904535661
0.357031639054466
-0.0474245282110366
0.379622569308177
-0.0681737182427561
-0.907631861705686
-0.287093859074936
0.759231811653095
0.0056816730880156
1.00165613544425
-0.591765983007842
-0.387211531101941
0.561280729576602
-0.434167197917382
0.586833282507102
-0.58504866356732
0.397424179616224
-0.173549732134931
-0.654752872142594
-0.790172794138168
0.496991982389295
-0.730526358488238
-0.814844283590384
0.179530989382315
0.873608815612459
0.986521515740418
0.22963653388881
-0.049342806838642
0.0184760718297668
0.594716355094316
0.0883102265039822
0.447218242261394
-0.374141041736333
-0.488206617748963
-0.121037427917106
0.750625156972799
-0.544945420483523
-0.742320679249033
-0.918603266567317
0.878956606810496
-0.560484585719273
-0.766714536943906
-0.539008640075759
0.97887794758296
0.746240300870802
0.134916764349555
0.560238763322376
0.39644360623321
-0.872856941235456
-0.664749500759659
0.208411230792385
0.116439462301714
0.52854991800023
0.317662157019806
-0.796051597910463
0.663513661548351
0.210875433701606
0.853201168898873
0.494555473734132
-0.0635117578429757
-0.130919831713926
0.805405873787825
-0.182392924849737
0.449455187472474
-0.1529651856212
-0.122244822382994
0.952216373518568
0.071848138003497
0.688274530365254
0.798802776452939
0.97744407978079
0.169186914048394
-0.206918435577329
-0.487339123099247
0.736306117020333
0.157267094746381
0.657849322042732
-0.98414453069126
0.356829547274008
-0.276072737787799
-0.625163142470046
0.725869464916098
-0.29308469652621
-0.410295734007742
-0.670836809043038
0.957111610799763
0.842765989513024
0.28246958571002
-0.703149196652806
0.251898467901598
-0.408350681722292
-0.392679201166696
-0.277304223823485
0.114716991217285
0.00151027496026209
-0.312244182045726
0.435181328037415
-0.0128631622909116
0.162859461758343
-0.0898183113817102
0.199130695146971
-0.505529941274681
0.710848343860455
-0.719122358041197
-0.747147765985069
-1.1150269893164
-0.691274907507236
0.0941129745547399
0.54578995617007
-0.0387110904814921
0.856543338353799
-0.00493758693048418
-0.646617372118165
-0.345207057486215
-0.561329411014143
0.117548999290265
0.0893685571634452
-0.762276237848926
0.12123687849577
-0.127395209673472
0.0604706375560523
-0.309042942548218
-0.199872387284427
-0.499687050393564
0.23861176187798
0.386678800673314
-0.46533354422106
0.772712825151003
0.565916243164708
0.124278071626218
0.796516889010331
-0.305236906498134
-0.140223626458435
-0.538698126390013
0.63972234406366
-0.972687654131776
-0.950180133882079
-0.634527356642722
-0.834185191941696
-0.750337745248186
0.502934626187391
-0.364746903122049
0.643061666447902
0.362834864616967
0.418668822290589
0.583169215656716
-0.762110662128489
-0.932414652503705
-0.309634242485686
0.859974690838761
0.561102667889391
0.203481869854413
0.900954762064436
-0.646070846277061
0.965881615201397
-0.399262345600656
0.76818356162264
0.302998990879758
0.154096392865714
-0.0347427306568178
0.463320075031351
-0.323124599193826
0.715330854340881
-0.423922987016214
0.154509970332854
0.023321219142897
-1.02213809616195
0.745545164611234
-0.109625197619797
-0.663422309225975
0.0513319417022007
-0.211462606979679
-0.91242164118298
-0.15923600034781
0.346706304625536
-0.57086463314564
0.0658624540571078
0.397027486731422
0.0347852337902541
0.670448706096227
0.22621818482627
-0.426664919652581
0.169187861415648
0.740757695362404
0.61160815484415
-0.270853930750674
-0.034681074266808
-0.346812432628053
-0.365347090374091
0.208203544709525
-0.59655227982983
-0.221597366664951
0.107967466264618
0.0574607205504723
-0.339188475639227
-0.26970946181721
-0.147808741124651
0.0207775658057116
-0.779730718129481
-0.590069037728025
0.552558488451879
-0.59869878504895
0.123875468208951
-0.649674120875138
-0.17197620186267
-0.238528569195844
0.115153383225656
0.0871048171027554
0.0727740233982258
0.62505709533259
0.587135226013651
-0.573208632925509
-0.649837490416235
0.655361121874534
0.932994330798635
0.0589514706269148
0.650944377594522
-0.92361618996737
0.0168063429405571
-0.548191846344801
-0.996971436242516
0.236275260033038
0.0397371535428291
0.629063717039919
0.899256133461164
-0.804051600690148
0.65621645403767
0.0102660037010457
-0.891894194999443
-0.482581043245931
0.471470472289169
0.988849674751448
0.196943501947258
-0.339080522904346
-0.88571466963311
-0.198914460047207
0.469545409493988
-0.160688916409148
-0.0776697093294488
-0.122317168712336
0.682077067168388
-0.970987444835228
0.754830614626647
0.177685045244658
0.747638523007906
-0.942992389646124
-0.473757255989807
0.479517338082917
0.0564892312676218
0.520854344074571
0.0333580487438786
-0.25006970322242
-1.03888983861108
0.675202428209897
-0.616232343314729
-0.697094777155813
0.337562420670533
0.435804607077984
-0.642694572592199
-0.407935996558049
0.142180277773126
-0.874547055233816
-0.0629743053062208
-0.480677679033883
-0.850055797329441
0.605699540367934
0.229956355686133
0.727224962656338
0.665115213888794
0.315872466992452
0.788263182322306
-0.00093967352841759
0.29595138868755
-0.773006986526826
-0.159964820644297
0.93673004846323
0.397532718680316
0.805539164096482
0.851911455253955
0.842517059249053
0.651430250895187
-0.934959433978279
0.899904708831271
-0.44510659225953
0.471931285340519
-0.303985259537553
0.975335402494236
0.491129939599243
-0.694167636515722
0.760597498137065
0.402178810151019
1.02986880169512
-0.502572166833285
-0.622697885098476
0.783744216909018
0.635770640533886
0.242945644201199
0.395435359990884
0.195092550284024
-0.678435556015167
-0.0693759478011847
-0.128858911104067
0.902934900027168
0.746779034980252
0.704169341082047
-0.977580174159722
0.473874923948473
0.757506433528793
-0.166484988665802
-0.660635326831385
-0.160918639627329
0.482891448679953
0.518908413547939
-0.48964831625241
-0.0716375535741635
0.0603202958936595
-0.784184572753509
-0.675799276019912
0.0269596111773736
0.508767609927789
0.699022018615968
0.854369107266909
0.51109316482444
0.947010729946353
1.02391561488275
0.87763352458038
-0.366439710944517
0.0721222246602064
-0.472482885839988
0.279136428890393
-0.225515527359673
-0.968132661489035
-0.393071380252703
0.552973420115265
-0.0459536310502793
-0.179966301277497
-0.834991212763025
-0.928447949104262
-0.211447437037571
0.369670223320823
0.122848958130067
-0.796193866479993
-0.340212820901566
0.952283599812437
-0.0557862436779535
0.888684833048224
-0.451441649405882
-0.895795625510771
0.577905452459342
-0.10810480248429
0.52334038462522
-0.00840332064530854
-0.515509081576108
0.780228304896832
-0.252265782811933
0.207909792133085
0.411085452082325
-0.96937089929785
0.808077476542675
0.890757606824636
0.402324187698768
-0.563867477082345
0.268516289804133
0.588520595261087
0.544184481747452
-0.25766187809677
-0.176773884112451
0.882108663383912
0.440933862712729
1.06546587115147
-0.117048941917025
-0.864275586571909
0.533787690577799
0.654211902979708
-0.537891441970638
0.604139019390662
0.361225434421548
0.731655799072909
0.111861263663383
-0.798337496996111
0.436419612648195
-0.37659310093283
0.611372430146749
0.736827918047699
0.808671960978609
0.892703014838759
0.669726268483886
-0.0773065340812593
-0.145098814842637
0.785163722964855
0.4371104650959
-0.834757101298774
-0.751414214728814
-0.15435731247405
0.910764648016741
-0.393650798203723
-0.180905266087568
-0.0378006235129949
-0.666788468027653
-0.8671728317538
0.0247306179619225
-0.377819386802139
-0.281725463446723
0.595212071426786
-0.874779043833298
0.480358910751262
0.460795147075963
-0.174709479533779
0.403096038980709
0.238772856343387
0.963983066662355
0.752839880147728
-0.0121827928035084
0.742553347806789
-0.429204898110584
-0.134728378929864
-0.116512467615652
0.567470707274069
0.811566967522292
0.693499436260272
0.0702041095880632
0.872308016873607
-0.0101707205865411
0.568047812202488
-0.478408099503479
-0.415371157872141
0.786368485747706
-0.399524982510528
0.649305503568794
0.727853438868586
-0.238930777773396
-0.61924585815292
0.387158614032799
-0.0706600933823754
0.06910398287174
-0.222412341901564
0.993726186685088
-0.867835659839965
0.752094851814986
-0.555210858082424
-0.512358245417445
-0.0841249866737108
0.551448154092665
0.660362472532564
0.874727360736401
0.703864508693036
0.217216718254383
-0.432181493833067
-0.711943489496964
0.00688378663864902
0.68933772307923
0.174707235635646
0.0842909096319349
-0.426713184303442
0.00798274911935722
0.0960853786854013
0.544383276218546
-0.00460314451917672
0.0179363870202181
0.465119104383453
0.563121884205392
-0.278843712882553
0.0435277013439426
0.631131251883131
-0.491656983405194
0.639031654662278
-0.576478687935892
-0.9009332632769
-0.313138823687322
0.85513355010308
-0.0435834598277776
-0.14648555178108
0.909049863976706
0.41840232060352
0.241812750858039
-0.788790101728868
-0.678414110109325
0.286228612144848
0.665847507812643
-0.226582552610711
0.379077091428737
0.252093820156843
-0.642058995886384
-0.33329602236018
-0.972527228070344
0.51807645304642
0.279834242240386
-0.19482825996125
0.808257015902966
0.831298017151986
0.0800415240117088
-0.119522998344911
0.0178442481316397
-0.821408116369548
-0.22581929893904
0.71072403895236
0.85587028439538
-0.978620572725476
0.292005224881725
-0.652610781112898
0.328380382472763
0.120512326317913
0.890125591066157
-0.533651273829194
-0.922270191224932
-0.168128559382364
0.265397605161547
0.657930942965139
0.372470087660715
-0.107043817324176
-0.104638769091221
-0.654170508687124
0.380601842989131
-0.764484265009274
-0.895063913939105
-0.610210996558686
-0.633627079867013
-0.697599277623225
0.449495372709787
-0.181788324117989
-0.811496326137631
0.481599966663267
-0.85473221703766
-0.252580443144925
-0.289019818244788
-0.92148292375897
0.843869989429057
0.711651498982786
-0.379776704443458
0.487483189690908
-0.685602408881201
-0.696062114699558
-0.974968155563253
0.32282437007887
0.440140827520541
-0.744880631435195
0.387824437959867
0.946722889204912
-0.347582225431545
0.264238403964277
-0.682783714448408
0.665488562663939
0.47853098033746
0.0201967565845821
0.0346760868837668
-0.236818825935213
0.443809503976906
-0.283476790611616
-0.961007854483735
-0.626927353540461
0.30730859861687
0.518369209776631
-0.463031975246555
-0.560268503501197
-0.874038930391428
0.804425158338023
-0.0824652854051852
0.0640419551618717
0.662748816944172
0.929081176478943
-0.0497164468854103
0.539383305703346
0.0376593102851984
0.867274821853703
-0.414164057166439
-0.406738938878236
-0.662793449196422
-0.905156310871483
-0.160874713640164
0.886414391923057
0.0169552299392331
-0.536274763731692
0.698870448832129
-0.777347445905658
-0.475600814817655
-0.436445628616467
-0.952172428497166
0.165756192855713
0.748826286886622
0.992013994524578
-0.315783442590368
0.163761977410241
0.696558901448526
-0.753474697578468
-0.828424814731932
-0.223516809466255
0.740770961574439
0.565798432902888
0.187271190671699
0.634268819840027
0.336616908619297
-0.677285760988117
-0.716329524620982
-0.26400578614209
-0.664646512141428
-0.200171418980594
-0.383995188275658
0.544771751546151
-0.603800485757422
-0.643583600556993
-0.685757375553412
0.205591725914044
0.72381655038998
-0.985870030241288
0.239703865046814
-0.263047410415976
0.68648433822333
-0.866240102864016
0.74288212484012
0.488184060051361
0.635113610528493
0.62061009158916
0.222427087544171
0.570749746779367
0.144866282084717
0.732589167824057
0.820563758488595
-0.226817403609928
0.694546211369998
0.816244248418325
-0.139772019161914
-0.219357101087029
-0.0607886706104877
0.23423664591267
-0.476795340167423
-0.385890359727232
-0.919309357948171
-0.179938905465229
0.73909472002755
0.63077818245232
0.877200447384685
-0.552292892804871
-0.21425164143545
0.290821515297306
0.43144043080004
0.14879563724898
0.17217257209961
0.605366349863679
-0.0560977841723202
0.378559416227328
0.0408830473823432
0.438480911990139
0.628296457746116
0.711154604978116
0.999020692944722
0.665242700757241
0.0393824373142676
-0.390000707458212
0.467913409014102
-0.501656996755743
-0.081653129805007
0.827732676698545
0.792339509894313
-0.505474694612487
0.425017476530728
0.421694485571952
-0.783562239942564
-0.45928207354365
0.572103502684304
-0.229008251178582
-0.186851178359449
-0.148729002352747
-0.657807498546731
-0.909014575111218
0.584448539020069
0.48644587225773
0.33200806939526
-0.669277704437385
-0.673975093842546
1.02197444473277
-0.395167259822176
-0.445984524600041
1.2143330347499
-0.381162114043355
0.0157888915164402
0.444740022916843
0.129385057268265
0.246048184210142
0.286941147361122
-0.0904273054157069
0.581872078816389
0.466904484710125
0.343288982905975
0.124278870546386
-0.405801262227868
-1.03295054663185
-0.41083046653226
-0.759302369061873
0.799557374308803
0.825527462994304
-0.18836271726349
-0.413422369075625
0.948640840647199
-0.54568186155592
0.12144031151084
-0.518447173842367
0.190600114840973
0.542092027546167
1.09317173815899
-0.144476566842644
-0.0486365461851272
0.335333565281235
-0.316516420270174
0.538929026682877
-0.997671141698768
-0.404190653021516
0.948617569082093
0.486136902643863
0.747947325297403
-0.84762960711185
-0.544069237377394
-0.0219055677099918
0.295916896529652
-0.293333141899019
0.0554159245270167
0.158052350828289
0.285028039067801
-0.153620521204062
0.284353631499451
0.569579011616439
-0.236317775487122
0.115243344452847
-0.353484520893684
-0.574878185342745
0.163336792527436
1.01158220960912
-0.500681080270927
0.917236408986101
1.07023739977074
0.0644472335850727
-0.421062530103754
0.658746259555107
0.295787852603976
-0.211139328853409
-0.514799360917264
-0.217211373641644
0.187965801100098
1.09298420242551
0.437379033627097
-0.816327338624649
-0.772083072798511
0.271037271812816
-0.581746296185596
0.540154774569511
0.193178969201616
0.493189552224144
0.204918440222066
0.362780288583711
0.320166551380233
0.733818118206439
0.0411624289910092
1.20534606820455
-0.772603285610642
-0.449956920117229
1.01080272791661
0.928685569734692
0.00866191094273447
-0.443561827264433
-0.379530751595063
-0.906247949583662
-0.781638114748119
-0.714626250768877
0.834180499091862
0.12611291605313
0.879009790765222
0.0476471807180847
0.981706535675226
-0.376307028668283
-0.657175445446343
-0.600580236802355
-1.00668261475213
0.222913446612785
0.318455332983593
-0.139314054687663
0.339947830726716
0.68932744967968
-0.315537624101429
-0.138621368750925
-0.056448567416758
0.448577378263517
-0.237848368298896
0.222659318678742
-0.355110736103662
-0.544105056343385
1.2079098338438
-0.414791970119152
0.586638227173902
-0.164324879549392
-0.0930816656811426
-0.237575369761448
1.05957758823865
-0.106137502339932
0.630626468016792
0.462862491459818
1.11281617957651
0.990503605359124
0.436698351098077
0.365761517036854
0.812605353098206
-0.549693480157944
0.628029876790309
-0.492256078111958
0.0875499467969424
0.0869852285775158
0.745528896830198
0.542465063915408
-0.613305710484836
-0.0265848565539762
0.216777631462786
-0.542927484083617
0.346439376823365
-0.7313204629169
0.628630544600165
0.215918865052874
0.406314818223706
0.11819457247388
0.841718976232069
0.634317616255981
0.140302472584665
0.469861282317693
0.484322643038893
0.159109387691828
0.799874297945971
0.624640824963345
-0.650401883044728
0.190519436511851
0.861747552800522
-0.671588724765168
0.0389367465939223
0.360272092743739
-0.651399772735976
0.378925410964023
-0.0415321347538032
-0.729148693300803
0.316612836620486
0.917843407078772
-0.780781700155564
0.718042870946336
-0.20813842761517
-0.298902759268281
-0.899211213677837
-0.437892205748711
0.669576308807236
-0.326226594038635
0.644288640545406
1.05270939611849
0.481834567219476
-0.44221899202073
1.07070537263604
0.0268203966363774
-0.804551487890855
0.876809789873979
-0.664046334530174
-0.508555381159149
0.256656679640315
-0.0119162662571705
0.00259892928364989
0.558973834994442
-0.148176478027226
-0.525583368816651
0.454277613596312
-1.14376987072166
0.603354840937115
0.598819168206566
1.07704936896214
1.12273288940805
0.298482523903288
0.234433443461338
0.719395429334064
0.4091429575305
-0.00939173705714158
-0.612720894590595
-0.00182323914642381
-0.421482778111538
0.476838613431253
0.0114281582589111
0.534562365405843
0.220891012122665
1.00321864487223
-0.605914588292385
0.869468628866091
0.512627634225173
-0.420986849603122
-0.606932904072853
0.405185917759146
-0.411532698637177
0.0705206723876463
-0.710547600146517
-0.0973351936798149
-0.521502178248634
0.00710376260783017
-0.427878138275706
-0.073427372582775
-0.485801068876354
0.211409484961221
-0.956815525874062
-0.265528983482646
-0.945916921797135
-0.36121624449656
0.725783459001129
-0.217177505125799
-0.762540408827647
-0.166818753571496
-0.326208675010435
1.03427485191215
0.885156764889216
-0.0658207941888224
0.973773862788247
0.298693547797927
-0.497290118747333
0.60034310499232
0.933484867390946
0.713689331667836
-0.506861065985881
-0.430000195897178
0.995707740043369
0.60064861436226
0.668215978163441
-0.530000414045499
0.649865086621125
0.24200358452015
0.227183306827023
-0.666599938867578
0.161593954911956
-0.576290889788344
-0.467788336877279
0.533055946199295
-0.292753125861074
0.40357369690521
0.367639603990604
1.16955326138696
0.437637254125078
-0.436347832123992
-0.647051086705757
0.732546019319508
0.983565674345806
0.0670204244663063
-0.838082751949985
-0.602836432483748
0.593237131046265
0.71658613567375
0.0606484563263493
0.00984562186623561
-0.228445910435495
0.350361045687099
0.378287776461975
0.0765610135721788
-0.348285462733116
1.09716945314534
0.364616751113082
-0.387553371396885
0.265561156844273
0.804588899649499
0.167548663620184
-0.428684822349154
0.830911970131301
0.981728058665007
0.575262989335766
1.10392822752008
0.442580304957079
-0.650776878770558
-0.697276904535017
-0.365025146794897
-0.692528636839614
-0.286310752486712
-0.623651242766853
0.470922313525662
0.378304232138388
-0.280161829987793
-0.502010103275983
-0.00922548404494722
0.734122167654726
0.383010159434609
-0.153004790408962
0.963692103450946
-0.776503868074324
-0.773863138844538
0.781741944066826
-0.744049190722335
0.472757925292772
0.716730331779184
0.0331992965315123
-0.296523783645776
-0.692206252861035
-0.184698126549843
-0.220754330106838
0.4550304913649
0.269906874233323
0.681484580110249
0.909611388032914
0.937784909612824
0.658295720843387
-0.800858948084871
0.0663820985891568
0.458793705090035
0.604073943939941
-0.568721356552878
-0.368709365536332
-1.02712028467596
-0.206632591475263
0.590797955135971
0.480694849425491
0.879623836673177
0.468875217273168
-0.722356372223869
0.119762057321733
-0.59472034601385
0.393005512479387
0.383229979571157
-0.588440386205361
0.682975973689783
-0.551722716652405
0.335106769465368
-0.453058204895827
0.533470571055249
0.121766768871012
0.405460709835486
-0.715848722081661
0.303530142138117
0.825861001827531
-0.0916827193472532
-0.687837787059631
-0.993171132915547
-0.0387729071472859
-0.530834223297273
0.1258855555339
0.227110722633102
0.926357603700105
0.143051211853121
-0.60670564735804
0.835704635669487
0.440567066576193
0.622814625579222
0.583529848399534
-0.703869076602846
-0.379832108117199
0.262939551391159
0.263158570756695
-0.90455557285942
0.901517019270731
-0.645548090374642
1.00572775896287
0.750554429990286
0.0941533819053992
1.05034999988161
0.473513601782395
-0.835149154508191
0.550504545813758
0.563082961911606
-0.626336425277763
-0.711839804552407
-0.929259644803422
0.117390922608533
-1.17485690461167
0.454981981927551
-0.158900991946201
0.33414669692854
-0.0380492026849844
-0.0838833454350151
-0.152489594773876
0.566164773845181
-0.421167619707172
-0.34769257081258
0.356286241646562
-0.254271857966041
-0.633412063922622
-0.103583098206883
0.878429759771693
-0.831260142776622
-0.156408146720276
0.773265032743229
1.02948967575597
-0.854825580726905
0.447963385587053
0.418641877004247
-0.0224557742976734
-0.323347250826542
-0.0970140268961838
-0.19640209108946
-0.176809240800342
-0.217642669901671
0.318517329063477
0.668748708521598
-0.859054162043186
0.770818360015629
0.488401212588172
0.920174333095538
0.357265222343076
0.819130432055726
0.536641813290601
0.622721156838953
-0.418516834956272
-0.464060053526084
0.362773012722124
-0.714960062986289
0.79589415629036
0.17982897798069
-0.774176826183062
-0.806631011929192
0.636736068337024
-0.383478974270639
-0.697978504490474
0.365187885279247
-0.128008115709398
-0.236530135572274
-0.772520250483519
-1.19177278921621
0.486392104548533
-0.832293581901416
-0.962855064750361
0.364853008780929
0.638531813744613
0.555120143546327
0.504852188398537
0.582451350122545
-1.04031056105155
-0.357474521870257
-0.4920310270274
0.756018561334631
0.359586545764009
-0.487187602856579
0.538246330594184
0.92805039785707
-0.396217691309423
0.034140157823728
0.0316383901822013
0.433072304829097
-0.198356274108967
0.164642556339437
0.635104615871464
-1.14664576934363
-0.312244938614866
-0.109140898634414
0.263789689672787
-0.607228639465404
-0.669901240878537
0.691413774420803
-0.514300167502998
-0.19219864509327
0.0657961218095689
0.148103396183903
0.844091822374867
-0.192225514700215
0.605735886901071
0.895576217124542
0.846212997704956
0.0483202243489233
0.0661631319486621
0.802854940306423
-0.673844512440051
0.0419156576173893
-0.376133288430066
-0.65249722627662
-0.212036429775584
0.232058824532036
0.144123984591614
-0.527863977463547
-0.0617784831446733
-0.918389005034771
-0.891281770808642
0.0887356091825465
0.439655057829766
-0.249075708229416
-0.500273136310966
-0.940336847613093
-0.291325280267357
-0.286840130478996
-0.762186867294114
-0.098752743245088
-0.154200564202269
-0.941472612482394
-0.94297153296574
0.542006006775532
-0.298746367483661
-0.689427518552241
-0.289580363297781
-0.238818309283455
-0.648315369277037
-0.331943971785244
0.173477842540336
0.903885569913396
-0.568743008791633
0.0842606718726697
-0.0835589587180948
-0.309841292786727
0.425264509988504
-0.306716789467884
-0.528123039071556
-0.439977093109388
0.793424679552364
-0.659089630539607
-0.0952839032223093
-0.399634063904131
-0.0379637107491067
-0.988687958994208
0.675835349428901
0.0628134239793126
-0.839388870723754
0.553838345801148
0.309428508702677
0.261322895946432
0.0617495769465378
-0.696306795026886
-0.0318810113074588
-0.708008863657867
0.0288108132159212
0.112419395151504
0.718719416821318
-0.471036163283019
-0.480093832185235
-0.641387779435266
-0.810758952183742
-0.788174651400241
-0.135139535898666
-0.693811789752324
-0.135736719793999
-0.232975438742372
-0.754232842585025
1.05287562866151
-0.317018162996831
-0.702228631087547
-0.551321034162203
0.717234809226555
0.139358977020046
-0.427711836461153
0.264082048803484
0.786867686879998
-0.12597624212501
-0.176817240336312
-0.257210376099308
0.718755255949261
-0.430288569735462
-0.229882371092776
0.418791078671958
-0.931794122303022
0.0513591634154001
-0.741385320328896
-0.902335331766771
-0.375209467127287
0.717313228259239
-0.801095493467539
-0.384441937481841
0.681612830679875
0.804057752509759
0.44556053052151
-0.676386029267908
-0.400761283989321
0.443972298007259
-0.387545965183046
0.226108590593018
0.094852882245848
0.0221839542858883
-0.720716976839456
0.104098125659459
0.358997691224028
-0.0439673255349683
0.278646076396096
0.141178118375985
-0.686497264720824
-0.0745014515745844
0.202751126426617
-0.710610278664139
0.106390168584666
-0.980505655316617
-0.0226821389906019
0.81675534135834
0.437131015344808
-0.15975658669068
-0.341237404571861
-0.101113478821288
