0.0129795605064242
0.517937630857095
-0.00986101349783684
0.575111298869316
0.847836385630058
-0.261850950109117
-0.22485879341528
0.119080977564782
0.957292787496679
0.821250708306166
-0.738574064955228
0.77393187898543
-0.696393982626557
0.175057816942295
0.0194111858002597
-0.465044773474962
-0.473315275856848
-0.368471728561985
-0.258950338220534
-0.610534540424871
-0.930117385682554
-0.298461165203577
0.278685056127151
-0.292443882299933
-0.525347614231884
0.742561811750532
0.671293686171577
0.840347836845651
-0.669894796447309
0.502341014376601
0.781976059882615
0.912907504778346
0.937935982575514
-0.0235258528177606
-0.750731156511249
-0.839910240113019
0.541873150396321
-0.747517609048044
0.134860667018932
-0.0237069723216588
-0.63462913575277
-0.256922054824665
0.992692544298924
-0.861146977037228
-0.197174823506421
-0.0384005492222488
-0.0959115892828403
0.951829842469024
0.917581493530716
0.379127294163703
0.865192741207515
0.774190250997236
-0.649157614834071
-0.210818288163374
0.736654127051269
-0.749001541050154
-0.760825312875655
-0.717075209911843
0.0802884838419813
-0.929277128768591
0.0179330987144597
-0.115053785979419
-0.245782292614622
-0.574795820805691
-0.998690871319464
-0.701547189494524
0.761944692332844
0.245429639452639
-0.148915792614217
-0.184540961987787
-0.0124062595810747
-0.717931288372941
0.515028546943523
0.785947859521103
-0.940763624895368
0.390822222916034
-0.208109992337889
0.219193592690006
0.960254031517608
0.574893365289666
-0.107983248237608
0.741254254466336
0.94732993542854
-0.0399202773794068
0.633538415981382
-0.981443859348275
0.544984385278241
0.119062049558487
0.221368128226508
-1.00563107489129
0.919426041188733
0.253598633553078
0.136450445843917
-0.0155845978874866
0.864754460736447
0.39318799425792
0.912189663954694
0.500314793979404
-0.896035018440627
-0.535115362464995
0.134472964935442
0.583650374865449
0.0718630620079503
0.147325781014945
-0.501510595158314
0.709678771579424
-0.636813401585259
-0.33357823004529
-0.175344154572895
-0.580057524987352
0.511196210803128
0.0665348715392173
-0.646433816121201
0.552991080101684
0.185835466360497
0.268801672348927
-0.0466976427464184
0.820225534658426
-0.186270491086476
-1.0110056520503
-0.291534433139473
-0.417758847781891
-1.01862865940083
-0.162330075032974
-0.126065239183916
0.680693189241277
0.0722134981799742
-0.580585326247325
0.814192419952942
-0.408344756260691
0.426883150109497
0.292042253731039
0.175868708059659
0.593358536990182
-0.465258180389994
0.418169078046121
-0.193771051798257
-0.0666850617735448
-0.448085954338946
-0.98974270489305
0.725724467034243
-0.0366588939088816
-0.663457099557398
-0.186283634347379
-0.516732386289293
-0.142307411150659
-0.104132765289721
0.552738275625135
0.739742382277601
-0.457633284911121
-0.577040183117678
-0.895167432106491
-0.3115083816789
-0.958011330253235
0.60994256605102
-0.623957692514085
0.482816092345524
-0.816141135417045
-0.755242571369529
-0.177089846696071
-0.354843919768272
0.957032830067002
-0.10959105755207
-0.663757070574859
0.140629687566197
-0.612045435035884
-0.986025711494746
-0.136105774556893
0.121239834747855
0.891668762401468
-0.456556626569756
-0.958777361910414
0.245225355718297
-0.220608295906317
-0.750739103644707
0.720122940346702
-0.793755825231222
0.120701093011904
-0.683625392780252
-1.03662203569858
-0.313477821066685
0.36168009632875
-0.53607386103542
0.0533636057494941
-1.00485756882955
0.213584170862459
-0.461799906605028
0.0861044907809019
0.879130858618266
1.02951691289752
0.842411384309791
-0.35383879887567
-0.190760552719862
0.894877121418612
0.511698874269921
0.876693270647071
-0.83486082075156
-0.891532930932935
0.734946253210923
-0.900490163826701
-0.19306308201162
-0.989310856229613
-0.541414297643362
0.88740005111461
-0.974147020758359
-0.628211858381741
-0.168476623574195
0.851024205457199
0.717095167381792
0.783841730876746
-0.964241942822886
-0.79186352606912
0.671418205114629
-0.893487339844994
0.987612582284104
0.15033988615057
0.327175007694085
0.672384960237399
-0.778367742496446
0.903302301366912
0.916186827530165
0.0491781951779776
0.122056803343744
0.185630850076079
-0.903119362854877
0.959207228536198
0.283677604017874
0.375416488565727
0.26416199109011
-0.638636760388822
0.571078926685953
-0.851669853413859
0.404478319190937
-0.780142604853869
0.182469139145548
-0.284080628980818
-0.0469290498705123
-0.390289381878046
0.010894229226132
0.509159064107155
-0.793575147992794
-0.470885576756992
0.230263230153655
0.96837840465979
0.846794534369207
0.499337140179717
-0.133118388318873
-0.331615019231667
0.938019471339064
-0.554502442340259
-0.332310796542992
-0.416430518469156
0.929988122576663
0.889054288308737
-0.7587967991234
0.823267667006197
-0.0522897889930906
0.290580996355045
0.800496351844039
-0.923090894477752
0.0665018295679173
0.443673504791242
-0.366549210515145
0.438591936552948
-0.704801737431425
-1.02003674968018
-0.187482372185255
0.338314450890113
-0.2450177393871
0.164832312261412
-0.881256307299238
-0.384364812151692
-0.477082118963135
-0.461414568126074
0.55201276609175
0.330703988124364
0.82095026096753
0.199029130378277
0.420610506669853
-0.335360431387055
0.125433378583897
-0.332920324909455
0.501674379664506
-0.0969429582074054
0.777764277668339
0.0426671603732095
-0.777621229657392
0.513360777725774
0.966416255748874
0.349746569802348
0.803803032294429
0.715841048891927
-0.115586556538038
0.0221812073574436
-0.500845726561666
-0.289344631519394
0.815066125802868
0.778656020478183
0.662053209779605
0.822028732208921
-0.431497407156995
0.330358433404761
0.74094542077569
-0.295360607819349
-0.677440698601036
-0.920622307299907
-0.882380978412281
0.437012214896873
-0.639529918495415
-0.0423904928597697
-0.947648697650963
0.806516314950269
0.931012550772197
0.152927788526304
-0.05511972481135
-0.584077473617652
0.949763938240978
0.725012856462567
0.672944024914025
0.272646075906805
0.806661830511751
0.398706710426652
0.48906902776268
0.47573751591124
0.413168748212999
-0.530045041501519
0.767196299223464
0.501437732877907
0.958155055979784
-0.327446458693786
0.363128169005977
0.979726061224459
0.538359638419957
0.65630787560875
-0.820867223519458
0.835880790077305
-0.0459939575924836
-0.150123971240411
-0.38712902995083
0.722712003878799
-0.0479273708135136
-0.229160838235378
0.132494279438332
0.0068559397394311
0.280931133411283
0.970880559849993
0.762595920100069
0.734084435232605
-0.874068932114325
-0.783995297195103
-0.0451263958641416
-0.707606178867393
-0.739855493057352
-0.50439318063462
-0.939153977263407
0.174975817902468
0.783917179222104
-0.833823371785403
0.213088468440677
0.829597497564026
-0.653680023847694
-0.304558839985563
0.562728245962101
0.737820569159282
0.637326023514753
-0.857445193689741
-0.698805312712313
-0.697643845093392
-0.00975379456694575
0.0864773693792886
0.418588555686203
0.0735466161531273
0.0524231925855614
0.875716509120091
-0.726530347953121
0.0306782387844009
-0.668891749275688
-0.34890651143218
-0.564778184592238
0.688228251073238
-0.122160798504218
-0.850353015033894
0.454409545118086
0.80776576606649
0.732248407414827
0.0894918402330101
0.740743413719326
0.0884184509191988
0.661376024990045
0.0963221688974586
-0.833949180676127
-0.123847555491407
0.700099278438305
-0.129689261798274
0.429942231067037
-0.705969062387337
0.229624192942132
0.371828035114936
0.326662338652723
0.110234826664293
0.593173991821099
0.360354845136288
-0.329758629251055
-0.0106243416872358
-0.195732834320835
0.986082204394965
0.432163776700548
-0.408946160761536
-0.63782213448083
0.154447932586866
-0.0376658496562187
0.234819687689853
0.805956313932613
0.627888489014913
0.0425392695018874
-0.719134530155315
0.318448572096905
0.866239623311718
-0.849988791696398
-0.324685621593261
-0.509275297989743
0.32542982128497
-0.283005703527245
-1.03849081130096
-0.0296729075210899
-0.445744389175958
0.37107003374492
-0.820274134551271
-0.612229834862723
0.874650795602587
0.673271432767623
-0.163744508198947
0.283763007243012
0.399757046524053
-0.771723146104509
0.657032235571174
0.572244658655859
-0.452111464234961
0.0757847904592434
0.796984216948089
0.743756360687554
0.271428053284281
-0.180602596476576
-0.412877790329308
-0.794477413985404
0.036932097163428
0.210051652799715
-0.790035999472881
0.934544856597536
0.272899762547137
0.0656625814351547
0.451971019527601
0.301012358145442
-0.290754776098758
-0.352470106700541
-0.726711999257962
-0.410008823120905
-0.398302294069299
0.874975125141982
-0.88297386519223
-0.387422689603884
0.330007573524238
-0.69573202727601
-0.433437338238229
0.493807279008524
-0.872015365956354
0.96433698136719
-0.569564582112205
0.447944811077352
0.442293700403653
-0.258767219790479
-0.197812502482881
-0.165023275428819
-0.569299817627782
0.054952870146922
0.344850695268518
-0.409819451078649
-0.76410775437023
0.849456666970122
-0.978527789844512
0.418993792011119
0.222503889181204
-0.725073966527081
0.120597947372596
-0.225979452881093
-0.846955002527118
0.413301273030689
-0.552911321795905
-0.281138737606885
0.969594032582727
0.101987597921715
-0.0171102546164917
-0.391660256565192
-0.133865074970734
0.13608455424974
-0.610629767232393
-0.0341254773454011
-0.736820958074448
0.0782798668428435
-0.947374064370279
0.068212961479022
-0.184832275611146
-0.164112425563964
-0.44529529807135
-0.441828451935889
-0.685430875809706
-0.301968784776726
-0.0450716651680037
0.71328676107258
0.345411865938559
0.718848010647819
-0.617032889176783
-0.230242495186679
0.833448560537112
-0.362769808213671
0.31307189979022
0.00743618317186689
0.13098961723374
0.755077210988332
0.309697775232696
-0.390913633622865
0.3835319765812
0.618701728706963
0.38610125620093
-0.713051296157811
0.737409783086034
-0.851033215541072
0.88596076280891
0.227624717950475
-0.353326131536686
-0.602926979622995
-0.673765552216154
0.121532882265101
0.775334134489224
0.00886845694396669
-0.312995758589444
-0.572586611395577
0.731532919823196
-0.405949143654192
-0.500047113933324
0.505380982379102
-0.477923805204577
-0.220707373157381
0.421334025636454
-0.708245025350361
-0.285670216941731
-0.790541881470422
-0.247278025659331
-0.816916126064262
0.780665829973501
0.354220179136181
0.750072696654009
-0.553938944584926
0.748850699209208
0.409628231129071
0.610264313786883
0.12412594633604
0.398256734222168
-0.758217580924297
-0.223866471169595
-0.911339712379842
-0.257203967167575
0.757487463451928
0.155050498539725
-0.00668518314069842
0.391224595960156
0.246736794378018
-0.0148920035340804
-0.0870244571027544
-0.916975851651198
0.0220146315810152
0.388789648160289
-0.35387669213419
0.306046365487484
0.825035730569073
-0.894570874165585
-0.333429727235288
-0.678518919473155
0.215823173781724
0.599858179824721
0.546010872847647
0.428831950118315
0.727948652612034
0.43571804607375
0.24371066433272
-0.42722598377504
0.812933178299972
0.290238666041734
-0.723656827024303
0.319945004266985
0.587975371088729
0.125654849456119
0.551833637979654
0.794955339983591
-0.670423677206082
-0.29023756781594
-0.165689095704704
0.7562697162207
-0.448701441235949
-0.0113833979358568
0.534598687404322
0.226581907895827
0.844155117099092
-0.860885423001146
-0.118110436370139
-0.82757635895441
0.301997202623948
0.267251933171354
-0.977914489461068
0.404272610626081
0.0481645741311307
-0.132254551161017
-0.814725532369761
-0.414666157967561
0.161584355962486
-0.414491954747844
-0.0565621156862907
-0.747825962439465
0.92791516516954
-0.496169320115986
0.640270536664195
0.931954719133457
-0.351738775342116
0.552399409184138
-0.454031109159086
1.00522405618261
0.91944900792147
-0.0951505244508508
-0.0135259523906138
0.079656947382225
0.256592366847826
-0.0641181122294591
0.858818435805797
-0.625506288548211
-0.761592799321268
-0.52799275518601
0.703029476855824
0.719172835524825
-0.305951483262931
0.180716966605761
0.324438668580839
-0.467013819627147
0.23342642130824
-0.165421729066838
-0.748879867208268
-0.321439576044199
-0.0556197669266596
0.0288403931345904
-0.29931662986928
0.765219995478133
0.761857867053432
-0.41340430246112
0.894897538275246
-0.837443083961711
0.473299776140964
0.680718503429151
-0.396188058304238
-0.683673896442257
0.627081180920611
-0.0714128103026841
-0.693662772460769
-0.506717613911493
-0.588856578683307
0.0810952087267968
-0.73821968686663
-0.780586113027883
0.132019716001984
0.920282391474777
-0.592541470880815
-0.304180426955587
-0.133771627560536
0.218861691954378
0.561787191410089
-0.275795227054535
0.167710118356615
0.123495317880792
-0.253958887274946
0.866667404700944
0.335891174818361
0.908632504956697
0.140699679356066
0.0201911918050053
-0.657253636956764
0.299827104117015
0.371562988238781
-0.279109478183649
0.0929670294483482
0.738912806984095
-0.0578204189077502
-0.379454615922693
0.956939856045761
0.514974025012369
-0.791384621202166
0.88498083517169
0.00251565854243988
-0.0537147872770594
-0.813340418126591
-0.82330444620239
-0.42873614661869
-0.97820647939544
0.534779740741602
-0.00792415343164719
-0.401439220553443
0.994762431797941
-0.0586725780623576
-0.382501070096853
0.0991607805835269
0.23946458272157
0.0856292864058276
-0.556339164656208
0.0178776573846047
-0.21461398365442
0.00237612122461391
0.732509801929237
0.800332449643894
0.292832262984878
-0.845907181659741
0.143917642007238
0.787353708074338
0.666239322689612
0.257323559695175
0.529176608698915
0.119819693472359
0.893209240939288
-0.211003360923046
0.368486631088201
0.00848375130715395
0.659857484610976
0.701605162518155
-0.800568020358356
-0.0678577107085087
-0.416652804765805
0.319025285413695
0.338445193219582
-0.599726673852666
-0.822161957487101
-0.545132204542717
-0.634292365882059
-0.628321262432631
-0.253031933808575
0.614324810340843
0.854992591944876
-0.325116369588978
-0.496298706811841
0.614984917596947
0.215302623230663
-0.413721091368815
-0.434417081928597
-0.811589799835687
0.821736239837466
-0.114807044443208
0.0950509303944173
-0.594269090465975
-0.0860333465435122
-0.228386341417854
-0.994783248538155
0.8684633677622
-0.301405752805812
0.213689472249947
0.568469771247638
0.57499918660703
0.367604810862513
0.433368415388339
-0.25055693916085
0.389188317234064
-0.670637567812974
0.383996601254326
0.608601999114306
0.328871740057494
0.665220343888138
-0.113354779452447
0.821591761031899
-0.190174496733106
0.0773078653374854
-0.928341209333197
0.405238826082587
-0.136544974617938
-0.363584435635359
-0.711462109270615
0.564119254538836
-0.222593690366275
-0.549421368138908
0.491630862184701
0.899663275332895
0.325490191490201
0.80085145707595
-0.826869993929026
-0.611139933760161
-0.469453136025484
-0.675954073948803
-0.801963987869307
0.635087752327345
0.043098316176955
-0.287701974006897
0.111737636523511
-0.786779828531186
-0.586999906972361
0.91693791022023
0.0978821075347378
0.269592897910312
0.823382011612405
-0.0328368141127409
0.221439374651873
-0.496066775395208
-0.0870577590185986
0.0520657369340256
-0.723793362555126
0.318220417617919
-0.163470107492033
0.364322787532152
0.141670992652133
0.231774686620151
-0.589687139958069
0.649561591522719
-0.208880404053998
0.116248231065818
0.85828189949162
0.491594882586234
0.347572754625089
0.454139821278966
-0.959480408925464
-0.110361113861655
0.0134954006084381
-0.0228648633876997
0.45223041000667
0.217154964764734
-0.295570029772317
-1.0197423283117
0.817654562910802
0.741959740105032
-0.0839913508526678
-0.0833285145697642
0.559442292034538
0.0297033706109762
0.704098763523721
0.768236091231961
0.203641454846056
-0.0521794719038612
-0.030875997131242
-0.726706872373157
0.55557041148865
-0.145575644183318
0.551025379575236
0.148869290240293
0.15804989851802
-0.0908518322049172
0.107842811233418
0.228827756368414
0.712840447439664
0.803057803185622
-0.773424087479745
-0.154590712446399
-0.525925384241201
0.446817316658333
-0.0519840641134712
-0.35927300159848
0.783102783430918
-0.75489461120252
0.0791802492416772
0.665825517730775
-0.714938709856601
-0.809800118910881
0.302713843725148
-0.116813780817112
-0.716610913386582
-0.88584493117099
0.634529073921647
0.372270782101307
0.89662943812356
-0.0175235464131898
0.896146157932975
-0.126066030671341
-0.464157812938209
0.100404933484985
0.868078887594423
0.126156504447476
0.240960628347905
0.738678721385263
0.743661230480689
-0.498617212617152
-0.984644732687926
0.268089479986493
-1.03042763657015
0.805197152025303
0.516953449302954
-0.743155408393099
-0.443424851931504
0.946658002663029
0.789984887432626
-0.164541070740285
0.815744889558475
-0.143996127133917
0.744940720775479
0.14532002905761
0.865466547274388
0.342525081583778
0.501491155630923
-0.427909555142504
-0.20864106450391
-0.0111225105891943
0.274486140341204
0.812072847166264
0.40565199700034
-0.185709425988967
-1.05131065617308
0.3450136567456
-0.672308326114778
0.381763237764645
0.551016540251796
0.69231882279877
0.206458080275238
0.889962845648711
-0.525905459647102
-0.300556783708096
0.717296027969267
-0.138449744909948
-1.08927046201392
0.295794743333086
0.376819518774081
-0.870359524289424
0.52223332094291
0.462414253015281
0.298863310848237
-0.0368161657163413
0.129351083556577
-0.112464269300065
-0.0596069200349334
0.239441188071605
0.171907090813777
-0.377273877215865
0.787245282580759
-0.174249336811215
0.0618032448884451
-0.191543707861471
0.286776014249301
-0.711123377430084
0.941808060228144
0.199347162072204
0.823428510216535
-0.915134838445009
0.864676319158673
0.206630471312551
-0.501581901430648
-0.89531902488465
0.475238734625708
0.878763135965849
-0.410800041341399
0.371007581723746
0.54893686971821
-0.100790078066323
0.22080307712127
-0.862301514306829
0.252731057104931
-0.465719932810172
0.242967670590315
0.585776883390705
-0.619534285409178
-0.457224828972965
0.935542282954679
0.235381828220776
-0.494971606309596
0.0979323034327774
-0.722194578245104
0.0768409081913665
-0.884113633152573
-0.436267572068702
-0.154839232201897
0.565781975012832
0.326512560206008
0.450713887038531
0.0160603245631746
-0.252066886269021
0.411106146839678
0.352260079597434
-0.494209403051569
-0.316510158387064
0.228435820432723
0.266240515320954
0.380855256441686
0.150904019190758
-0.605168162910437
0.532910736518014
0.54372525038368
-0.921115051038385
0.287562206067392
0.777820107824381
0.875167350634334
-0.366260471015457
0.57234362797512
0.649672144391204
0.947961469919971
0.541712122698766
0.470041870437048
-0.238194480864574
0.571726073727776
-0.34483914312177
-0.116340403070001
0.44515746163062
-0.941486615372665
-0.0238521315327592
0.0120027743150542
0.00839493009123124
-0.891181308412011
-0.730570413541913
-0.902850777041551
-0.490686038256894
-0.489238532058831
0.677438533766317
-0.917459700222156
-0.385956675565115
-0.699883193219467
-0.0086687805907351
0.0908253814464846
-0.10903332184556
0.085752851426317
0.038565215728815
0.555724638408053
-0.802149709459539
0.842318318630109
-0.50537928525942
-0.135406354560113
-0.676053295285208
0.934738567404407
0.574535519754992
0.497908701605975
0.469161363220764
0.336428608168538
-0.241342231942609
0.745231207700483
0.725601899345677
0.653698640078515
0.707480396478174
0.223218159072336
-0.683726879162485
-1.13417002790225
0.0473959321577562
0.341985462707275
0.303780719580803
0.919473941398175
-0.347801373660294
0.123030166205071
-0.82423825713185
-0.304706800826012
0.0636987003117175
0.399139519642143
-0.0224680899391048
-0.476091215699202
-0.260712917423382
0.817652808233552
-0.417962520844819
0.0630993797544813
-0.315798081891116
0.636631131067113
0.599671262760951
-0.834627915017101
-0.241596327071153
0.0457021720477417
-0.588601136951868
-0.445758556438067
-0.592499947337922
0.066855831415346
0.666827825032901
0.667491922198121
-1.05058398966895
-0.281130444617836
-0.479636201548862
0.615383645706565
-0.428815929123632
-0.216925140847187
0.858695507970465
0.691806238394833
-0.659554719508793
-0.725411435043511
0.128217423677134
0.35157174638391
-0.178760124182967
0.743354753070761
-0.09902535108852
-0.789662449154625
-0.384689229155485
0.065554728668636
-0.310462700019703
-0.0101293076075189
0.213522923146769
-0.344796751107448
-0.0992567328436167
-1.09563101189816
0.444343574181519
-0.910064657879956
0.0639449479224329
-1.21775354844974
-0.472868390846222
-0.605766520087368
0.366410271769209
0.407400962340628
0.238209598105374
-0.817576372907791
-0.610489258022091
-0.791923073396937
-0.0799544814715019
0.28278854796401
0.862835063688373
0.927408358934772
-0.928037533790817
-0.00780419951599782
-0.255208454128256
-0.55283507860885
-0.33997322078378
-0.539827974152719
0.539469797755936
0.124347224507027
-0.845326814796649
-0.863243531673166
0.867320184017951
0.249961991364919
-0.7242793830378
-0.35149683881397
-0.502136943150129
0.156091876097612
0.418445041627707
-0.792769212366844
-0.976442085587565
-0.667190540699722
0.488908946582528
0.63750532473871
-0.343245092718661
0.716888596456853
-0.0709297947715336
0.654298438033007
-0.907639071410385
-0.326779424077884
0.500783665756447
-0.140773717874717
0.324183363836683
0.289344877719994
0.313632331805753
-0.00817463882551813
0.166151551095902
-0.682725392144653
0.843645288606331
-0.657122174394425
0.212761323486481
-0.0273152014145648
-0.502437625679934
-1.01060156237
-1.21342543003861
-0.669286950247632
-0.900971830144487
0.639857846506836
-0.0095900404514562
-0.541264914364056
0.430388293651562
-0.302932807400271
-0.791317985252119
-0.546056694705316
0.320711364880941
0.513101125647128
-0.536384608433643
-0.45693965163336
-0.422678021117895
0.292918050165123
0.609351095056759
-0.0770001146487166
-0.584536347936333
0.0850115112465176
0.814519086546451
0.343523723940816
-0.256043509500347
-0.509383507020414
-1.06969266530128
0.242818996896097
0.432618352471183
-0.705724217387233
0.545975844626869
0.074901006696298
-0.411138382776434
-0.457907294363279
0.660931246846704
0.378212231239111
0.58786067919695
0.788249575843846
0.0316493918321953
0.0267578359965232
-0.259053214758951
0.628517292159341
0.228858940430316
-0.0706166932731483
-0.0816652648240058
0.179562927669301
-0.846345147947301
0.798673726912465
-0.389142255807952
-0.211704684678079
0.870037904034622
-0.431106607777494
-0.353738904727751
-0.795318737465769
-0.497365297271716
0.306279648004756
-0.888344207473661
-0.421092092249314
-1.13865292152609
-1.32670942376775
0.376980141330501
0.182610287982201
-0.253577787140159
-0.0266658946957812
-0.0869177814272083
-0.351289851367087
0.327001175048536
-0.46207739998399
0.921779996955991
0.058465562147894
-0.105474994228201
-0.168753996736914
-0.568865336733153
-0.192102183734555
-0.692759601033882
-0.191830499367721
0.905594482827115
-0.050642587521141
-0.562682194836573
0.439015568092415
-0.787159463768147
-0.965160488990363
-0.450988994287406
-0.463972286035459
-0.652765347723279
0.0322665134427049
-0.377017962559217
-0.540626344101169
-1.25157393111238
0.727167119265607
-0.107455057450939
-0.192127011697663
0.707206493934726
-0.0391783514309707
0.250906110464012
0.412106731879556
-0.0224237092082467
-0.722432645256509
0.962058743414759
-0.735301558057426
0.924154709200184
0.627610720496711
0.785306994463846
0.42979644102024
0.796655402167117
-0.0793219467102788
-1.0392394918834
0.581015311492708
-1.27483223737131
-1.38377095853372
0.394163380142297
0.0871374559597714
-1.00455829580185
-0.687594525991612
0.487205124104916
0.296291129591786
-0.728954621318022
0.548661803337293
-0.791225388840544
0.631898638415263
0.804902637675054
-0.418760677932373
-0.443125475675119
1.13712713068473
-0.709296305526241
-0.826633410191446
0.191171932032577
0.588021992248635
0.688859491243668
-0.0844602389201033
0.749776745751552
0.517929540621782
-0.13685525501153
-0.986248477322915
0.353146971739365
-0.608601612328879
-0.823268516130071
0.168178742267371
-0.16577216595706
0.38194835968159
-0.177694346214077
-0.24427303425478
-0.429526516677993
-1.072626218679
-1.07315368812336
0.213629631896096
-0.559122867582367
0.124554934328223
0.276371372482001
0.76676364137062
0.00901806280309201
0.384503424058145
1.13928405282071
-0.540909465672905
-0.321403247552751
0.657799514197297
0.427001305996552
0.900419358379881
0.320924856504044
0.732932998296644
0.807537487098514
-0.508784117572432
-0.983730775012276
-0.096846729840678
-0.93246280939507
-0.883574742546171
-0.578998372302981
-1.01629348818174
-0.281087900937493
-0.237379803247437
-0.13811336886498
-0.174597307201568
-0.621021329983894
-0.586900323307757
-0.452123633026103
-0.19993792713486
0.812698154762043
-0.52100646329603
1.1229378109221
-0.0338892905848869
0.676178119431133
1.1477802241866
-0.422597660103409
-0.629897484231531
-0.613631645260378
-0.229772476708605
0.745487502942017
-0.300010173866566
0.648392393148662
-0.89520399870603
0.381558439966955
-0.372696635650185
-0.785741133352703
0.383525751811542
0.787102645461137
-0.592112575309177
-0.352442731705941
0.478706986077381
0.70066084125275
0.629708872015139
-0.39030004367542
-0.730547969218948
-0.746314889412295
-0.733707299425578
-0.315851305575362
1.02689030147179
-0.0821480929449356
0.535200118699282
0.700661676817952
0.809800150050216
0.998023031633512
0.298464029677433
1.16287299399881
-0.333990295132077
-0.637864562467063
0.93739486245115
-0.760876219686154
1.09893802187102
-0.0591248687213272
0.612124554947737
-0.387040837707458
0.875653768432677
-0.53265986886686
-0.17281586312562
0.54156677987116
-0.700113181976155
-0.406313312414381
-0.108890134607957
-0.452341735004779
-0.91039259174388
-0.925062549730407
-0.901089513032642
-0.430451330547388
-0.659903022552336
-0.728176999905768
0.202946348139409
0.598568905585162
-0.88915899404293
0.704900738167947
-0.4578702725671
1.04934380645094
-0.674548535510832
0.156936765168597
1.04191002407983
-0.677657534302092
-0.600359920611043
-0.256021797601051
0.737808668902661
0.167381106298454
0.928812021190114
-0.66399310774111
-0.128064178463751
-0.187357555056878
-0.789447302418263
-0.0349985124977042
-0.384576926998085
0.759805371633761
0.464489362254379
-0.28754388101852
-0.820988414796373
0.221385365758262
0.853413488100224
-0.0782290105889032
0.511365291693794
0.51018125564868
0.67005721595874
-0.35290869109113
0.815773891822222
-0.614330090411649
0.0964227449573946
-0.601170864935887
-0.713617640760997
-0.460563869763026
-0.398849448075528
0.783590982288884
-0.476109544712668
-0.0276462833268679
-0.349335293982031
-0.221783784932814
0.477863677033835
0.823802741203342
-0.0487447030592363
0.662096064934387
-0.432497623418686
0.857365442651854
0.340330263282593
0.310620430331753
-0.839238370669976
0.139841444065652
0.508520849708904
0.445860961316518
-0.806639583995531
0.377695309546103
0.410377994766454
0.169295744075647
-0.991807961990577
0.172637098456759
0.380724859305532
-0.640853395173995
-0.469025854739147
0.603975607068324
-0.166893150362388
0.396546338891254
-0.74609577427756
0.811517210082165
-0.702164987611049
-0.418917790564006
-0.524603014066316
-0.332131948022266
-0.391244439111859
0.736128240442436
0.251294290362076
-0.0825588143741573
0.398738880363599
-0.618844579169186
-0.875842914160705
-0.999145222771065
-0.71582001564829
0.71033867068127
-0.690172325833376
-0.497723387066205
-0.476831141657833
-0.413790109378095
-0.307230354219465
0.344981598768474
0.828403295311727
-0.438309049317864
-0.190231294376876
0.0924352275690633
0.471699762851991
0.132283916516142
0.457964088567496
-0.750393273545486
-0.78065803966818
0.870210843788771
0.0379196040769233
0.682503677290487
0.590298387676616
-0.0602386777952915
0.782064460875899
0.00320835195076187
-0.0187797653070168
0.536499435846554
-0.488844598679821
0.683135664151357
-0.827845573655982
0.306267539216163
-0.956767123393568
0.137214027254101
0.135916363895403
0.992142266003404
-0.143886246851933
0.58106587684992
-1.1167998115687
-1.13522026760759
-0.0439926008342184
-0.906984541567183
-0.500432035831631
-0.386116009278378
0.627682286178548
0.385144311076625
0.459486765903428
0.16415325301546
0.0538678769733942
0.418788480327665
-0.673497468211263
0.105432537289073
-0.170968727952186
0.661441521146562
0.437559568080469
-0.496891934614393
-0.516502672366268
0.344049698836163
0.908810706082521
0.270548017263888
0.501365992738876
0.0373105862753035
-0.838298109709307
0.0357120063945133
0.242083176501705
-0.391231650735258
-0.401900680006658
0.749433536785563
-0.962192832845731
0.530841316864165
-0.750990409936656
0.723202390975533
-0.890231404786615
-0.928435400010664
-0.344622229006115
-0.262982647017355
-0.0293908895289761
-0.184919517299274
0.234377204440038
-0.610034182216536
0.571605357373076
0.87612723309589
-0.447155273103972
0.150630976014799
0.458803166591042
0.164591475759493
-0.465082763701471
-0.637523534485667
0.62665808155763
-0.412937963960123
0.513194608700466
0.488449419649937
0.682807589558213
-0.295967199535178
-0.46794204370675
-0.87289208384129
-0.868409412246703
0.661372355474044
0.531373364878583
0.0714317485473464
-0.290278626248855
0.558100971882883
-0.0410276154404585
0.348483706249433
-0.0272527508307895
-0.575916971324914
-0.115122964136244
-0.285474222041738
-0.00119701054461462
-0.278188603526145
0.549085979693276
0.689373616850984
-0.972432018273481
0.601258915826966
0.754631119842323
0.607389950948611
-0.591019401182428
-0.0474875812684447
0.547866940519332
-0.933972805393374
-0.889935673046216
-0.675113397402224
-0.758371960427428
0.556880905708585
-0.874904673130258
-0.100402132517884
-0.827357253959435
0.47832443273958
0.560024975879457
-0.467370448530387
-0.412243774462699
0.298314592178617
0.264095772002997
-0.858566463162669
0.664492495949042
-0.997598196346848
-0.0877391428493835
0.200814380652683
-0.823031439010069
0.0346347338776054
-0.720367745384367
0.820328890190117
0.361611430314852
-0.100688090770642
0.00427822524896948
0.76187762755939
0.245574088621061
-0.968207811354403
-0.0974700073791139
-0.102411133821926
0.716418907062447
0.18072874886419
-0.874861749367836
0.49854314679999
0.0203364056570223
-0.545849099159176
0.371922648417969
0.430773903504901
0.282452929402086
-0.829728592767162
-0.676167124207017
0.430043172170621
0.169632018625129
-0.5147411669095
-0.857941554258116
-0.752658254957062
-0.569209247655443
-0.951199707664451
0.93885210729218
0.753676552323726
-0.308025848001938
0.185595361699416
-0.287154680505044
-0.578890198992714
0.70770079228749
-0.768665293557294
-0.0936239322602598
0.28611625768582
-0.509160113350991
-0.73364523469325
0.553767136638622
-0.893922287098328
-0.422977553898017
-0.330598292995245
-0.201037748013271
0.392011357161998
0.233323039271929
0.874758612366469
0.20282865294532
0.224281135178746
-0.397629640851812
0.437271761067978
0.901823182168091
-0.964672767687711
-0.253903612685067
-0.142721298984687
-0.337062359656432
-0.106149298032701
-0.228098421853185
-0.237041214831539
0.324877422742417
0.177569994225524
-0.909274639553073
0.18393600837208
-0.80798030078098
-0.581945607138299
-0.72749354713722
0.418853671734428
0.500377231052961
-0.452101912272504
0.360539575669239
0.935135216075178
-0.161891174988383
-0.0883329591658834
-0.451516026534788
-0.756987123833386
-0.117686531302196
-0.548460182546112
0.538726210651215
-0.36742565876501
-0.0214113091712398
-0.450686868601954
-0.201298758408578
-0.375694579931818
0.0699307417327433
0.187389293562983
0.219984232634117
-0.362036191372682
0.659615683511596
-0.191005760148068
0.564547110056786
-0.94714186933381
-0.478364264583152
0.572745838007955
-0.347788598698497
-0.949914505403823
0.679878674471269
0.116935558485878
-0.730277242710162
-0.76419862238778
-0.0230370763345918
0.609115129378633
-0.78968724582268
-0.423068602736405
0.824252450931054
-0.391014349977472
-0.498641585692042
-0.0318359462249116
0.567787030102616
-0.413602229736048
0.938340862201263
-0.917268804279041
0.235225446275821
-0.971576810041314
0.685541202965795
-0.250405198042121
-0.631333731651014
0.392499598106903
-0.921417591267368
0.0320886873497454
0.223491238736896
0.540838056563257
0.594716378150311
-0.473541068065143
-0.180358439507671
0.130270249183349
0.177017034658905
-0.0279160747891494
-1.06313365805604
-0.871380307823334
-0.772995344598032
0.579988064700247
-0.935435841642995
0.216017820139457
0.566321085641661
0.389224494652024
-0.49079000644209
-0.631106336205247
-0.245242441992248
-0.731455468509517
-0.437501035057006
-0.826733546006285
0.0515779663705267
0.124548941271941
-0.083132281619512
0.428760351008745
-0.197366488276976
-0.438594361068496
-0.959355891873387
-0.963973169610921
0.703943874163924
-0.694240123036935
0.0759430112712919
0.167312338075144
-0.258618084702391
-0.000820546834103802
0.514198829548109
0.191431969780832
0.367663775161855
-0.538447807216344
0.208384857662223
0.350545910756058
-0.0999570872797787
0.37214430990048
-0.584673953722602
-0.55050321240503
-1.03113870239107
0.780117333010413
-0.70910794174049
-0.783883877340349
-0.743241832523521
-0.915070070133869
-0.311017716948637
0.728891043473077
-0.506895634629031
0.188807866727181
-0.210147000845684
-0.24215317198508
0.769163363937015
0.521445916900081
-0.485591474510388
-0.232069728752804
-0.0677292065398051
0.696647853659422
-0.90882619539756
0.563613645256521
-0.795131088485555
-0.270923163351042
-0.640746973627781
-0.530044046044309
0.742535796637464
0.174459705269839
-0.0377892000020093
-0.655088655460885
0.0552999364908759
0.0438134791228885
0.133685930878105
0.608899292413549
-0.26284248004534
-0.45152129830207
0.514866863555576
-0.0375172221030819
-0.697433283596347
0.937813540211238
1.05101678542263
0.923594720776686
0.834775989458244
0.538153434874494
-0.031054767205216
0.923034907257238
-0.3869869088854
-0.0283644308160513
0.441302173089523
0.796852273598746
0.926576014309203
-0.499433899777644
-0.509294231877611
0.274055938006907
0.234141124359817
-0.280409668753555
-0.802256378448861
0.323102402132062
0.555642979012453
0.817321572286384
-0.560676729199451
0.0917587219692785
0.212069460914131
-0.528911413627893
-0.233000250725184
0.437311949578558
1.05784047287436
0.21059047630281
-0.788615061192603
0.463869842369464
-0.771309076375599
0.736944549863633
-0.268020149131675
0.353772566707601
1.12214640140696
-0.417784492468243
1.00554395065567
-0.0886425304591462
0.913102756855791
-0.451172395206697
1.02581257434592
-0.0635754361565946
0.711217198384357
0.0662783196271805
-0.543796618663859
-0.239248332789238
-0.215152432411832
0.981745305564246
-0.574290064952582
-0.933171269679786
-0.543086613812557
-0.654934886685261
0.541276715052608
-0.505077987666273
0.469647308147724
-0.0549754580446806
-0.147622733347079
0.592295332810899
-0.00319974402394384
0.700794319687139
1.05328650136964
0.618290465624084
0.116864703834509
-0.632054090630512
0.908589893803116
-0.552404317719916
0.834856396050746
0.13635017822873
0.256934016370175
-0.179253715972727
-0.272400160469839
0.264671292001844
0.522562155880316
0.266253926163256
1.02268274641579
0.627551606546345
0.445743417531078
-0.815562706333556
-0.89043177563087
-0.805523525241346
-0.165410580433125
1.11699199544191
-0.252932567702575
1.11543236151415
0.10201807219783
1.06556610462123
-0.56282242277973
-0.567805216852711
1.03943444327635
0.275154523488545
0.867542179008693
-0.331760382420513
-0.788822814331447
-0.583658636497361
-0.487759012280293
-0.632769391689531
0.89497364777999
0.500564452886275
0.218448535433522
1.04133765039789
0.0187007469693851
0.831028074621255
-0.150588568861096
0.644880634526798
0.388398184799503
0.232954509944413
-0.0452129135401729
-0.476855284236137
-0.295851183088993
0.916047000319648
0.445512666211164
-0.418689368597202
0.478377894171969
-0.106616938190856
0.0573698555280892
1.15620387647903
-0.0107582721918106
0.016311073095771
0.277717447183104
1.01737318824809
-0.727953373990165
0.590265383786335
0.104169173745251
0.942578236834793
-0.0269408230600566
-0.87006543247638
0.103633504985732
0.133602478499805
-0.183575453264795
0.740121553042036
0.749214356478485
0.93358266054369
0.033913070397572
-0.873393068337474
0.306034838365533
0.242129328098565
0.484209950020256
0.163049793382978
-0.350782136831839
0.736107151560818
0.0244240487034567
0.905915235063837
0.892027883090326
-0.629583681946021
0.970954873537049
0.340035836338916
0.253209221420261
0.472964153058245
0.535767873389392
-0.502192142729992
0.422772765820506
-0.109038683725692
-0.799790365027593
0.188792774710612
0.763488695407637
0.422839949138391
-0.256371302571736
-0.0816709471122784
-0.370540652566887
0.232923377765516
-0.787825170808012
0.869205470319731
0.792339058822057
0.118148187992575
-0.693232163869775
0.54675775813094
0.48776896139253
0.231197591163468
0.504167272288837
0.893111665147176
-0.105328416250972
1.05641218805943
-0.503338097411947
0.6412340591969
0.115979134682044
-0.469610875894372
0.882814647272604
-0.0548346601090352
-0.820462732448151
0.777880322579845
-0.0782284452437938
0.63630822553786
0.572850944471762
-0.698320583129702
-0.671757376383906
-0.150388056490413
0.696860140814209
0.830714034895681
-0.528377491126488
0.913346306641977
-0.496530110695625
-0.38061817393716
-0.40798411330408
0.424935764874314
0.482245188013849
0.0625744935901667
-0.863155465769629
-0.0454462716734605
-0.68340034568392
-0.39617781558561
0.914002338844477
1.10191489256452
1.07379755640107
0.857241843258749
0.87083052068172
0.642208460894419
-0.291809013617884
-0.172593183395283
-0.740352576404839
0.331759641440152
0.555477705667738
0.828798325276615
-0.181066089207864
-0.112406123128381
-0.703736191353085
-0.404101553846015
-0.568219264492428
0.513773652453735
-0.261481029387916
0.417421536567777
0.850478376733442
0.633167949747812
-0.282289194374292
0.536087551709223
0.497285378836206
-0.484679859206906
0.744248900633861
0.203349052592227
-0.837657728107965
1.03668214634129
-0.526979807567848
0.14697404113209
-0.110917778122758
0.826791181125789
1.16709727368925
0.139650049756761
0.845646564728508
0.889976108991966
-0.49466543476301
-0.227657655004382
-0.718792472979743
-0.0353446279168686
0.617747812900046
0.204102541149598
-0.509724968492517
-0.333954163381035
0.70685711766761
0.616914722119147
0.0778474347670129
-0.158016461429469
-0.393142947261187
-0.390466722800572
-0.626522959261793
0.16151751390048
-0.0083902955067654
-0.67937113618817
0.253909574532801
-0.615012558590254
-0.615713679948652
0.567093875668816
1.09060149610218
0.660190174229031
-0.141204908682917
-0.507132756418592
0.164966584259053
-0.369930928124017
0.0690271957468498
0.120809459496596
-0.129861114014217
0.287965423602116
-0.156354412293029
-0.367615127167759
0.123659442204545
0.928127587370405
0.0232021764095412
-0.251466738543472
0.910978910287851
0.438104778092122
0.050567954490041
-0.152373357866388
-0.0577455927016217
-0.664846324923302
-0.759227460888636
0.196915496743379
0.163262320952708
0.629560674538698
-0.206628500642547
0.928993047529981
-0.0583060434018538
0.862557737337447
0.86917929855427
0.540209701057901
0.654656537131317
0.119562873821744
-0.200912385154497
-0.261464449947702
-0.7774802875497
0.246756224609005
-0.885465344484386
0.933389379719629
0.680717942237275
-0.464959225347006
-0.374947462141745
0.622737416588163
0.844092240180437
-1.12254927481749
0.459912989867047
-0.550866553853838
-0.798402377439495
-0.677339854433635
-0.633875494517749
0.578004512542833
0.0276254834704054
0.379274906972687
-0.357702319437478
0.873783098562848
0.411856148251365
0.544133877105261
0.175243534108253
0.486839321754064
0.867089354921073
0.225889257234685
-0.786751738037769
0.0493440609931007
0.453712934104735
0.329040346293445
-0.048565961181432
-0.988787772314941
0.161353804181254
-0.775504614211688
-0.617091289805405
-0.522250561386087
0.14359047807306
-0.022494288685601
0.0419022540698781
-0.673841384157785
0.659647971853171
-0.487184231531167
0.134148131764963
-0.0437280048780267
0.832907860511899
-0.757518905341939
0.742672608770058
-0.347748511951816
0.421087237724554
-0.868094955289061
-0.624482832811443
-0.696098273436529
-0.491397720784763
-0.103052773492986
0.262739020575605
-0.326258261580177
-0.897751867102971
-0.370000279026324
-0.990238270565216
-0.593067738634777
-0.702333248371102
0.496237413129874
-0.976682607384247
-0.634825500090666
-0.211542557973534
0.329723513596477
0.0836068798576035
0.819821898424271
0.795357190283436
0.646253998823805
-0.839986370439258
0.728981297132089
-1.02042569147967
-0.818728365410195
-0.780938608623369
-0.157071169787678
-0.76226407319773
-0.971576360644296
0.595396319298019
0.738674046046108
0.52928247221149
0.475114213099864
0.566644831002242
0.386875036730142
0.0858909797929032
-0.28005850895034
0.495022260001211
-0.775452347132643
-0.0741950761712167
0.669812306084552
-0.687393302078677
-0.519566523430624
-0.0364073228170679
-0.38252557807543
0.888715972581766
-0.952701693962434
-0.656631660246932
-0.459779680257233
-1.02583264044418
-0.723733790383656
-0.159133378586523
0.782733978927519
-0.16785324430037
0.597846609372125
0.677020443362585
-0.607309034729671
-0.731939906534841
-0.58983491319579
-0.341001229517231
-0.707480183444378
-0.593792141787251
-0.810810131591267
0.218568617586495
-0.611223624447163
-0.0900733658883041
-0.170132257620395
0.926993658893778
-0.263053632775403
0.372000103197686
-0.845154401729262
-1.06162989463011
-0.0516964490950291
-0.138056749207217
-0.945731791652473
0.153086688677582
0.466893208578788
-0.357565221090452
0.232591333099462
-0.862654672023911
-0.820866830102335
-0.446721496560772
0.55213542522594
0.799474633913317
0.103136861150109
-0.173907168859315
0.741170574011857
-0.48684513843886
0.712445896903469
0.544533882427971
-0.296658873226984
-0.419100304221862
0.158922001209125
0.585650086265112
-0.315955105283336
0.32719204779123
-0.639847102339725
0.458320613265735
-0.30731579613003
0.831031490560809
0.211421216773134
-0.853977888081852
0.556869130173111
-0.0226236913632555
0.598758228946489
-0.798134880278827
0.84014524100409
-0.0344028951092256
-0.10313641410436
-0.438583654329191
-0.818681282978108
0.608929295952081
-0.121719066342424
-0.798229922633297
-0.575577014815248
0.525534825566111
-0.481252774581904
-0.859731668771931
1.04105408275346
0.596063746690471
0.168720697928365
-0.72515571744384
-0.757974427246224
0.258159473524753
-0.0937752284983613
0.796911292256242
-0.087772987171981
0.470643504281942
-0.710774420394294
-0.178002311495184
-0.137584315408018
-1.07976793878055
0.766374556598585
0.279266315787959
-0.0731776896676294
-0.881507329628309
0.0828268659475357
-0.41106671042129
-0.925987767146878
-0.340900027213319
-0.258818671000292
-0.362756051874022
0.529989951827399
-0.0197483929752526
0.109077483718707
-0.114095682205166
0.616129003187444
-0.0679288706248379
0.0783743881167757
0.0427417129732903
-0.231364549372857
-0.771096555826857
0.565833084529493
0.287631070735715
-0.175483512860655
0.0187463750512317
0.979907069975957
-0.542050880814229
-0.71801661618344
0.90787487964196
0.283733673216161
-0.649043819791088
-0.286679129796084
-0.823688960622708
0.711609364443746
-0.865092693328196
0.571211693719281
0.292840323884105
0.0448341015737975
-0.748189204710052
-0.522402056174433
0.88317036414456
0.914591093806858
0.218400403719532
-0.258057405795874
-0.572017794339733
-0.399248127746001
0.108796671532625
-0.936676309510598
0.982238364101733
-0.770955976985263
-0.936092831101373
-0.53600944258593
0.247285859863119
-0.997324320593808
-0.352569894606941
-0.502134926536035
-0.316188208723922
-0.380659393155959
-0.98720927599338
-0.774806828397892
-0.259135452069618
-0.602314422800887
-0.817656047031603
0.356747213037351
-0.602842445896747
0.975595343250734
0.470302563667395
0.3790061093057
0.00430455874231622
0.218913792189929
-0.82909113505943
0.76392669025499
-0.268470165228123
-0.542426049289007
-0.229589674180026
-0.753025279217569
-0.674022138974966
-0.229272809678909
-0.59653190602323
-0.58557225950741
-0.180846877947884
-0.710424114841439
-0.757537550640388
0.736309163921606
0.329477943382435
0.958567704148237
0.493577211787758
-0.829893680593171
0.0916555522440617
0.711704531046141
0.024031402811057
-0.178820440670654
0.144328674620155
-0.897335495436747
0.809191797587871
0.569519015567848
0.797965376846448
0.882633114997334
-0.671188100172086
-0.569394763385911
0.109866127110013
0.708476822297933
0.0423783743859411
-0.23660149843882
-0.941763849356579
-0.700326429160946
0.73252780667614
-0.210450812251605
0.233660030335632
-0.593841194436193
-0.815182044751466
-0.849075371325871
-0.758280568414272
0.62010973810866
0.425302047513541
-0.533361370596207
-0.829923273279949
-0.534985521287965
-0.942606307994543
-0.511490558081733
-0.459951474196276
0.344650849487365
-0.683610711673265
0.308387412895006
-0.798807534151796
0.352834117668687
-0.378542781920972
-0.362651157598114
-0.343184432117853
0.209957620384432
-0.543390960661038
-0.552175803817167
-0.767930868107091
0.973262319533076
0.304654667958129
0.109836090054059
0.252554092962116
0.491137344014026
0.702465874441576
0.0678590679961171
-0.732218649542797
-0.261150109946016
-0.0281953606583227
-0.274975574580151
0.571824468242915
-0.0669930898056937
-0.351477141330223
0.60757764850973
-0.22819457992128
0.416550871633043
0.452217174326243
0.379568470345988
0.873592020384245
0.899706023369861
0.950520092789641
0.815306936936614
0.43337062326807
0.767434220600095
-0.414568615910671
-0.281794403824355
0.687223029046484
0.102157569462455
-0.860162202983008
-0.972201428019644
0.958263985758903
0.74281131508014
0.92325587208321
-0.724302878098847
-0.665408030434905
-0.661151405887151
0.242320007962021
-0.289830178618735
-0.196560261533991
0.0378419580517401
-0.747644310175228
0.834839839524144
-0.567074187440978
0.655499768325917
0.798646787860814
0.337377724271445
-0.221310866530281
0.102115146951532
0.947800439691317
0.301491860729166
0.802046746659445
0.119975484456823
-0.388839805912589
-0.649534108825161
-0.970897640633909
0.494634180623632
0.688687480532144
0.49476947318154
-0.0788654270236991
-0.0104938265817966
0.381712407255441
0.162673242087459
-0.388231385074884
-0.0458836113678265
-0.220474690750535
0.841138322993799
0.023665957667723
-0.602300092997976
0.291239201115154
-0.544141734180472
-0.779393143412772
-0.200269591925989
-0.363136643729025
-0.0893563406952472
0.731363588218471
-0.782358920834391
0.487640189060512
0.852875346498338
1.02641880322789
0.303863364263735
0.986113189358122
-0.387515317828969
0.16748817795755
-0.151677095915478
-0.756895618265878
-0.156915784265537
0.138586289962138
0.575883856544346
-0.747392290537429
-0.152645877365053
-0.342677937352379
0.745000885638823
0.792092250928853
0.815017866715759
0.657024777144472
0.10958783194202
0.243005426577088
0.498130155231095
-0.0885478163213825
0.99586698299714
-0.647074420331102
-0.558722601300731
0.883437283661656
0.583773387757831
0.193773399100032
0.101139179448184
-0.432397278568725
0.77126742843371
-0.31951140606905
0.861639919023985
-0.957801445475665
0.86068290646007
0.498080185346328
0.618661990961693
-0.0104424334691958
-0.244670519752575
0.992128603524668
0.776482436241701
-0.272201281832532
0.938277003436565
-0.288894734427195
0.473437095805506
-0.820445664455629
-0.50995813226671
0.843159862327807
-0.502711686470872
0.0353438303415029
-0.149328006049192
0.277694559110357
-0.33949937169751
0.0284042365646172
1.06508130757885
0.0501766110069342
-0.857154509963292
0.0515615468149284
0.63915715105369
-0.181522278100169
0.661985654623978
0.721577516715538
0.194635356526973
-0.666563931461975
0.387069335357043
-0.118827346631378
-0.623335298400356
-0.20072261302332
-0.184272409760511
-0.716415132856189
-0.812341048006559
-0.15311974760852
-0.0413201593963795
0.189086132043571
0.543708577061745
-0.171217595474468
0.00246720112089341
0.319924249539824
-0.0747584002062706
-0.698980405332382
0.431329448682075
0.796964881865623
-0.239314074158205
-0.850479988464368
0.821744656922123
-0.402717965277688
-0.874324415923989
-0.0691628457559545
-0.928995236996466
-0.104968055046511
0.434012294040067
-0.343959500978422
0.398356441460411
0.938361393922388
-0.670806971925452
-0.938082651828412
0.548182491699378
0.636763995104533
0.338912476445961
-0.386190712038631
0.858587608008822
0.750727879422519
0.0934076092945925
-0.720638255131499
-0.102197303439443
1.0509928787274
-0.614227704679429
0.52611090459182
0.523791509997449
0.278805956607532
-0.910709941685588
-0.126920644104289
-0.79225449894607
0.429284074427096
0.472392861344049
0.950933519778631
0.050056505819697
0.132400600053101
-0.403298193709992
-0.120035723137837
-0.185717191672519
0.446318237356046
-0.270297096364739
0.928425466904908
-0.15011466619688
0.546876744254406
0.452852546406599
0.0218513148523083
-0.112420602556264
0.5305939438307
0.34278245600856
0.429732246764212
1.03514920246242
-0.629412956687633
-0.478779658409567
0.724218527763582
-0.278535726542843
-0.499940712288827
0.284378094395203
0.799847149044404
-0.730447292651778
-0.336123235048602
0.47488842748325
-0.124728297994315
-0.106736565743999
-0.362450853444842
-0.476611420473199
-0.950288373916471
-0.464312727746726
-0.599991849354068
0.0236419519073697
-0.576981818656985
0.0384611446801502
-0.529033950660096
0.808805049979546
-0.575083390792229
0.0766892197978646
0.249348951510309
0.498095756136619
0.403621866204592
-0.337355970148791
0.441247156755986
-0.283153167438833
1.03117372848339
0.949183319083526
-0.32529628063378
-0.126511954742337
0.872796024426252
-0.0352365480184538
0.793497461576333
0.277354248668099
-0.376166614972678
0.930043357862344
-0.141175525990802
-0.338200737866622
-0.798831238909384
-0.971436025695373
0.886690185674334
0.0453180186689452
-0.790996930220829
0.00682201838946491
0.397006075551414
-0.503067136693707
-0.473313438228523
-0.403297548052419
0.0252499033202412
-0.529829532726602
0.620713268019505
-0.366808566081654
-0.820417416985143
-0.265248992636622
0.538318682767803
0.0370129100647323
0.91057273599051
0.189894881386806
-0.113319188802077
1.01349128999573
0.48422244292915
-0.0355879502925119
-0.712079105298205
0.842031204577768
-0.297587878565735
0.118052823897062
-0.236598571388871
0.1666570700361
-0.560336768553148
-0.486202834114925
-0.825638240293702
0.78203354029179
0.571196929187741
-0.623381535651504
0.21657063976069
-0.724514786019007
0.384530823554775
-0.530428682065288
0.313769876885706
0.00840613616896887
-0.737725922583805
0.519683683244755
-0.00593347088843081
-0.758495274687703
0.273468191928408
0.281463423843524
-0.15336632860561
0.1287403894516
0.778361350455524
0.624665244957622
-0.919078212996198
0.735730162785237
0.82081454122296
-0.791050484718717
-0.45046568875104
-0.032040829032369
-0.183784439440693
-0.596989257674222
-0.684767933470761
-0.736693680348711
0.686217339235404
0.333416682294912
-0.831144627952289
-0.443896984824323
-0.630792108940641
0.903797288375759
0.101566193345216
0.840920253594474
0.559531973237523
0.309013961236586
0.679594174164916
0.450860174297331
0.878300712190566
0.89089181228618
0.788425337694503
-0.980626913137274
1.00402013013313
-0.921247461913385
-0.392649017698129
0.469580008669789
-0.695696509957646
0.646231886149028
0.375115030572116
-0.143936263250974
-0.505706506204373
-0.524401422931649
0.983529513615813
0.364930777430462
0.798675209497706
-0.752656791966152
0.480729696165302
0.0121307455260787
-0.792324127334758
0.101348530987886
0.366672423610769
-0.0388634924240451
0.371253960502723
-0.546985084435035
0.871649094782232
0.378822895581094
-0.807892175561662
0.0077264791504451
0.579849143335672
-0.506928470434763
0.947426119759218
-0.375774807912008
0.857365975179047
0.936758792415751
-0.572781018972528
-0.469227165227492
-0.0629720281509025
-0.227820045031605
0.849418201993162
-0.119703464395009
0.97855813114924
1.04819201668241
0.938599465465231
0.325639101555829
-0.908397113526143
0.920270069859134
0.963104975160053
0.788185594661067
-0.886471119635588
0.364169071756265
0.864768324198973
-0.307218650446001
0.258500114409831
-0.19442586994293
-0.429716783178108
-0.148017863360309
-0.344681760872528
0.548793187866915
-0.829596135224116
0.189496491595495
0.25184979902254
0.278194611750294
-0.945857678901447
-0.123632390359845
-0.123879407035898
0.89561217401333
-0.328525514560162
-0.922077613601084
-0.0408761723693763
0.265108691980105
0.277943436838352
-0.272148259575442
0.199770870043132
0.360871734398311
0.165543066832193
0.374905346830922
0.0957994681888466
-0.899782496807159
-0.599706679464304
0.986458097632078
0.446406408580064
-0.54363551004346
-0.0251926071738399
-0.725690553722163
-0.349542806382778
0.236860120423124
0.320953951290873
0.0005823283966821
0.33204700605346
0.554923415408174
0.8683561073109
0.382101098458984
-0.443695060810915
-0.333056139006931
0.668563826922995
-0.260506007231328
1.01631149454632
0.0517422895665329
-0.575933381428207
-0.781698823437942
0.287004910831045
0.93020579990626
-0.122994073351552
-0.114608804998403
-0.860303087603374
0.188857755769513
0.526867100139852
0.930709696528979
0.677230744025502
0.262184103675897
0.83973417487216
-0.381924027993324
0.172102623439925
-0.828543783985094
0.703727109386567
-0.243850261402884
-0.725896797717983
0.777769419140676
-0.767072674025693
0.633098601048736
-0.469514513834869
0.666162447099632
-0.221419991381224
0.449730142179276
0.432180661094928
0.89712245170922
-0.850344519588067
-0.443565677941685
0.743541384775055
-0.510476841206897
0.403722856701482
1.06110124632703
0.70879972502596
-0.772742050058141
-0.272445396447956
0.545697346125286
0.622722262957392
-0.828628630146252
-0.771944043856583
0.530346030049984
0.742351395586314
0.385640568856396
0.298615785228037
-0.954651202790572
0.700034256390853
0.263284799247113
-0.767478317945339
-0.620967949206817
-0.0847871527767013
-0.104619250366183
-0.513337623819874
-0.71653472035436
-0.135335669426964
-0.196947820062234
0.680292380153438
0.660137392479819
0.220583258904061
0.506885823455339
0.499164740056894
-0.759113376490533
0.0443773471256875
-0.00146286172395553
-0.778082702595903
0.229063543345653
0.927725037711771
0.887512148087923
0.0198701660906999
0.0262258051504425
0.495507987186894
-0.82275692716355
0.136723656200236
-0.894779225366252
0.571011071236051
-0.247876757480735
0.93834706321845
0.150469035407359
-0.669342059897886
-0.281817260076483
0.76265857202742
-0.780945764731351
0.728226169651869
0.797173928249728
0.660587664018179
-0.0888078808629471
-0.897382384205221
0.223700058622776
0.262648721058329
-0.079664984759823
-0.447115797373402
0.0955161105819178
-0.624750495225703
-0.824732412624957
-0.234559192537668
-0.904635476810361
-0.41566797141365
-0.178294694868084
0.22680279693927
-0.883808333569813
-0.841855136335907
0.849892936787681
-0.70999837300555
0.261429215877465
-0.0573522572288134
-0.238921165256475
0.739786282025598
-0.631505806675247
-0.276038734281169
-0.832791711061877
-0.0621672763520303
-0.434280398724948
0.354570846010402
-0.42728115682859
0.846469460505369
0.381526875389551
-0.406033666341979
0.286836766179068
0.372743235084919
0.358198867052618
0.200416322751805
-0.218736550662699
-0.276233845821515
-0.798948724864659
-0.433279187190322
-0.530523338213125
0.865991506346335
0.0190348787490212
0.395466467828227
0.527765579264887
-0.781842973729325
0.175532931042208
0.99954455065628
-0.73196519919853
-0.435483909052517
0.905730339739732
0.935200839569963
-0.494005808687323
-0.083834724652658
-0.0765847107360462
0.171366277387019
0.775632783258885
-0.428457342442148
0.166210648567828
1.04606684400308
1.03108029060805
0.784819000792278
0.858517372186689
-0.59558830646736
0.46040876702261
0.585133619053374
0.378505424529486
0.514297708964252
0.909628750973713
-0.0483682050387652
0.405578378992987
0.160494864411922
-0.860071873011689
-0.241977333247248
-0.462434670959208
-0.0200049586014927
-0.211254383321284
-0.00568791334990799
0.200982803165766
0.965488040522854
0.793040272004798
-0.397067025791275
0.102285483122372
1.0076322337301
0.963276503012171
0.498139530008721
-0.859685838663777
-0.569752494534544
-0.493579387763564
-0.751789159496104
0.500306853001186
-0.696877275735917
0.6400499046431
-0.77692131393867
-0.418505831263764
-0.275004099787351
1.02305731639615
-0.380740980228502
0.934454589378272
0.952348538539827
-0.121042483886187
0.72011540052375
-0.846933360210345
0.397739023271073
0.216601351522715
-0.231525725862561
0.812324299914039
0.7705374693088
-0.600106367278234
0.962593122801624
-0.605252482767616
-0.217330681491851
0.387052959450444
0.238653988289803
-0.696491325047787
0.49589208122928
-0.253231909953799
0.919213041319784
-0.473317554532333
-0.941404162851431
0.531482722775891
-0.00348075972037127
0.0322708943554828
0.691369780642712
0.478012545446302
0.119735604523016
0.51525673009031
0.914367766918858
-0.802766283754706
0.84866776091106
-0.00182022034493606
-0.776546576890773
0.0930804258924416
0.257180617179898
0.0967960080742653
-0.909225513503128
-0.534656639069158
0.710621602821087
-0.213095070684736
0.19257413373365
0.699052207522751
-0.59797682608548
1.07083471719228
-0.407956503322287
0.890461305883146
-0.245197383936987
-0.025575830266702
-0.510685963255806
1.00236066352916
0.134288267961183
1.00570821293242
-0.85499442679846
-0.857063652253425
0.907926281384023
-0.572647058847905
0.869810241019879
-0.316237315970274
-0.528491810396997
0.939154336746588
-0.873684394651046
0.265444618304181
0.886161767068481
0.565366772086106
-0.443229470315727
-0.0330125575978218
-0.84194217500231
0.664170524033741
-0.894266507207034
-0.872764589677474
-0.782988884900458
0.035150313935635
0.0328026897423015
0.123202155940527
0.329257595714332
-0.600713917425444
0.21135580655175
0.0103231174243655
-0.506778062516499
0.827640469253414
-0.249732763365755
-0.813795227198477
0.0591355585571848
0.926174065065676
0.0545694330892122
0.829941211233377
-0.151051821611078
-0.915412713534503
0.201052929228193
-0.165729866656213
0.213922446919526
0.386453701213199
0.975904845578837
0.753255974768931
-0.367272291132631
0.880336712087918
0.74985918372176
-0.238513546498102
0.450405345542751
0.573524869885675
0.695251194559935
0.0608712810305318
-0.153898162310373
-0.63264833208758
0.82675383916823
-0.851390764553255
-0.00640504609352079
0.0242671399895438
-0.181532007185797
0.526416280552013
0.239669191126652
-0.12669588074954
-0.813367123059607
-0.368249675753403
0.177603265230255
0.935357623034837
-0.789990453099318
0.959764591442679
-0.443285484883074
-0.293261976910367
-0.897606466253384
-0.935345381647473
-0.553632171965571
0.238459970775099
-0.134105439582942
-0.235540079701459
0.000590168768833198
0.248752553697085
-0.527674892811569
0.429175990380451
-0.380568917940739
-0.578226827198757
0.542679208913806
-0.085111680379315
-0.870340539788124
0.686034830740801
0.335814172661188
-0.311648463557085
-0.90091508465416
-0.0937477395220693
-0.164888436378167
0.820163103291182
0.259739858123027
0.670652687915716
0.594810174704995
-0.659235511554867
0.199867403670988
0.344095156452108
-0.421562121274026
-0.298072521068664
0.679829877253384
0.805655168408083
-0.713855641148067
-0.243466883531224
0.470977023335417
0.625598847773659
-0.387851308702298
0.612940431972894
0.518382761198013
0.0853204978017585
0.16295472315827
0.751978558991651
-0.447153474356109
0.37591976357609
-0.0989105229429536
-0.182076176322588
0.291926173692614
0.197978463232919
-0.570055737055614
0.442402030317818
-0.450864098093798
0.486303683301825
0.849789097756143
0.59328118332241
0.871239655966644
-0.717826160355275
-0.186770007233972
-0.21505460574603
0.654182499881343
-0.448696175670878
0.607071978423301
0.678428813232453
-0.322425735589675
0.774174648472395
0.760608177711348
-0.153015798304384
-0.805606032705527
-0.159422380577536
0.480633865454927
-0.467954160687776
0.0953692133369245
0.722090063373369
0.169848006566768
-0.00525071975516162
0.656801816202093
-0.0579591696647745
0.1264517878594
0.763714577322558
-0.347368264910562
-0.32189339204515
-0.0353198957891048
0.914199252418974
-0.156506047703488
0.0845615242547253
-0.89375956721712
-0.838628204567927
0.946915777526282
-0.295968337672796
-0.0746051998564875
0.222491638563776
-0.165297142510072
0.840142551837534
0.97757754235471
0.0119215843303969
0.544323038946915
0.548662193134749
0.136680263074022
-0.154980039972263
0.692111060253818
-0.902273727018264
-0.384759790508993
-0.580479739771633
0.660994980879932
0.830605177925723
-0.725245573181346
-0.240128538564815
-0.778481482615572
-0.290732682012067
0.769406897133456
-0.233552725088537
0.0135660190526367
-0.066169127784275
-0.972210497070903
-0.110805830783445
0.542457857712274
0.684340851380254
-0.122899948034263
0.633134245255728
0.695618558904607
0.62583911948334
-0.0603640875509636
0.553441314258507
0.984250882712647
-0.661243649212273
0.785536986868945
0.327792462190932
0.82910234783736
-0.786896160459311
0.453108190984441
-0.865999069878645
-1.10747036981319
-0.602516658822914
-0.830911956387593
-0.388717375590563
-0.976631658710104
-0.638157002835665
-0.971470001629884
-0.165653691027417
-0.33423779959447
0.224456349867215
0.830848101063231
0.134009187114608
-0.138619915537214
-0.864409999083287
-0.76665404639077
0.927707908034519
0.837248439613314
0.118769018515091
0.509276287530022
0.938691374893918
-0.240358583406063
0.60193392151488
0.226012220462923
-0.901310516471981
0.193560444319751
0.113207366915581
-0.497668613736737
0.481479831553982
-0.715411413400143
0.174676256518355
0.116217275250825
-0.887303838847751
0.222171867206926
0.476599228295456
-0.3099142410494
-0.516842269427323
-0.306744111178673
0.32444012995056
-0.238214134402864
0.0539354920776303
0.549478588023319
1.00392545822981
-0.0266347026796303
-0.514417834589264
0.811584618016846
0.828689622404524
-0.272330000696778
0.929292725819761
-0.794656314715136
0.906608361270878
0.497301982250838
-0.310437055719962
-0.296531164967715
0.614992199764188
0.533922257524348
-0.477229019237066
0.443171911544177
-0.704401013917904
0.58762717568758
-0.00166508660469879
0.857677654946365
-0.512631850048489
-0.534313183666038
0.431394732886298
-0.885242420380339
0.684129128113676
0.843063296480376
0.290078579171072
0.345711376503147
0.692253014542011
0.262500429275455
-0.442611293183767
-0.608592084115387
-0.516528837728277
-0.581552430799421
-0.179880937093736
-0.312510439241754
-0.255422048712458
-0.737768252985463
0.361998840749206
-0.537265628483896
-0.262159299611822
0.494465538396254
-0.411411157049911
0.872768522473411
-0.452904910927395
0.467448806934821
0.640082720570879
0.963946859752444
-0.810308437097682
0.0795721687139113
-0.574386837334753
0.814044667840637
0.788606816692212
0.182424351185023
0.0374306440889577
0.475733934413208
0.490854229894574
-0.579502936338233
-0.808049376303054
1.02211843029609
0.452954293994817
-0.410028804870977
-0.47029607997224
-0.32292651965535
-0.0321596715448388
-0.684075133188378
-0.722571256161592
0.326085064936945
-0.120244173505452
1.01063366923232
-0.177791071801207
1.10058334576588
-0.779706177852617
-0.489039105737338
0.114242364944106
0.0141900321255857
0.930777306198527
0.637292539988294
0.629083692925602
-0.695535999614856
-0.777100662913633
0.316792274408984
0.141286649800665
-0.455188418656555
-0.227152052858272
-0.220638889795505
-0.36045055151754
0.313106942287965
0.36319448698885
0.302506939593201
0.158043877430349
-0.66483125718332
-0.882026043610873
0.397145762782068
0.0717117845102396
-0.758177848952143
0.0783201702845849
1.010220731048
-0.053722534361089
-0.791603457363495
0.104796394171611
-0.746397472216734
0.0648843331493098
-0.805438675007979
-0.699722190640016
-0.589539625998662
0.662287767800613
0.33258253697092
-0.952097337031124
0.98334307128203
0.501006976201951
0.765719741693541
-0.276919221118245
0.901043188241572
0.80887523028993
-0.866978780350786
0.416461914443681
0.916907689410491
0.873980121493877
-0.803442846118033
0.715369548544918
0.00201987394450679
-0.991837687704336
0.627464371354934
-0.097564690295009
-0.505846242072263
0.941199756283821
-0.256001184952632
0.352632193211022
-0.176083292894869
0.923293957271093
-1.06123035626581
-0.252999222074715
0.497015162329077
0.223588633872117
0.97257344082574
-0.795366657103564
-0.121998965917104
-0.823567886067622
-0.707210210951973
0.0699812708956125
0.308008412399468
0.275260673048356
0.385033061851181
0.803747560044869
0.399607270466046
0.634506304332155
-0.756787156988859
0.595318904557763
-0.0726757122461846
-0.173168968187752
0.156841407500137
-0.890900536287082
-0.342862191616615
-0.648812833132336
-1.01218631398639
-0.79880226724479
0.419475495419208
0.314075698659721
0.863937507307585
-0.469805078638235
-0.0545592436968722
0.965755911647507
0.202466406977551
0.996907942828499
0.464058607279873
-0.0537439835585554
0.172071055692809
-0.356970210387671
0.833039467575059
0.924624174814887
-0.455646942688287
0.772106021011161
0.610851357636761
0.189148660014214
-0.536494142232554
0.730073639947569
-0.424763138644556
0.770517168317206
0.444107155488275
-0.229762957028779
0.530838071237022
-0.0482469696720711
-0.696545654271795
0.936694112866942
-0.266373594022392
0.850561900263136
-0.878663034577079
0.145385049756542
0.198281380848494
0.737064168209121
-0.25677685607258
0.482593099713144
-0.776297717797269
0.710049479596585
-0.91880994238822
0.321380888737673
-0.923568592000919
0.369920045744183
-0.668774710810622
-0.535455474129636
-0.480677032453837
0.718336622459626
0.862584684640639
0.0293381177575807
-0.745001426712679
0.339011044966985
-0.577505844507012
0.360784454826947
0.745659238223227
-0.901912768683063
0.502927489283291
0.559977029395793
0.826464140032137
0.0757207542252714
-0.0480995079229624
0.93788762617822
0.620205522040749
0.215258700817781
0.189364226543944
0.524021531447468
-0.247262452932009
0.992249780962277
0.418220533123685
-0.893321378516538
0.220529268957474
0.0654829550017953
0.535335406396337
0.934853736289527
0.218785262538348
0.314683268659793
0.816654896660598
0.299134656136138
0.488063959249938
-0.00425753740638896
-0.758071481104239
0.807910817932166
0.0583016176995663
0.169890558575007
0.587933754127575
0.33470649815085
0.396145520707566
-0.292671827738698
0.318820820478902
0.0417643943311261
-0.801205740410825
0.118612559260016
0.581263449392469
0.0653342080305732
-0.300001791433411
-0.896921950731548
0.680532677602482
-0.112087769761361
-0.758917578112809
-0.180641190177233
0.701905237485283
-0.416120294618055
-0.560315119068273
0.935954758320855
0.983379475431551
0.32455197590492
0.885447058575941
-0.43110318159579
-0.749005047886576
-0.438090200181909
-0.634117116949934
-0.804101242063788
-0.951730952731463
-0.167965961285795
-0.154064807828099
0.119015009283589
-0.160359171091854
-0.587003149492515
0.579263849365946
0.780159332646231
-0.924200834271381
0.997012084067984
-0.372814773166129
-0.681803777961649
0.854340353982071
-0.891060425520948
0.516563368351125
-0.529143954957022
0.207469425016408
0.147525639183947
0.719650395842876
0.0393810037489032
0.16856063580225
-0.257490761542847
0.308735204626157
0.730336543872646
0.504260727974244
0.253865394713228
0.281110529501678
-0.676935774496529
0.487088841540247
-0.126898085313092
-0.508445103665987
-0.228327170494768
-0.317836084604527
0.995753669504332
0.00906462086954691
-0.321509038382591
-0.805555575256837
0.559309689487288
0.225247877869599
0.207469488207357
0.233201287791332
-0.555319480747568
-0.229873759634382
0.69944040970232
0.911498440729932
-0.905691343490578
-0.906216302689268
0.935816183028333
0.847291981225518
0.389357886987959
0.272235278726823
0.10306097286275
-0.101298731472422
0.374270608307249
0.0688839839395447
0.374144220180349
0.577090716350765
0.161860189441597
0.638141823064967
0.614907511472962
0.171292150313144
0.264786791914555
-0.76297121477362
0.146365807426845
0.487847516667156
0.838470525832306
0.60687548050705
0.813658691655787
0.0399590553294882
-0.174214817922663
-0.681651923377241
0.673813418212984
0.875929850846089
-0.547839802601125
0.781640319733338
-0.232677107838629
0.977840308479958
0.531934561975395
0.695389144420072
0.375179145436202
0.158549229113959
0.348102444001075
-0.474703527039789
-0.842447224082832
0.637990704721796
0.423739573661477
0.886051809930199
0.344966043485176
-0.0218405154061577
0.647922257973095
0.0729691870502619
0.00010836733195686
0.912506957983982
0.607361767826813
-0.971789830270523
0.936345557529144
-0.842824337823069
0.619166012925962
-0.712344672260691
-0.851186035144367
-0.525411561480612
-0.776128184027689
-0.105388733887246
0.0648247454973665
0.103795121683603
0.557438343562829
0.153258906161941
-0.57043618806628
0.573680759011122
-0.691633945221493
0.455368600400013
-0.908052662142778
0.496196085552077
-0.695885742971462
-0.502861676776742
0.878358731010522
-0.187309454339404
-0.8844833120503
0.513764535102379
-0.942543134080396
0.956618321296328
-0.718416003425218
-0.136280387174938
0.36355468410552
0.71545797408033
0.327929298331266
0.879079185822237
-0.592133987727663
-0.534689231383676
0.829794622190019
-0.363840896422813
-0.580526383696131
0.317133189631044
0.582962951809134
-0.114126784432233
-0.0948743023345543
-0.564077160553208
0.472504451509383
0.0991193677300713
-0.872113884684159
-0.679690370002771
0.517103141877633
0.827932151991225
-0.271937661717526
-0.728485618188702
0.0286590247134799
0.529181721565358
0.632132658133744
0.14314857844478
-0.794757039426906
0.198021245033071
-0.946849997623533
-0.917325684632465
-0.766962073950432
-0.702598220502834
-0.659296744060521
0.468774029346689
0.56043849172625
0.357518562808772
0.80938570046142
0.771524774478407
-0.171674006715299
0.966155105384076
0.712140114681984
0.65882730483554
0.0178169807932386
-0.201836261973879
0.965105478976763
0.473849014755165
0.63802771456797
0.492218203379123
0.373765593378309
0.05572758844375
0.431516972098799
0.782757990191259
-0.518731105385187
-0.499307243073178
-0.79540306004448
0.17935398451671
-0.287073350916218
0.762355746660773
-0.810597979503926
0.274759285043907
-0.631746023013294
-0.241417882813569
-0.37278176021362
-0.670801985155223
0.0805141516404936
0.366330076568397
-0.362902844122745
0.483662669035266
-0.127606418320481
-0.900003016058257
0.279856805129379
-0.62836491067838
0.54255467434482
0.639146262072055
-0.797841431521025
0.131468842795297
0.277910303031613
-0.735818441073617
0.623449537141864
-0.771717366101045
0.566873725829198
-0.226335172149753
0.897511914231351
0.0852158450793102
-0.319557637933624
-0.599245365747932
0.703298062849784
0.767058573018425
0.28406916064837
-0.557212270016473
-0.33057981312363
-0.987745606319167
0.552868700552208
0.600022200523777
0.680662402477915
0.0134529362889041
0.0467516106176613
-0.313818562536505
0.71514870704989
-0.394468201505061
-0.109673789254323
-0.729218895366859
-0.272640237633877
0.330944076210069
0.79031735570382
0.0970654279071514
-0.679133512439265
-0.0479168857457177
-0.584376382684347
0.170849632696536
0.998739568355085
-0.437806533262999
-0.776348992392672
0.951460145508034
0.612468725372775
0.50611037663458
-0.171831689892892
0.537030627873922
0.636516833084401
-0.374669732926189
0.61760481312236
-0.114266822717129
-0.748744924065462
-0.526302663055623
0.461758889853545
0.274556508762043
-0.19236606314733
0.911977486898243
0.959965135334982
0.224977698378242
1.12209538501326
-0.393255230593199
-0.451556042748741
0.0515817987968332
0.420653614131461
0.430602559055029
-0.796530008300807
-0.306211501112155
0.400094737485184
0.707923448621123
-0.778252802010519
-0.176810882018749
0.331443631383623
-0.931076055980978
-0.571234887090898
-0.871272144500132
0.823787799334879
0.58913290918689
0.961208711667463
-0.817991335232965
-0.773185485827241
0.53005627596332
0.0665988715486085
0.0972347122618598
-0.0342913170254988
0.95468673340563
0.952840809170382
-0.800623017522323
0.833176927854418
-0.50824480761338
-0.717277476684328
-0.581086266019849
0.0444182264217401
0.300942648177125
0.189488862901013
0.515996269274148
-0.892080320686226
0.259214229026127
-0.342835403385916
-0.724852314725386
0.316532082568554
-0.888520990747086
-0.857007827569699
0.976144886699181
-0.527380123140677
-0.158331883328456
0.567840767907478
-0.782286188256088
-0.90614760480764
0.373039538429931
0.492337119333596
0.244870396098289
0.953150524274543
0.737424594119299
-0.0826429663614306
-0.49463990763207
0.4606527931611
0.388988347524645
-0.945202105530433
0.458695844478541
0.498628485083928
-0.933525025390628
-0.0422386914237817
0.00480073363397285
0.508783167573555
0.862609061377391
0.832600760686465
-0.929143277365416
-0.136538966490815
-0.13843673952664
0.977090377630413
-0.46998431018579
-0.0750904899448249
0.691076021419082
-0.126706153592534
-0.862647701059892
0.419835997606617
0.144393915315877
-0.312172144352161
-0.839348073795576
-0.604423570138634
0.714176578517948
-0.953162788546124
-0.630710927216225
-0.0988761813640398
-0.0528007686902651
-0.595992940128142
0.272969024954538
-0.628462033218578
-0.295227771293066
-0.895898017053064
-0.226871164925589
0.315946144697992
0.231052583146648
-0.205076606683144
0.256476227049828
0.132109018673093
0.104252369689156
-0.582386393804535
-0.444326792192613
-0.0305407919011339
0.474559447914207
0.337533098895864
0.22271278168708
0.397178068400045
-0.0348839855401962
-0.68127760167511
-0.74934184336749
-0.150123069604007
-0.237493859143909
0.0511951245630286
-0.732050707785229
-0.352267670031988
0.840510009631767
0.0176065942860456
0.756141911571497
-0.997930473053958
-0.419465646295611
-0.89590571675766
-0.43831779397731
0.458608880601231
-0.440292731762793
0.699860178784417
-0.83959395249086
-0.240912246306783
0.204382194373072
0.269164470737508
0.691523889883808
-0.105215067754706
0.620941261227032
0.0237092471308487
-0.652606864617599
-0.236547825249817
-0.828346734283006
0.231376300526603
-0.0402177475251417
-0.584547205468254
-0.144038270973119
-0.0147448019213091
0.941713565686029
-0.366900342225372
-0.844723331834188
-0.57090764177061
0.616993507739736
0.666892696373674
0.84582601463393
-0.870358255436984
0.417466459352175
-0.786366565938689
0.0395667100153028
0.256246124954323
-0.447775784978223
-0.00153797876082193
0.851086837725651
0.0919888753092636
-0.593975513077451
0.778813971338312
0.191479105977566
-0.512881910778873
-0.778816298991521
0.726151513300494
-0.340225528655657
0.386811820727753
0.261559096594204
0.780380304955331
-0.247444791722255
0.549394162836823
-0.47854732900144
-0.348490268564858
-0.905751266531743
0.388804934948932
0.200182072614769
0.635247678555886
-0.805541161733694
0.94844619325874
0.307992894064188
-0.864201790802629
-0.91052256686425
-0.497097163604296
-0.0830429839365577
0.071103935074059
0.840785528534692
0.467664768662149
0.849557247649473
-0.634383921100439
-0.531413744313634
0.333659271666305
-0.115079946932872
0.0413762249701499
-0.208323551409592
0.156214495236445
0.21255243356278
-0.630334895977099
-0.212458490397502
-0.748594171603992
-0.991971398777659
-0.187567233750025
0.208894812258553
0.887387166986209
-0.0321380457962169
-0.663051902146651
0.646374862813776
-0.198095126592764
-0.864062321684465
0.661584282905373
-0.922152236287155
-0.0629169515000761
-0.178789453754683
0.90901452068512
0.776174887649317
-0.740452017915243
0.674030247002214
-0.321995158396797
0.557360314470298
0.12192601222565
0.837561854264367
0.131455122053111
0.487650297660077
-0.128689488850536
0.320651907113322
0.436529199208202
-0.318446774970003
0.490762303768897
0.873398853219105
-0.0231790172684522
-0.77589885863347
-0.124941436653235
-0.11335964311192
0.970805278351254
0.970212989503785
-0.451254584665949
-0.0174237214272503
-0.762952692576647
0.585426192508876
-0.379310845761721
0.45836130250877
0.0638994429896173
0.33933460828384
-0.818127102369655
-0.721269221125535
0.522711027120237
-0.498855338519951
-0.0497783197769965
0.231680946683728
-0.502399522554676
0.459130732261212
-0.459934449240266
-0.15727381115178
0.688935456931067
-0.581157962046179
-0.129402373141906
0.312177443766333
-0.644815958390888
-0.388211150875225
0.559667638366569
0.681826714743826
-0.821467202950403
-0.0497420591442899
0.224657219677437
0.526332305240089
0.262053876873399
-0.885134168923242
-0.094021308868781
0.985214449829709
0.269017128136549
0.309781813559316
0.440146684100147
0.0955943363321587
-0.0526379486455693
0.670292709104862
-0.241329303455644
0.770162613460651
0.298737352834577
-0.409452362215209
0.812972843294105
-0.0335547271758914
0.752063211672152
-0.74246853146157
0.371803621341971
0.502414361925515
0.679931962679831
-0.943869542508625
0.21186354484304
0.565429451088659
0.104952104925111
0.249268597396083
-0.320407819744304
0.725957945997324
-0.912181873845041
-0.00376605162252691
0.333708924590783
-0.836856147207141
-0.827910623387429
-0.302152636970757
0.0244062330441735
0.418128542984579
0.61888098112529
-0.0256040799678411
0.947168019038339
0.175571109121381
-0.979108063182893
0.450979632902593
0.91817503156325
-0.949338087750603
0.674798620272848
0.10315880259865
-0.978251290252128
0.743744803935784
-0.228242282392915
-0.404158505954843
0.938869948225612
0.914257181585444
0.568228295656215
0.724841732012978
0.883661631388463
0.30013325998922
-0.0465924019839209
0.380209026285812
-0.0843069286003015
-0.93366963630317
-0.318428318539453
0.747412987868931
0.00443590186075092
0.956337612983598
-0.649405432098265
-0.405268458298125
0.579814592900719
-0.40407265745116
0.580078110309787
-0.581520690828304
0.391700511020833
-0.1939661384972
-0.67032436936695
-0.793818726198872
0.48174137228835
-0.794759503882994
-0.888413342776316
0.153686603529646
0.894193059412144
1.00043431834667
0.224115256313204
-0.0680576858319341
-0.0248392112101874
0.554731321498678
0.0895617497128009
0.447139227249207
-0.381786159947685
-0.507138001457268
-0.142889870923079
0.744244974536231
-0.556132000447085
-0.778257899064426
-0.950761652947754
0.862176029407196
-0.536461318816583
-0.747102159489953
-0.548037607683782
0.997093382359543
0.752631414430338
0.108151806459747
0.53602488153014
0.417978199825555
-0.84995527724346
-0.671207299576994
0.185419865217706
0.130043356532813
0.591295706298518
0.361355445065623
-0.772735879161546
0.658593146863168
0.187816401428974
0.830049791632665
0.493277689490437
-0.0634003052247162
-0.127188374097992
0.794044658806946
-0.192029986364379
0.452031175393455
-0.162413260582254
-0.121607152806384
0.950816103817474
0.0629424174377445
0.705798327835198
0.802986459365319
0.977430359343171
0.204441824412345
-0.200025059685777
-0.511320850071566
0.748255750631201
0.220602785815883
0.736705471567259
-0.909063389173998
0.38929939311301
-0.2049055331883
-0.524156307721686
0.78957405108827
-0.257898339392658
-0.398885311297526
-0.656924923746004
0.9529084746147
0.842290237397021
0.283291182338928
-0.697744477508375
0.239484075489607
-0.408358579039606
-0.382942550838729
-0.279517309605395
0.107836529400014
-0.0268001986171293
-0.353508742937141
0.4194728685787
-0.0231530498826003
0.168372290904202
-0.0849687027665632
0.188231647294647
-0.509505122347997
0.742398978270069
-0.62766825418242
-0.636552022277163
-1.02208662432689
-0.65875838702546
0.148517106322991
0.633207909400724
-0.00591763470281946
0.875245855539127
0.0346538038178495
-0.610052584044473
-0.337418508201993
-0.561565643895299
0.118330637244477
0.097116040356195
-0.756449968332054
0.139066450336891
-0.104177482378108
0.0487151319125081
-0.324816655865728
-0.25053431680354
-0.553272293932897
0.203042046410676
0.364848599249728
-0.477352759852258
0.730799687488097
0.533555153220525
0.131646791581431
0.852121792579465
-0.196713176199085
-0.0458278022716311
-0.488210825313931
0.6619471177055
-0.949059731137395
-0.918434663713182
-0.631289231100724
-0.804078327311121
-0.698180007385601
0.552016698003165
-0.34189150040558
0.642388272724109
0.362975642924925
0.414946516143432
0.584994082368701
-0.747735290880006
-0.926421175381147
-0.31590441733044
0.859514521787353
0.53337036240508
0.171094902571773
0.858418225821855
-0.681464498252625
0.925287623492298
-0.448647115803774
0.766154791245553
0.333011692967598
0.223147744484435
0.058036980260715
0.536634986560182
-0.292150732416747
0.707048739463384
-0.42806361170916
0.159771108550679
0.0429344998223461
-0.976844339760648
0.812416519022061
-0.056947727811709
-0.641290439363659
0.0514306221091834
-0.211283921211348
-0.916440664526812
-0.151688462110729
0.352294536169244
-0.594261677112016
0.0548177908566213
0.388759603703185
0.0163563550717902
0.634145191038242
0.164715203430291
-0.488853013762869
0.102387067953797
0.69986204864703
0.612997460539187
-0.271304497052263
0.0207634516639832
-0.269963310377476
-0.297684994718048
0.230625379102248
-0.619797091620877
-0.206679957339898
0.13227426206493
0.0888290711583765
-0.289211917205953
-0.2068119255691
-0.0950450076205787
0.0506409160609318
-0.779940622679526
-0.590116929936431
0.563340249408653
-0.579930806514157
0.117813023400193
-0.666596158553043
-0.166867669585327
-0.243523288054259
0.0792145125692535
0.0390160203145396
0.0213485136163026
0.579789232082932
0.543193465700935
-0.602276085421299
-0.668758428295548
0.655861668106988
0.997087819281176
0.13693549434829
0.717213822525645
-0.894044062038504
0.0288624406677588
-0.530564953861921
-0.986302125153892
0.260512937805993
0.0730804035959745
0.673053029811387
0.942540375717088
-0.768143128468156
0.657993370308808
0.00788336213480126
-0.884181517015889
-0.481433717211308
0.463147823453101
0.99564295453502
0.201324250918663
-0.365616844520875
-0.935066221384936
-0.249809718266473
0.427836643925524
-0.188246588799022
-0.098976050597309
-0.126268708225351
0.674463044276344
-0.949445856019109
0.803264280999563
0.227279775309703
0.795081146983449
-0.915232876354377
-0.463128116029125
0.507590975255292
0.078162209155106
0.545160715508181
0.0536082090666503
-0.218851308920079
-1.00001332664655
0.717601570898135
-0.614814415920155
-0.697297274139407
0.325812658679184
0.403257062468952
-0.649274540584621
-0.398110140258192
0.142912322988841
-0.904971975689941
-0.106376073527851
-0.517285956083158
-0.869991464370167
0.580276671846829
0.21933548706898
0.719283361356265
0.634446539353073
0.31615938566169
0.795678207920175
0.0145077175039965
0.319741350680345
-0.757675783875194
-0.154353537402223
0.96349973866899
0.422894080286434
0.812845827656915
0.873788091708983
0.874396764427708
0.687576003574562
-0.895059356704512
0.900728283777187
-0.444760229347428
0.443129282262429
-0.354395383417289
0.961465490548563
0.488014849171145
-0.709887304180071
0.7592858375365
0.381405817801876
1.00333549513067
-0.521646167337757
-0.661819906840129
0.762749908594465
0.61440112461913
0.214643041923447
0.393367886114308
0.193011334385884
-0.67148680446118
-0.0600041798805074
-0.13457150669035
0.902309901121903
0.76191714940377
0.726551399249301
-0.972631826623296
0.48816330943361
0.787577417768666
-0.132026965862327
-0.633653612340863
-0.160688372640378
0.482541981464696
0.502123886081128
-0.546636024231988
-0.102843426841333
0.0469005844371223
-0.775858929710213
-0.676709319032487
0.00217874021145926
0.480835221701373
0.655243944815613
0.801488263259816
0.485891179966566
0.922345234818116
0.994358697984097
0.864546363311799
-0.369644942982086
0.0625601314536921
-0.486260193002272
0.258818849316696
-0.219330763873805
-0.955978444982205
-0.375508937412187
0.564161857078287
-0.0338777709876821
-0.159097082552768
-0.812052120010691
-0.914653845024774
-0.211417593239147
0.370398324880115
0.124043563893988
-0.834399233777228
-0.385103498879344
0.932861035019728
-0.0537327990779043
0.882671566352908
-0.505819119647442
-0.94500310255459
0.514954612090674
-0.175910443519742
0.475409524046863
-0.0584339534200457
-0.569174823737641
0.754573443097846
-0.267367791239505
0.185187864530627
0.396060845912096
-0.990374605261495
0.806538667071274
0.899223351613328
0.431212339993831
-0.544457968625019
0.287698148369354
0.606568110161457
0.559176717652706
-0.251463026923183
-0.176774381624457
0.88068431805049
0.442152403263556
1.03687235247121
-0.150416587519874
-0.856322278998583
0.549013085475284
0.627788106333982
-0.620171224237211
0.542161461668575
0.287446387799297
0.67280203084018
0.0595379923867855
-0.866626592050179
0.374671200229271
-0.412724172794919
0.585387358406514
0.726866471221624
0.803864505977503
0.873166483248098
0.656100476382898
-0.084805245040727
-0.131336225498834
0.804306058344159
0.444096526352317
-0.838442417959888
-0.752570522521917
-0.155524782511049
0.91023528271375
-0.395944760662595
-0.181874890654059
-0.0466951702926678
-0.666684363443455
-0.813271579803166
0.077785439883416
-0.387630425502691
-0.360350636341799
0.531743334801359
-0.931747891036549
0.432590970840594
0.432068289972316
-0.210840161249629
0.355434027234054
0.19400167667131
0.931093058641727
0.755122244697473
-0.0232028052980932
0.709247260576391
-0.445968523445545
-0.131545878052641
-0.107521922873533
0.569939034871409
0.794606296211593
0.663571839441911
0.0590360507576593
0.873748028067402
-0.0100230789217061
0.56744486184505
-0.480023508320643
-0.393195561114461
0.832860073257685
-0.311340364379298
0.738209729805233
0.77290201367359
-0.238125771605999
-0.624817968316023
0.388176335068928
-0.0785085146946888
0.0636964926598025
-0.26446155379827
0.924258801695921
-0.944952558926468
0.685387996992983
-0.599057779021433
-0.541928108503058
-0.114502380136214
0.559086538873654
0.677558106466735
0.878073891804851
0.688350424314357
0.178944625376727
-0.473570115381926
-0.731128672257044
0.0106136978667651
0.689250748215556
0.173737470554007
0.082557637911521
-0.404014802513137
0.0673439462598644
0.189475440842857
0.646858471949252
0.0869602060807702
0.0696030489666461
0.505536980289702
0.619589756526516
-0.239575527063658
0.0502950329398282
0.575524934433984
-0.575681477788585
0.549825686847048
-0.636436442801164
-0.944253093044148
-0.344340075195425
0.832291019678245
-0.0530301579097953
-0.155052945968281
0.897447539520907
0.396539372504503
0.195787355966539
-0.837917393051674
-0.70399192555278
0.282491828027689
0.665785408641121
-0.228167405004598
0.372087385147183
0.258191487857729
-0.611441483436369
-0.278169759443556
-0.894724400324105
0.601289551828842
0.343005130571781
-0.146850163283203
0.872439572472716
0.877813127710656
0.0938727819911512
-0.153117604348302
-0.0128044714221945
-0.828223440135596
-0.239075463355781
0.693894614455332
0.844412633750224
-0.998793605395503
0.264969136215272
-0.659234249445
0.328325994111565
0.105172027906248
0.852636321122596
-0.576909725899977
-0.948586815458681
-0.178513171589353
0.266007806053677
0.657629261113041
0.366201285766089
-0.114587609491207
-0.117186584563884
-0.642704052456381
0.418509123271608
-0.710041953575985
-0.843810525074508
-0.581787338970125
-0.593709067379529
-0.659605839517199
0.474058396213559
-0.170000050833021
-0.789490016075702
0.513133419628334
-0.831447546622235
-0.241435526991501
-0.274955470752195
-0.904199408507973
0.85676324646145
0.719765961728323
-0.382099581991294
0.47349394317842
-0.709990318980175
-0.725384940400875
-0.99554598439516
0.312679718063625
0.440152726020539
-0.744919409735911
0.387442640784763
0.946738164647539
-0.347490057012597
0.26343640420798
-0.681347591311905
0.664816296613449
0.480108971215123
0.0211628883192729
0.0354390818120906
-0.235846377395355
0.443567425689513
-0.284160830651265
-0.961034126785094
-0.627568373790125
0.305682749982719
0.51723812045586
-0.462898989773391
-0.559871607109636
-0.873491728781695
0.805229417677181
-0.0817325925245407
0.0644636511768183
0.663071810624485
0.929136598506527
-0.0496803781762034
0.539397842475191
0.0376171495152431
0.84640500139122
-0.414157819612853
-0.406737643313998
-0.662789556343347
-0.905153722158718
-0.160898658166205
0.886128779039631
0.0166241900682031
-0.535673264259776
0.69940051404058
-0.777574576209682
-0.477531210559233
-0.437478446347703
-0.954009244911371
0.165967648436098
0.74848149911245
0.990263377863426
-0.323253996083476
0.156760293998222
0.689278529820636
-0.752996086932867
-0.830253699532487
-0.229119479665018
0.734024282550846
0.563110127652339
0.186998960775841
0.634846145209931
0.336835139278209
-0.677206929106255
-0.716327917706209
-0.270125498672011
-0.67589044230876
-0.211357662807871
-0.385806795153355
0.555860249129286
-0.601484404593434
-0.603484019035883
-0.631386520053925
0.280323867971762
0.821723473755114
-0.904172139105808
0.287137807699857
-0.244391486088591
0.721119135242373
-0.800727312846454
0.819056256782837
0.491554108137699
0.687665810853647
0.709254605363503
0.318653065140761
0.643404379151074
0.16556438944415
0.701952689584134
0.785964768225975
-0.252131171185235
0.70189967847798
0.816311125580432
-0.139764199089838
-0.22192128024332
-0.0842742803168914
0.205413232627999
-0.477729092804289
-0.364389210436409
-0.889379087647778
-0.103663320231055
0.827830781710261
0.67832463773149
0.908898690462817
-0.538675235986474
-0.247468129407459
0.298638160526365
0.506658909437452
0.254612602132315
0.251961198225995
0.557044904709429
-0.0537484735852111
0.419472217993624
0.0718091272882785
0.464214096289703
0.607148464875322
0.568203180215289
0.857330718406649
0.576352336517426
0.0025088745740584
-0.389846241456639
0.467933306136778
-0.488980326322358
-0.0812490390321247
0.821644115936473
0.834176471375963
-0.4458578558681
0.496883298121245
0.5568331346014
-0.646848272636247
-0.388008962928811
0.607514078444297
-0.26332621623846
-0.254801339981441
-0.137220610061631
-0.586224367276112
-0.795916431845001
0.671798767421289
0.405227756970971
0.20265523770031
-0.767282852587071
-0.70892669464665
1.01049022802072
-0.45668127731945
-0.642928107047739
0.965740724967926
-0.534652791858014
-0.0738755845328253
0.443031145173897
0.129252402655987
0.267802793163086
0.298895249362149
-0.0708730435964908
0.639828508169132
0.526142375131347
0.444538021899944
0.311885171430566
-0.241554169053623
-0.930807672830713
-0.379551297115885
-0.788532767532767
0.772982584584497
0.904029659106073
-0.0698085494470666
-0.30400824280021
1.01618903126323
-0.600484517796908
-0.0813934955362051
-0.644828934084361
0.161858331502803
0.536218112240326
1.05780575875437
-0.310028100372934
-0.292975414545261
0.143217909568769
-0.408333137377268
0.537631529742726
-0.998378597958709
-0.416913416182133
0.914151684831932
0.469367327499632
0.761587498176454
-0.830867812812539
-0.470637971917927
0.128293896050035
0.359832910143429
-0.298149014524352
0.0629362376482582
0.159212591268864
0.320890666352569
-0.0251252179592839
0.422126128124809
0.650125761916753
-0.147228291489553
0.10547773410079
-0.484801566577147
-0.629326832435031
0.155744072609214
1.00159108834301
-0.490795868434629
0.841113426992267
0.916568257718955
-0.0655134050440246
-0.46515863026168
0.660284321574598
0.294681949809518
-0.25371386459435
-0.575209086378822
-0.261269119986171
0.148927915507585
1.06439901230245
0.452741136861301
-0.776403938591925
-0.798061520328234
0.206644547909541
-0.546566854865238
0.583250069027796
0.302945050612862
0.663806895203248
0.317629178365303
0.412161311736519
0.403596354523037
0.753239545375692
-0.0555228221732419
1.10987343799725
-0.797886564544739
-0.407456095384112
1.04430592483952
0.886177435193935
-0.0879703756566559
-0.536088351150143
-0.413627732054223
-0.907763383850831
-0.781899748023839
-0.738366589938892
0.793349433748137
0.0798066135319857
0.82564744177939
-0.0156396996832459
0.922869718488388
-0.40244618254338
-0.734954207363545
-0.657250443232674
-0.965748280653941
0.27384318163575
0.468788008736338
0.0555914079220439
0.423837191746873
0.734405012828292
-0.29442558524695
-0.139051342816111
-0.0958821851804667
0.36700246560718
-0.236162554001766
0.316282203261743
-0.288990522584657
-0.566369160867645
1.17613778896646
-0.452766504256628
0.589372974815757
-0.165819278087095
-0.0919089697332402
-0.255390138695607
1.02737518831051
-0.131493853688187
0.601534100566208
0.413304046647443
1.0540106758905
0.940605907039284
0.375758774048599
0.342413978255856
0.809273343968387
-0.59491971717233
0.704399726425708
-0.399751760028195
0.124358919274943
0.094067812182775
0.691654867151872
0.501965134205474
-0.609756354648278
-0.0161410908956163
0.254008362899019
-0.474554174851835
0.4119752602824
-0.738370779633437
0.618066771152006
0.222661079958376
0.432133008743088
0.118041035794014
0.843406215721232
0.618355857950503
0.104545168096509
0.413675464869399
0.441221920273389
0.12946648852397
0.766385570827145
0.575658335717554
-0.662020726648781
0.198443426574756
0.796882158736545
-0.779290387157595
0.027526531361074
0.398563098152024
-0.660973335061203
0.29974494090739
-0.13265020997081
-0.750131144402585
0.377231738695298
0.985319175784841
-0.761096307095962
0.744900611892656
-0.157658693531025
-0.261002198548654
-0.867439985806651
-0.390135335107993
0.707914653990956
-0.325861156755065
0.644882059223643
1.02196099385259
0.425171717939816
-0.525884778988068
1.01218393915032
0.00176661360124582
-0.817323775168335
0.871222218971317
-0.627665250057772
-0.461132723242811
0.159328129800765
-0.200190471178259
-0.0921155730310516
0.532219941549494
-0.249886613561167
-0.624010453389331
0.4517366018912
-1.08802848371568
0.709867231683274
0.672710079255665
1.16590912824193
1.16112417734796
0.361930018478907
0.29303774886848
0.768074589634173
0.476108687675056
0.0431796037490789
-0.611582408848466
-0.00337826800870506
-0.471390797791399
0.396463308992196
-0.0873659410646172
0.456445251179729
0.151267897239562
0.98471709743105
-0.551340810148536
0.969235433291169
0.553314106498598
-0.521835237108537
-0.715270610354527
0.377420416368397
-0.456309314475606
-0.047676244834972
-0.750715533324504
-0.0314842413524817
-0.484346645642834
0.017042490842065
-0.365341993301392
0.0149198392136441
-0.484677700721853
0.199004150351137
-0.9328946424897
-0.200838479023522
-0.888620984801597
-0.318077625372538
0.728196303837024
-0.217786467072631
-0.812091693395448
-0.256151792615833
-0.422989900624994
0.962245476604297
0.810834620585491
-0.079515130562448
1.02546175343572
0.408802188951003
-0.476066136902035
0.582098154873939
0.969215934174615
0.726639883508315
-0.581733885246682
-0.511870860188087
0.986250581501031
0.582065214759347
0.581825563896493
-0.606453603497864
0.691019291116785
0.300815330324062
0.173562862521811
-0.736154110428725
0.177144626510299
-0.517468876834775
-0.417177687221203
0.571904906548623
-0.29088573125152
0.403294648117999
0.317223418397339
1.09147661146121
0.35493127737462
-0.534677718570839
-0.728378194182214
0.737795978545466
1.01392969477161
0.11311547200552
-0.857939465138661
-0.526324558987694
0.679999986692223
0.727766589286827
0.0195086633688764
-0.0269137668739895
-0.313012431137222
0.156019549381058
0.142035655282674
-0.028432179417088
-0.311814980267331
1.1156059025443
0.288644593059104
-0.460739834414037
0.299307004511153
0.87007230081695
0.213223228853318
-0.372868581490499
0.831641646899546
0.980425958177733
0.523091886181988
1.05738513234969
0.376516307983729
-0.764668245050668
-0.78319783529882
-0.345637106377057
-0.705577133691225
-0.332981243281347
-0.634426909624232
0.580409709770269
0.466862768049974
-0.300506057319678
-0.509344434222671
-0.0300043424962374
0.590169222953583
0.123893153963788
-0.406304087815692
0.89756483475041
-0.733065991924645
-0.79249933811787
0.672296187383426
-0.82403583655809
0.495797161769128
0.783742227658496
0.0780350381012387
-0.242725109344633
-0.691870067265825
-0.186480153488641
-0.280137420782665
0.415982672804875
0.213860128632299
0.602931694160153
0.860130334251169
0.977283766879259
0.645221281337996
-0.836742233130781
0.137132767515395
0.485375173859807
0.509832965532123
-0.689190240229872
-0.357626148004566
-1.00008962437696
-0.31408851792186
0.363413931996479
0.27050796684833
0.851882516462562
0.504258033432584
-0.769250265924252
-0.015686038598905
-0.689053492761524
0.414221266522648
0.446379313782022
-0.513103231178941
0.727974175183722
-0.54987554761224
0.334686536330948
-0.515727256180555
0.519254694527608
0.103821714045848
0.396790392907598
-0.719202677712537
0.348453960598454
0.87215937788989
-0.0536854186611776
-0.612942670055365
-1.06752642161936
-0.196003648216155
-0.577842290573635
0.244165156638269
0.301140056659476
0.784971558881187
-0.0811028233476792
-0.782604094387306
0.820583713486745
0.420664506976325
0.554604655182425
0.479010774957749
-0.782761463671669
-0.357454607001513
0.333737995886677
0.331226317255103
-0.868743187871117
0.903610877325252
-0.64723452139608
0.92429359680136
0.708328229775703
0.0765856014186221
1.07293999861396
0.475760165590952
-0.796692439562302
0.632407878491681
0.650866079080307
-0.549025652254376
-0.796809284676082
-0.992857401587293
0.196833511504009
-1.00366288500071
0.521611908217853
-0.243534787635477
0.174147031318249
-0.126495434623934
-0.100923266701083
-0.193277228264788
0.546200536948275
-0.480107650289116
-0.384795148892945
0.40293578156822
-0.199573463572469
-0.600532590006407
-0.070336014492947
0.877875416959976
-0.830479595089104
-0.21759860932448
0.723603897514426
1.03645851069405
-0.868103390809748
0.437705974016615
0.4700353803327
0.0560821095548737
-0.203207138695758
-0.0196345815038297
-0.179596774542435
-0.0737138990957567
-0.0603926281483416
0.470698241103212
0.804518134968792
-0.843769588954953
0.751247618749583
0.514268168158878
0.928611654015474
0.337626985153223
0.820455372643695
0.487790131297001
0.626432221548063
-0.351749328032359
-0.437484540749171
0.360937706715454
-0.685561032615694
0.79504700461969
0.181479039421354
-0.804666656215036
-0.790963251892817
0.668151344741319
-0.411134680694646
-0.649475590687091
0.454727046404067
-0.0478830454289945
-0.128750730750079
-0.720035151371615
-1.04902184770325
0.736939055911753
-0.634184958075577
-0.831580775977608
0.565789162226679
0.785231132724113
0.654847770847529
0.57360828018655
0.578006671860925
-1.08957507315959
-0.39847549010321
-0.52815727222856
0.762356470013005
0.400005025652258
-0.487353302782567
0.533830537919365
0.943372750312733
-0.396738390274796
0.0350408593062757
-0.030083470377454
0.424056435924902
-0.214569498018849
0.190717315942598
0.744322220552172
-1.0319610067865
-0.244028611045572
-0.0628019260746226
0.313959178946381
-0.493008143041358
-0.428201335823607
0.829998441044327
-0.412446934967194
-0.0331698656444021
0.132270352254982
0.1871395803971
0.874333648613951
-0.189668326292555
0.587727093372348
0.866664986845102
0.817871761185158
0.0291561496647625
0.0232584084514302
0.743141445437802
-0.700647304648626
0.0519020236636234
-0.375650665825847
-0.652094994859075
-0.272142245821151
0.155666982332774
0.0615826030901522
-0.518087727966372
0.0103550859499114
-0.8666460292613
-0.875287011992606
0.103056342661668
0.466565253346025
-0.178480925867529
-0.333489913204115
-0.855803304533516
-0.241753589292442
-0.225487651581934
-0.795785960249163
-0.133887010395028
-0.152412255172579
-0.935248722111634
-0.924670209376259
0.535589921282066
-0.343160963167155
-0.750280269583435
-0.366848814187194
-0.320189833309524
-0.724653512432358
-0.350166570256207
0.174309774059101
0.903210173497935
-0.632414537689847
0.0197640167370007
-0.138955297457628
-0.28384072636633
0.464772161920555
-0.402652537174781
-0.586341520887437
-0.520552090477813
0.807924208590288
-0.592834863741537
-0.028875098873039
-0.437533962292566
-0.0455730227699344
-0.912168782544542
0.703622106212634
0.0311765644538008
-0.869440911813598
0.544060779416204
0.281276271226469
0.181238466200878
-0.0689117051276799
-0.805013386542151
-0.118947531722755
-0.791614089566504
-0.0562553651147674
0.07207043278425
0.719149186699805
-0.471151025490159
-0.509068136544393
-0.670894895054155
-0.845222782171393
-0.717039789914614
-0.0950680309357778
-0.759144598113841
-0.194077471352685
-0.329543765755829
-0.773733405713909
1.10967505471939
-0.274895100853696
-0.764277585716296
-0.542339696923261
0.798647902350776
0.130386615792731
-0.471864511011188
0.191805514045552
0.697669590448544
-0.204628869794655
-0.314853135737392
-0.415165722232111
0.595798775929735
-0.507089359683836
-0.312581069669956
0.365739117339368
-0.957660007893723
0.0515092923605217
-0.739543343784494
-0.876847405619577
-0.387881810409418
0.721470655034244
-0.734983322254753
-0.335219689523678
0.693069449492932
0.810223185906294
0.458218500684312
-0.694616419084838
-0.361900071439393
0.498182114540027
-0.395898444173378
0.267345871540084
0.101664447985005
-0.039609632539815
-0.801821503147742
-0.00872845069832631
0.239376232924644
-0.131694890446487
0.161736637498515
0.0320857525403265
-0.731288700222314
-0.0858812590381792
0.174964120594311
-0.720651568515701
0.102063438728755
-0.980553637993766
-0.0215965135696526
0.842298776564984
0.456721134833507
-0.105708170865866
-0.26877743260876
