0.00580539587108501
0.51792244870677
-0.00985016239159386
0.575124676560352
0.847826132186672
-0.261998257675057
-0.224987822885442
0.119305980843942
0.95741806691445
0.82180724196834
-0.736650458216122
0.77600782476328
-0.694697037067183
0.175943297172376
0.0217872634792388
-0.462947526531092
-0.471677709142572
-0.3645838960147
-0.254609215133203
-0.607106572766895
-0.930480209345548
-0.298127593137197
0.279630599553712
-0.291882134423283
-0.52473701768461
0.743123786301698
0.671592011331339
0.840384409308512
-0.669890298987018
0.502394677592292
0.78777760959629
0.916386822668064
0.929216195616924
-0.0380186672148463
-0.757683710169679
-0.834837293534965
0.55463761010707
-0.728259315510444
0.146423978038708
-0.0287480085688064
-0.659743288531331
-0.268685556819068
1.03192359716226
-0.787998991788998
-0.157576062119882
0.00530146533913688
-0.0358027445473462
0.985899064865862
0.940421445564087
0.419262961425468
0.897731430659901
0.792228959984857
-0.627018945497149
-0.19880502210942
0.751152832380107
-0.746352108441356
-0.760839597512646
-0.717057391156675
0.0841800693309377
-0.936898010384214
-0.0058210852583853
-0.142573994170099
-0.240889326565387
-0.544888427843214
-0.949894179508133
-0.65177788497295
0.77627101783002
0.221443407659222
-0.188404234775254
-0.183631084246922
0.045563387308843
-0.636107303029487
0.568147571897572
0.847873711347248
-0.885960009291076
0.440190670079064
-0.133465471290535
0.291122336600383
0.985837344324078
0.587130565085287
-0.102083181423443
0.724992563785944
0.947256831580361
-0.0383117032462708
0.633073081921823
-0.98142395076042
0.539506740674052
0.0979110144682189
0.168505764031419
-1.05692768747809
0.908813695381187
0.272503991834008
0.180951611829149
0.0189332423937028
0.860065486344996
0.357117394129753
0.895434355584461
0.537707469939832
-0.791960032035382
-0.422934884839321
0.217066959392458
0.636138426556891
0.123324091596983
0.220313569251015
-0.422017334823499
0.757766606031901
-0.637693382276467
-0.347359828271884
-0.196624147336182
-0.613311587102328
0.498758967713261
0.0627419700421177
-0.646723882088988
0.552352299051092
0.16694783457311
0.234907230565013
-0.110807623971035
0.769146594212432
-0.206365183541199
-1.00756281291817
-0.283497874650643
-0.414411016723664
-1.00728599952406
-0.154460128628239
-0.0751602830922929
0.771662786630267
0.193900908427323
-0.438220635683976
0.913136802734444
-0.353679004642822
0.455564880821109
0.328462262569332
0.181708659322355
0.590992064777187
-0.466229605855911
0.403903934753343
-0.219742478651606
-0.0846592344394721
-0.460062796343276
-0.997156620530071
0.725270597554543
-0.0372305499733569
-0.691982755219292
-0.215462037032117
-0.548634422896221
-0.164728905429425
-0.127318914430791
0.506814426794528
0.695867250116652
-0.457950934323167
-0.550052449378578
-0.869920523741898
-0.263649388197778
-0.92761229304863
0.624628726762664
-0.597012634501466
0.482887690136069
-0.823505326880365
-0.757922104556871
-0.175011255207629
-0.369895049807842
0.912492053648397
-0.133637060473844
-0.66954055015793
0.153896899821083
-0.593257068938069
-0.967180809515287
-0.135917377454916
0.120559782512967
0.890799990095435
-0.484029971850132
-0.987785663817675
0.222745156362052
-0.227128288990547
-0.75546206511146
0.678375478556646
-0.82018481679567
0.139566173124225
-0.67282521307876
-1.0587386451849
-0.353714337564799
0.308171812714891
-0.611587803937525
0.00379781790556371
-1.04181789306864
0.168946784390451
-0.491089393888556
0.0970089023210395
0.875868283807294
1.01312665654728
0.831323404443657
-0.340055363663986
-0.166430157396776
0.931179284079431
0.566462469125798
0.899869665527462
-0.836589458231162
-0.892523023123859
0.706410086791344
-0.94218468092742
-0.231949488629934
-1.01146455875744
-0.532528004738264
0.884754669579576
-0.979889723806841
-0.618241813109105
-0.176572290593782
0.817910691534263
0.678260381796509
0.749112304449957
-0.996562566852212
-0.809785292766064
0.634934114946953
-0.929875189842593
0.990416229903811
0.206345189715598
0.410438855223862
0.753182787705318
-0.714384754822248
0.955220691956545
0.963656806397064
0.127862247042829
0.229211343431819
0.245819552279138
-0.902614067967431
0.956815866831987
0.246647933464887
0.321527665222985
0.205214652538598
-0.679441392221832
0.536531604658649
-0.875935613181974
0.365178362762717
-0.836333095962779
0.140530982074839
-0.303250952187633
-0.0382766788935396
-0.385223963916265
-0.0108315768782279
0.409077804711139
-0.909640191005373
-0.491951597427045
0.274543061931145
1.08929932584982
0.98443993561252
0.641895777089768
-0.0230807887345119
-0.247913724931664
1.0149996967574
-0.438227307094761
-0.203670885088613
-0.346648706090714
0.930382269735461
0.887287098481933
-0.798495528606202
0.750869667861296
-0.118500723673027
0.255861124636773
0.765765265682594
-0.965139952297172
-0.0133768664708848
0.342742358878917
-0.404598319681007
0.466023560203063
-0.637231385552519
-1.01894201806248
-0.266375719656968
0.167096858622841
-0.383301384796278
0.153382496959619
-0.811599866666569
-0.293531386857809
-0.363326989310149
-0.337615103541987
0.64284452202924
0.402219427595949
0.920041532232398
0.327916248460008
0.538867605090402
-0.27682317629725
0.124901291479933
-0.333998254150677
0.463886035536864
-0.157578922728392
0.748844348599983
0.0315418036168972
-0.808574718100378
0.438479377818913
0.886017127531823
0.277201911018951
0.782973358063436
0.741844550628937
-0.0733779528967737
-0.00889462941990793
-0.608945587760042
-0.468010578783423
0.667139787373788
0.743957666097809
0.694016579920712
0.8741370737137
-0.345598005280968
0.424285040252886
0.798328542329199
-0.233189410621352
-0.578165264728468
-0.813976055432908
-0.788865396426479
0.476828604402879
-0.640883905833484
-0.0443868935117539
-0.976818022259977
0.759932571530993
0.912245617462676
0.151548271866918
-0.0915583788011857
-0.656026628627521
0.875502541025301
0.679613059709815
0.65075166671842
0.252946583173031
0.775147008371328
0.323163257125315
0.326712423530057
0.316118898263249
0.33351852844393
-0.551254783051798
0.777416316693329
0.548013557228066
1.01532808063079
-0.262545080461509
0.398709401431565
1.02758270039337
0.608488203709817
0.723985086504587
-0.749531356516937
0.862310783155727
-0.0478945714910235
-0.151559996548746
-0.41205208728028
0.683377994361908
-0.0689489626221408
-0.238763422969028
0.0915739830778196
-0.066435646347412
0.228318861146288
0.94599975109847
0.712537489431516
0.671334238676463
-0.918480449841599
-0.853844908190028
-0.197308831205118
-0.816258026240006
-0.745616488305219
-0.472173271273659
-0.904825495805714
0.229147916508112
0.841059982229384
-0.772377892617266
0.244713317046565
0.872133000268293
-0.615751430127661
-0.270521195125222
0.606628544019426
0.759488451085185
0.635325597899036
-0.858082768822886
-0.703052362708788
-0.723489793850878
-0.043475986324575
0.0746053864796084
0.387657040512821
0.0191388595149591
0.0234894743695026
0.834520350875126
-0.788615555644996
-0.0315359411071188
-0.69309969969025
-0.389038849130493
-0.648310660605702
0.673815705865482
-0.0699142269378554
-0.773905494852342
0.517612255226442
0.856382626264803
0.765818034522257
0.139973443352398
0.772056184098138
0.118716033662341
0.680052818026632
0.109255356643784
-0.81987558814759
-0.107009445171864
0.697980474394975
-0.130201900453671
0.438150595274392
-0.728489221854554
0.202344944899007
0.384681047457376
0.337727622572026
0.117207647184316
0.605201440453358
0.340718683554401
-0.37773151969194
-0.0550254139557171
-0.223654632402537
0.950593572550596
0.422055376765618
-0.354042838138389
-0.557076948560486
0.240517235999197
0.0445141391171162
0.306604153125922
0.843718569964656
0.660205800726729
0.0627629334920779
-0.698457083438812
0.324767205728976
0.86692805991919
-0.865500670214894
-0.331553210185762
-0.51167028850559
0.324706825472259
-0.295223491505143
-1.05167219702365
-0.0135124425682269
-0.391730249780593
0.451704136959787
-0.76009212381345
-0.569805126040617
0.881611482057722
0.633296206941653
-0.199077098299434
0.296602204134318
0.417714899196739
-0.748285665566074
0.718317018831424
0.6409556765597
-0.374581731128314
0.166354368665093
0.871934664044212
0.788578608215119
0.288984757165292
-0.197177891232895
-0.429359078809849
-0.807476603105685
0.0219984979146133
0.17525908851723
-0.808201413223745
0.931990405817246
0.272618386053728
0.0498088852289017
0.454407277556658
0.340532948657486
-0.209512834116006
-0.259100574012314
-0.666028997688701
-0.369594189918411
-0.418024283122755
0.823773743912475
-0.9221453814517
-0.35542150673486
0.36479146495281
-0.632228981355235
-0.370208974672875
0.55596643572984
-0.820779664532812
1.0126949304981
-0.536892987978302
0.452216279107744
0.40526106416465
-0.336064502398693
-0.254032780534938
-0.19696776570472
-0.603773658978036
-0.000353106478675594
0.313446451425164
-0.412462877253573
-0.763451693979594
0.840639753741527
-0.951625489850333
0.471548170180447
0.313792241486765
-0.655068708612836
0.182220017568852
-0.191287751240127
-0.888363226267684
0.324733106047162
-0.632767016011685
-0.291837224141886
0.973227744285787
0.147723153623782
0.0500956677904456
-0.342450120623626
-0.127046226486325
0.123014749199771
-0.641943675096783
-0.0931893382110604
-0.816569521605902
0.00628460836314708
-1.0090201616737
0.0406110135713841
-0.223961642994017
-0.231322172399482
-0.486883838135044
-0.443976581636453
-0.684024392901212
-0.284176786663317
0.00105870010699616
0.778426513374852
0.419102269305039
0.802683495549427
-0.516595116606015
-0.179109740350172
0.801735291833666
-0.44218648814789
0.231472808517115
-0.0168465353759566
0.117270035035733
0.765010148197893
0.352385274005756
-0.389776428132391
0.355183134978584
0.570210199236675
0.329380666572058
-0.795988812284498
0.651860099984165
-0.900051195213401
0.84880375533298
0.205015675800084
-0.384955208934177
-0.651689164020879
-0.700380609013726
0.119949681084482
0.774859846534327
0.0519767915267167
-0.254586614243245
-0.52350799405743
0.776494887237859
-0.324957040357102
-0.394079917458829
0.569734422986202
-0.484108704622017
-0.270677714180552
0.391650204161616
-0.697083312600146
-0.286623603694881
-0.770660583274728
-0.200506346743003
-0.7967705591846
0.781133363524186
0.322464827248932
0.690432178759517
-0.633717184621991
0.672932330382126
0.344054956218062
0.560689622210874
0.0879121654594295
0.381222305717885
-0.767965326137484
-0.222116077383253
-0.912935718040284
-0.256222153603678
0.800911842618739
0.207476727369293
0.0244445242424779
0.44454759330464
0.307410784844679
0.0485304154097079
-0.0202356078264858
-0.874847476347987
0.0146357112654066
0.370203480298568
-0.355593357176284
0.291060225627086
0.844808722543738
-0.860267660104881
-0.282867977692563
-0.613454263930022
0.244002799469077
0.58406699688433
0.493048523795499
0.379302394249054
0.676155345644895
0.377622822348954
0.202615854492232
-0.433201609668696
0.838270378574889
0.311650859971778
-0.724552707182541
0.3192431379358
0.615559761472997
0.164423862350985
0.564993946125254
0.798599623562601
-0.670913087621138
-0.26775020958524
-0.138912798814996
0.777700344260998
-0.472329446229064
-0.0694339024332429
0.480505564751226
0.177119351587622
0.83632752285164
-0.840720353630386
-0.0610847644991423
-0.757765205817119
0.355552276179869
0.290680399754264
-1.01009673740083
0.366631593189145
0.0134601668409103
-0.181305091898628
-0.838946879711194
-0.392460489865903
0.211847338156693
-0.382931913900812
-0.057605478658224
-0.749004304856793
0.954910390779693
-0.446197297723473
0.674963231419282
0.900345954142916
-0.385943119396044
0.569811388684394
-0.429065523593298
1.01355181682666
0.885048996332366
-0.14724055520834
-0.0954805042512981
0.014481974858169
0.247749383954987
-0.0408181813304618
0.899093149761146
-0.591996630896198
-0.737926425979216
-0.5194570542815
0.670638592452821
0.681139087707028
-0.334436914088264
0.15243359207855
0.324043411377782
-0.425797382504924
0.283788493226846
-0.134085418198324
-0.748832978426861
-0.32170705897435
-0.0240860333406885
0.0611808612358327
-0.29013403916094
0.711269611950213
0.709598723500204
-0.412724616389605
0.920036084235914
-0.828372615160782
0.471775308500298
0.654537903725117
-0.44259082896118
-0.722496005017965
0.619447409089549
-0.0400331304414986
-0.651341604045774
-0.473010286813797
-0.566163678107012
0.101031856721052
-0.748821362507795
-0.791544322128535
0.127251607549981
0.920657901792925
-0.559264787989141
-0.247773206864543
-0.0823913090632982
0.244676172106583
0.561776309876583
-0.275502021817506
0.181730702296854
0.121822323557179
-0.282030450407325
0.838759894948506
0.331450870076973
0.936932631472054
0.197180675171924
0.0792745995698978
-0.61567651959295
0.30180570985441
0.372792282925362
-0.279871825735875
0.0785475619553692
0.734379994145036
-0.0252804899515011
-0.342474153119855
0.984773328293866
0.533756290160458
-0.780080622165912
0.895144194798355
0.0183396005972828
-0.0115503565517151
-0.752787306023613
-0.763663247999441
-0.387948873854198
-0.956106378788432
0.534874452317002
-0.00788011461865118
-0.404284393136601
0.986882522172245
-0.0499804040577252
-0.33518441633313
0.165295577701331
0.32079790279197
0.178077281863727
-0.466198381354185
0.06853624064922
-0.210412484517414
-0.0176832908949267
0.685332854862252
0.734508496068191
0.226750035895937
-0.878336147983646
0.134922811112799
0.789079031819269
0.672383419983871
0.269779648719839
0.556243603996044
0.154259841619201
0.936414698546105
-0.153110430031645
0.413683749811774
0.0408617109421718
0.673058234642549
0.70166497316326
-0.800798092330047
-0.0644260903179276
-0.410866827893227
0.336900496858854
0.406841425864589
-0.505566035254988
-0.730654787347794
-0.467360646677065
-0.573629899490552
-0.608266421994247
-0.278298090728996
0.57527968444142
0.779376147303259
-0.417002672611652
-0.565276542767135
0.573304719804696
0.174935883053463
-0.427839304993548
-0.431234945352312
-0.793151396488644
0.857402369441739
-0.0881900701530115
0.115054992128545
-0.575729496887364
-0.0721561314267873
-0.216212262310569
-0.990635609172554
0.868486965533565
-0.301367322935469
0.213675989946025
0.568381439293425
0.575998080538307
0.369467077476167
0.434317116604915
-0.24995061742486
0.391334435836078
-0.666621008662632
0.38685336645989
0.609823072393526
0.330681670647595
0.66802078383486
-0.113410543253854
0.82238758201855
-0.18897893890875
0.0776409141033717
-0.928095871381118
0.405430719491352
-0.13673336318045
-0.363735951309851
-0.711662735230142
0.564008982163116
-0.222730262855332
-0.549407546555476
0.491639423476329
0.89967237732894
0.325479124655401
0.721350038881969
-0.826875581873148
-0.611141630842588
-0.469468214054352
-0.675958616403775
-0.8019684796731
0.635136290344531
0.0430958452093143
-0.288282185435449
0.1116304223979
-0.787216983002992
-0.587212081067848
0.916443392547356
0.0964137187414129
0.265559770918909
0.820862095849165
-0.0340460942809174
0.221033691430254
-0.497912278461275
-0.0912923953834701
0.0527002090738872
-0.723066070606063
0.316082034927586
-0.164366803565621
0.364006636279591
0.140484166820667
0.231120237355133
-0.589350637105266
0.649607707828935
-0.20888373467358
0.111100798290859
0.825189536257463
0.427155644486179
0.265816753485685
0.383874412208926
-1.03324519184163
-0.16243301888342
0.0304400274867875
0.0327186793125916
0.498979861888904
0.244538162710681
-0.258591233224774
-1.00553513547002
0.81527872256285
0.77974774706376
-0.0214370688512694
8.29987009501167E-05
0.648881730480781
0.031524510578903
0.628261148669
0.708945223806567
0.163341925983049
-0.100861209609676
-0.022583740259225
-0.713168571105684
0.558922893439333
-0.145455856075037
0.551015551882112
0.142245429691258
0.123106976187817
-0.160133824376901
0.00338711539748681
0.121174578687868
0.596479128498111
0.741539077944699
-0.742390689355271
-0.0235698952716891
-0.401790100137818
0.520993739574141
-0.000820123761614127
-0.331766429968763
0.85296439309756
-0.627627135848928
0.169864569700875
0.713249608186654
-0.66614645635976
-0.783034810968922
0.239177119291232
-0.209101070529744
-0.8183520246747
-0.987864199082019
0.566748951498643
0.328107766197235
0.853762159331331
-0.0179169242408884
0.896326848773737
-0.10492865727224
-0.444430623312983
0.0709824577931305
0.769763576550711
0.0201749146301594
0.150889453888492
0.714319027184524
0.834036546116581
-0.342586844911505
-0.876837616572359
0.317453571936639
-1.04086216020886
0.735795231824745
0.488605057198266
-0.688749452948437
-0.397896937856918
0.908256619142546
0.725530614656709
-0.208266627092679
0.688098686677008
-0.313664991259215
0.543151675636914
-0.0340338616727758
0.709595199835676
0.231883614290233
0.427654213932652
-0.427155026210534
-0.208462818421148
0.042444788483986
0.319430934699161
0.825070773727267
0.332331580147769
-0.266455801495544
-1.12223288846523
0.347373166629705
-0.590844478970084
0.446706474785258
0.56577006466139
0.669736059907174
0.156904834445192
0.786921031952269
-0.606572724600346
-0.379816478109927
0.634349700580138
-0.157732793868125
-1.07472446686613
0.287381472380225
0.277421806455945
-0.992843823318894
0.37101481507303
0.281015067319516
0.116346290803366
-0.170671889405715
0.0881236804765466
-0.107962810234048
-0.0594075190278103
0.30268229902974
0.221255906089094
-0.387996979103158
0.727620865592901
-0.232968542398401
0.0403654104225638
-0.173017991604829
0.318325813530843
-0.689349322070582
0.955024778517036
0.20587391307201
0.814265915247807
-0.932571003320881
0.793150433083929
0.054457261396691
-0.610739022702933
-0.859161204211568
0.5721850568918
0.877154846876515
-0.473480603818418
0.33295181306635
0.483344201198851
-0.238999170043854
0.0560991459082395
-0.974376180778147
0.262074236332005
-0.461629654775545
0.243316176883086
0.642591638980188
-0.57911873850173
-0.482133556790967
0.887154100121265
0.210768639723545
-0.48625671306492
0.103757121577732
-0.691424500044984
0.0972565504755448
-0.841791803082747
-0.384142326843844
-0.148244101268813
0.588653910370512
0.293906657011721
0.336437179493508
0.00646865357857943
-0.204181336380179
0.448478140624639
0.364563933244183
-0.51656544718183
-0.284278114873403
0.262977516017428
0.21438366016621
0.271875629813668
0.0764253993540413
-0.604675376289736
0.538957248052807
0.54358998276867
-0.883491980398047
0.311362032366721
0.765351483313272
0.8556022033609
-0.393710739102071
0.547524289969317
0.63982021450091
0.984351569639014
0.503173114424107
0.4257226760491
-0.228511824082683
0.574573490774475
-0.335718443083351
-0.108692621285748
0.408286229056733
-0.896866053709204
0.0535861932401135
0.0111751712572475
0.0108642107977473
-0.881257303946788
-0.668412611715484
-0.811272863196279
-0.479636636275266
-0.548428830816381
0.614647350920821
-0.945458474122399
-0.383107182626089
-0.701745604467513
0.0271322537460161
0.112595948335283
-0.106956832264553
0.0981667096768128
0.0302126322628272
0.517665828332122
-0.745918009263445
0.897917871386211
-0.561018226272954
-0.252945530605708
-0.750798810293072
0.917782755112448
0.624934161434851
0.518233104055407
0.433666881399029
0.3540408996673
-0.206066309267278
0.657048827503402
0.708727979231297
0.707767015300806
0.778612625623573
0.259522121828865
-0.739311225158189
-1.21330147852745
-0.0183973053078463
0.282820701391472
0.304700259285729
0.9173886281134
-0.328610991108629
0.121719182144196
-0.800906884553926
-0.243672152715975
0.0839814082940205
0.420057206345017
0.0646660238500106
-0.443965296391459
-0.312259092220684
0.713695178098135
-0.499418594599136
0.0693375612256274
-0.237050430442375
0.664288961508642
0.565091598309405
-0.855848795511456
-0.259339359784644
-0.0140878034152246
-0.546056947691763
-0.352628373216496
-0.546383351468375
0.0585364340483839
0.604621340439084
0.612961190885833
-1.16750923109435
-0.388467412935681
-0.479908858831831
0.614685441479858
-0.423862311976774
-0.240269994894512
0.912693936431204
0.773290128204496
-0.576462152006203
-0.638810473550175
0.167775600863135
0.360882648313351
-0.159410562670566
0.726991208930474
-0.140178155347703
-0.745530212661964
-0.303098999153568
0.0777495818291862
-0.354990992547499
-0.00877494778422044
0.28408714298465
-0.292180402054715
-0.0364504877009968
-1.03340040384319
0.458936611797932
-0.895184713258779
0.087963595337927
-1.23979937578607
-0.637632058460576
-0.742950674786244
0.364710069850327
0.407124947960373
0.229044565774041
-0.84153187902574
-0.570131832655995
-0.731349823089717
0.013583004466616
0.30332076288883
0.873992537802712
1.00005083523294
-0.832421567392842
0.0302191520847002
-0.292843215244615
-0.566161812881915
-0.325491379657191
-0.509274188800771
0.514905594287874
0.174082626616064
-0.752329743293953
-0.832642106448557
0.836785671920447
0.193053419700629
-0.730195688867248
-0.292893573402918
-0.41338470319027
0.12870841476351
0.237003161423495
-0.92311391893483
-0.978089724019639
-0.666865717372559
0.442881771384982
0.568572743610693
-0.351950114348616
0.773577686822234
-0.00838347879468376
0.590971316972866
-0.940121928710881
-0.211871938169644
0.569602959217055
-0.115742695251925
0.223999979854284
0.162640462371388
0.272453935005809
0.059912345435561
0.222248596138089
-0.627898627593694
0.864960309713935
-0.725512981051009
0.0836073611863754
-0.1336825320561
-0.522534149491706
-0.949955296587594
-1.13697978257968
-0.744089155510794
-1.13460280597765
0.471659250746985
-0.0114395728942033
-0.540655565729626
0.359656401482126
-0.429463447165874
-0.838431037604315
-0.523983205864041
0.318325067396396
0.454750747993424
-0.504503658355682
-0.345582068418013
-0.38976304457328
0.301611019487712
0.513356942092247
-0.219297900300347
-0.632189801388412
0.170794887617564
0.894840468476598
0.355663915617932
-0.298343153705199
-0.615327764924536
-1.16977925941319
0.12676772540967
0.342613563574068
-0.690406657550912
0.615418468579873
0.0114753276106948
-0.632135122866541
-0.606754309093099
0.659017349192732
0.378314788191494
0.500225722406295
0.639066174725676
-0.0429544925386671
-0.00251240937507611
-0.304465403265353
0.620083947907878
0.362300176699996
0.0728978281119641
-0.0128856551538797
0.215108438002068
-0.782871433379835
0.857344494152725
-0.304182314219731
-0.146898379241936
0.927050430646219
-0.469267761893065
-0.451433547535108
-0.886182691822336
-0.532758774575844
0.205555287682298
-0.967601953738428
-0.401798180215314
-1.07184990494103
-1.37119823389774
0.238433146757066
0.0951761915732527
-0.252752608617652
-0.0265104734572005
-0.16103728241404
-0.48623776267819
0.259692239138218
-0.480482392360095
0.903161736057768
0.0952417635119198
0.0286654768304807
-0.0486703864883393
-0.508423808026249
-0.124595521413299
-0.523555606069777
0.0281685087298368
1.07843050088852
0.0412962948422058
-0.520433535027854
0.336610074508703
-0.96917947069581
-1.0585363196746
-0.495731719837173
-0.56718107314455
-0.721998901152244
0.0875048059123859
-0.31902335464275
-0.566617544780984
-1.31475717112028
0.708953860304607
-0.108787547017723
-0.192171848855181
0.663304254876485
-0.14755349988079
0.193137498516559
0.410576646229325
-0.00914335015117498
-0.641369791805914
1.07611289073297
-0.612967550495208
0.992032960004516
0.660445265956378
0.875796153573958
0.609084676036564
0.904891252824355
-0.0692946454804081
-1.15523265454009
0.375643527044767
-1.45826882843454
-1.46089210138826
0.357330343397184
0.0280372813642677
-1.01975551164706
-0.604185650748975
0.549811197271583
0.302973159365244
-0.727125750142513
0.57584100823579
-0.791941637181466
0.63281115453109
0.78894897296108
-0.458773120253202
-0.46224915329483
1.08543671718076
-0.71097287854452
-0.738144978474477
0.311817725899804
0.69930916046478
0.720192346944012
-0.0792827122507505
0.818402405630755
0.607705450701565
-0.0996011414690964
-1.03451497737246
0.171881335347213
-0.77732424470636
-0.853572797033498
0.168441805928954
-0.172985701109814
0.339434054395933
-0.19512492490011
-0.220276876497267
-0.398246572578864
-1.04200563780177
-1.03868503409778
0.24663106513034
-0.559191107645521
0.125108705826787
0.258833752000331
0.780637744566354
-0.0120171926378718
0.29200936840571
1.07682396974351
-0.475218887306101
-0.18406331153999
0.785425534036159
0.484485724559518
0.925180038113938
0.405531666807913
0.760252594013124
0.786113542866487
-0.54045263201326
-1.06129103677113
-0.132881423311183
-0.841175270170767
-0.858633248116734
-0.601208041284848
-1.05247559503612
-0.326834728497502
-0.29895936178769
-0.155376548239819
-0.164358323264998
-0.606319842560205
-0.585861885186301
-0.45182535424746
-0.198996584973525
0.828800057025246
-0.436067111157983
1.12970500360439
-0.101230436795674
0.566727035203292
1.15883466906871
-0.331688602379101
-0.525532987070584
-0.549833534167943
-0.195918654900237
0.797588276690273
-0.336442370344666
0.567448496941003
-0.888210582399554
0.436548641343976
-0.326962348926067
-0.697112606443434
0.377225498683364
0.723904492353345
-0.610476974499972
-0.365582870184527
0.43663024032537
0.683407858896707
0.631246806574604
-0.387164594481795
-0.750759292404306
-0.746141709632084
-0.73018104834499
-0.254050316150088
1.17403623399717
0.0137788923044892
0.502886825512266
0.576607160938773
0.738100471810585
0.97924285390572
0.342674713824057
1.18384266035631
-0.325581989707219
-0.641918023181053
0.842613052781663
-0.838895580032491
1.12455602493427
0.00056026871715084
0.604013001689765
-0.410180552653749
0.805842716759989
-0.622192221374818
-0.189704014944625
0.561402594976052
-0.713481518725516
-0.442999335532928
-0.123959737213771
-0.447719172053787
-0.918335049049415
-0.924980334870793
-0.893722180928686
-0.326656128409501
-0.492484425349862
-0.603106335712135
0.212615786689654
0.511165778026552
-0.931738235226782
0.724707846616741
-0.403845043940795
1.11293615332258
-0.637616818142554
0.134180721634831
0.946944328377051
-0.735359626462991
-0.591501667778423
-0.247978263564307
0.679222780120683
0.09237800594396
0.841837261937739
-0.65263874855901
-0.0920875934884917
-0.167264002554982
-0.831522199946144
-0.123059747956613
-0.457836707675667
0.735247523399041
0.451894403205445
-0.287200384922717
-0.815007038586105
0.335289474088458
0.976550255854169
-0.0242223147453241
0.540611953896206
0.512697343909104
0.695232664324109
-0.277751247197475
0.88334172835699
-0.478072563147762
0.177442006638895
-0.57279251925759
-0.763002391102211
-0.516944345102657
-0.419731864596338
0.764163834366991
-0.478352564671916
-0.0289803769583058
-0.319836897755603
-0.11334201041632
0.539572350109106
0.784892524183599
-0.145177630917394
0.54601622447727
-0.506565386507884
0.837446011558479
0.340205897065824
0.310499934553427
-0.834641858232231
0.242222124798485
0.629954920070861
0.502860554711646
-0.743070487156341
0.465455774857509
0.460804237849136
0.253655657209909
-0.909216941915518
0.269091459674911
0.367045553460514
-0.668366872973134
-0.48229906438969
0.555518167265943
-0.21461335874158
0.374706535028391
-0.737877662883154
0.824292586918503
-0.649302342739873
-0.303833264968327
-0.46377238727993
-0.348740876545195
-0.438943147811666
0.653698946083006
0.212097665333863
-0.0682711689058433
0.419140718189809
-0.619172898304379
-0.8748172865459
-0.946610944342661
-0.62922343548398
0.788033254417496
-0.617181954015172
-0.422327577152839
-0.431586848387478
-0.37499386430885
-0.245407784635589
0.365877380220578
0.76071067183598
-0.525257739799233
-0.234793374977296
0.0747124040476663
0.449711688001022
0.0862357430461757
0.362035181368816
-0.851032330312128
-0.792753652992688
0.897209229880901
0.033059493010862
0.692137511509889
0.5905670516
-0.0885938681959802
0.788384495832187
0.047554448286503
0.0195356703816394
0.536547132401959
-0.489492239478788
0.686229455406281
-0.809541666198055
0.341455163186388
-0.898847635280029
0.202208296953214
0.147254817610895
0.97947544748756
-0.111310811356831
0.606510130614778
-1.14511216090962
-1.18333463992249
-0.0638153343335278
-0.931055848020509
-0.559703513597917
-0.518124466584634
0.473381702317475
0.276618251447803
0.420153347287738
0.167497121717737
0.0149299258488249
0.405470132189617
-0.639259647965267
0.136298779640463
-0.140543124326742
0.685863245762786
0.451801953700084
-0.496917454536621
-0.517018990258195
0.302781354181855
0.852796942744471
0.241514955755604
0.531886118978458
0.121393318866752
-0.785981836623625
0.0739082344098618
0.272661549866071
-0.365970882108112
-0.426955380966059
0.682004232318802
-0.991505507083359
0.495766448413192
-0.840798597330876
0.577777510325259
-0.993391864581682
-0.95836375827804
-0.345286877466667
-0.25432556314135
-0.074146353247097
-0.206055841961712
0.240640468273768
-0.604032430152007
0.574273664400719
0.875052661237841
-0.44894367718229
0.150633170690742
0.45853596114543
0.164494160885464
-0.467084598245039
-0.637921907835
0.626543295949715
-0.412696417549554
0.513548538546495
0.488491430110312
0.68304989835898
-0.297501528893838
-0.46991243350851
-0.874338652787049
-0.866327864587598
0.661210204479356
0.529425553474876
0.0685784420917639
-0.289794680207153
0.559014591330882
-0.0386936895104156
0.348519129048834
-0.0278754715450342
-0.576011348502518
-0.115045245613793
-0.285415610355703
-0.00117524326200976
-0.27817382496026
0.549093658794138
0.689373080934798
-0.933051460491252
0.601263645827452
0.754591175107167
0.607383930031385
-0.591026963433373
-0.0475286068857763
0.547682432231455
-0.934070027931321
-0.890461845948065
-0.675208275291573
-0.757776544083233
0.556934560783678
-0.874264339120981
-0.0964091836063834
-0.819214008085611
0.488363345316124
0.570214475789099
-0.456561540085182
-0.397973246810309
0.311268669819789
0.268455634737566
-0.855590715770553
0.667883498498513
-0.993171646823022
-0.0856676070348697
0.20119367420584
-0.82267092825878
0.0352607930691561
-0.720238373635574
0.820110918550443
0.367447147704728
-0.0896134551449054
-0.0153077846995305
0.709391829551031
0.204038178082022
-0.976337718244764
-0.0990353046696958
-0.0957818585055946
0.741204922392383
0.194383296339314
-0.870727374367696
0.491095779398998
0.0427250376238312
-0.521823967403384
0.309103989074407
0.358202423336125
0.272874397489771
-0.822938052025878
-0.677375584507868
0.430977759593694
0.17250849161597
-0.506470752731972
-0.840254810688199
-0.696308937386989
-0.518025278432744
-0.907387621740253
0.939035147167816
0.753550439356132
-0.289433292743509
0.195892661447811
-0.3224374408366
-0.657615613737659
0.665052144049112
-0.760758332525538
-0.0854555661266637
0.306953681989836
-0.469580644649055
-0.736761757516275
0.508976580640633
-0.912856387995479
-0.43529210589728
-0.339614088450721
-0.318897726219504
0.274491395236535
0.156005420905386
0.778155514203064
0.0806325246773246
0.0969164017405564
-0.493657905108597
0.34178442861096
0.857815251396744
-0.93503572050899
-0.197032343865299
-0.0982252350777676
-0.33630612986443
-0.106392137415739
-0.206005502654578
-0.243386660859936
0.268437813856839
0.100249785916372
-0.89594902876421
0.269540668964951
-0.767544688848738
-0.569800924218788
-0.70079532656266
0.378654466270197
0.424441551204314
-0.476523006132383
0.32189234665084
0.879314412618373
-0.258858193194314
-0.168781648217415
-0.4787623130789
-0.757119434625677
-0.109189458122336
-0.570271523011974
0.452924756399743
-0.492970215974047
-0.0963857195514606
-0.441973992048014
-0.14569201944433
-0.34505258765303
0.071147382734087
0.186043354341742
0.214578438899843
-0.415173413528494
0.579753134362203
-0.258646699173982
0.581604963563713
-0.86223963689146
-0.426692666678613
0.574418255405073
-0.363575116999989
-0.964875107828744
0.672407220651025
0.133374551433185
-0.733599683379283
-0.734936779792363
0.0325269955908886
0.647690480344749
-0.746923158216105
-0.388930317726525
0.864131402695835
-0.351376414200207
-0.530924662347588
-0.117231471556316
0.524694683459486
-0.351196815148077
1.03153474938027
-0.855868745758513
0.237634089804732
-0.973375949963017
0.650021563592637
-0.318918613873896
-0.704307380585341
0.349566445138789
-0.870472151112889
0.104009706221208
0.25814820836694
0.542562460491607
0.566085353324597
-0.457275157371349
-0.137842772436162
0.121457646188497
0.151871552606548
-0.0185520826476251
-1.00765014177289
-0.843115122539585
-0.774221898596461
0.545722229317099
-0.987349374696248
0.128504505514074
0.450882240143794
0.299617880935875
-0.442640324402625
-0.530768668846313
-0.176017959378787
-0.702073549314901
-0.435882760136484
-0.828981893740499
0.0291794634574029
0.0749910139031968
-0.13928740931073
0.376733231164801
-0.154261826128134
-0.38840090952962
-0.897274268343742
-0.946567109545428
0.642655508703244
-0.721688209069982
0.0992366335546224
0.122051940340299
-0.332648615566143
-0.0342362370273258
0.522457674024767
0.158794784531411
0.285120906367102
-0.588310505896262
0.118269001131866
0.242799934630383
-0.180761856151427
0.373018088175192
-0.468132156655945
-0.446896288406869
-0.987402195014771
0.793784200232404
-0.709950569843123
-0.78457490562906
-0.745934482455991
-0.937737564320696
-0.344033684042175
0.693373853456366
-0.475400612552616
0.230006885383404
-0.139386828920924
-0.210039353471605
0.766787653083319
0.567763700810153
-0.398243563431678
-0.210621691116925
-0.0770172398949558
0.744462051945919
-0.856039623679938
0.518148733377543
-0.879087809875413
-0.215841112844153
-0.553451117140498
-0.476309312905673
0.772952155099517
0.328328080766841
0.155565654529357
-0.549647744612154
0.0661630609546319
0.037460566454174
0.130400514311732
0.609409445710239
-0.235665003726607
-0.429517932953222
0.548336017477625
-0.0281428537644901
-0.633433831073129
1.02985192126755
1.16138655390598
0.982241817786855
0.917274896205232
0.684742791964358
0.145856176863362
1.01921613332277
-0.278236890711552
0.107479149860362
0.485710040740851
0.795257541176258
1.02527145007467
-0.275623482531847
-0.352024435331355
0.360383177826035
0.312048529021631
-0.102332138415702
-0.608866747017893
0.38484397933453
0.564201583052271
0.823464228661471
-0.562244616435691
0.0939805058983209
0.26148101526451
-0.457180046044332
-0.158532437592047
0.482132977671082
1.15312214477714
0.335484411823281
-0.69848660716222
0.50871569140421
-0.626342310843952
0.925588774876707
-0.0961274904721459
0.390913089842751
1.21059739249162
-0.268827868808762
1.01338999450877
-0.0298961808341982
1.04054150213196
-0.294292212542162
1.13627222448608
-0.0157640534794674
0.776933065754076
0.175404564097638
-0.425860753952554
-0.179541932897432
-0.188666710400834
0.993901232079385
-0.574919233596823
-0.932661102527728
-0.477849099817415
-0.53883490554112
0.655904502347332
-0.422458357082101
0.600922562442581
0.0781909722210443
-0.0617115724707692
0.671030469051656
0.178053932772642
0.853442037732695
1.14440656308024
0.637197301158562
0.197334552011789
-0.543254069531928
0.914949061733912
-0.502729483353106
0.859153522200019
0.136233506710223
0.247142289320553
-0.201195248660072
-0.280441292543541
0.301082175106253
0.579259903285872
0.324150100572575
1.03482405646949
0.620698372985684
0.446220085474932
-0.815884098288824
-0.806089860493191
-0.642221661735598
-0.00478440913122351
1.22834880958251
-0.128120089929286
1.23444960382286
0.172116863998978
1.15485849016301
-0.386281009293161
-0.462990162951554
1.0556473428558
0.294228936063161
0.893848205099732
-0.301519850398994
-0.756606769389967
-0.54851381984362
-0.553072777039543
-0.763023410555392
0.787914692600675
0.425433726368672
0.158494561390835
1.03019358127482
0.0303703487109398
0.85954865666997
-0.139312701357311
0.623556414767819
0.388708621322457
0.232770183748271
0.0430426248007085
-0.293935795585777
-0.107146686853695
1.02773195618888
0.507402203788043
-0.36373677128143
0.490868875256416
-0.0767128233088381
0.12846454198945
1.22431121692698
-0.00236464774597773
0.0559681227674957
0.277888314675648
0.999612040397177
-0.725939296972881
0.543085274782413
-0.00696333481947166
0.797209538470618
-0.154592371308809
-0.972751463648899
0.0226776384486574
0.100095536020557
-0.186004357572493
0.762424821887609
0.723083375513529
0.886407201638418
0.0338492702297248
-0.873283402353442
0.399393145301633
0.4487002579746
0.678023404306631
0.223806846642641
-0.37275588859531
0.695330458401161
-0.02781948604006
0.838115048984546
0.88842459858534
-0.579131552378406
1.03263013330829
0.419858250106597
0.282798689931465
0.444446732391701
0.487125025524392
-0.566812518131966
0.355169578508621
-0.204376712466121
-0.857044719335644
0.132814872101664
0.693841142412369
0.400339023376993
-0.260872173252874
-0.0730857186598164
-0.430858891955699
0.167690441467099
-0.788127884985536
0.869501950435762
0.878227899742317
0.310578748568032
-0.521526345944568
0.553922369826309
0.39751824785274
0.122908267313244
0.39205936178345
0.787396533568858
-0.133680023647637
1.0423976072823
-0.463484477004855
0.714939118672408
0.159268491909524
-0.49648284649689
0.79763651370817
-0.0968296100497236
-0.820767623506881
0.738492074896142
-0.0926250493350349
0.614397089943152
0.55790217261508
-0.689906102948657
-0.67565000252087
-0.169321971532125
0.631885634208313
0.73707716399509
-0.529493920835476
0.913589919614822
-0.433882425561642
-0.22960494142563
-0.303172006269996
0.379206789798269
0.371337293069947
-0.0766872225225252
-0.962145497708741
-0.125028425264846
-0.728223231038852
-0.444738861891132
0.883965805578264
1.11623338617061
1.04621417427771
0.797629899843736
0.764626015565226
0.609887652007018
-0.241204115689926
-0.112531138022883
-0.702951395749723
0.312586977274215
0.521360443441548
0.809415707542322
-0.232281059001918
-0.177356680129979
-0.791638776920826
-0.489679144878851
-0.57115543589947
0.514795832976839
-0.23593044335118
0.484820307509271
0.883711471248323
0.573880634373995
-0.3696295012377
0.429755868504226
0.429056050657544
-0.536703557507166
0.685665792462333
0.102053799776076
-0.902109123986568
0.999812145579988
-0.49032812607626
0.113573476941921
-0.172113146983837
0.854584300036032
1.27076427449663
0.280488377841193
0.941609911065266
0.882373470658184
-0.556835010896549
-0.279715568919681
-0.828419309283453
-0.176281821576951
0.474319499924163
0.109171257457666
-0.513316008701739
-0.33458219455143
0.708169023677694
0.620243741679847
0.0529908760447364
-0.202752082769281
-0.452286988515344
-0.44840346544449
-0.665328900427624
0.168647753930724
-0.0317610888782307
-0.744625746926481
0.160188233858789
-0.638577584585196
-0.568523643965315
0.532757607126723
1.02272080746893
0.702756900765926
-0.0219851077979541
-0.353661807329439
0.250681889585217
-0.372857698201404
0.0234178457551467
0.0651503102190018
-0.255586957937258
0.121592065914296
-0.322130869845349
-0.469220971087087
0.120383937873047
0.929306275072457
0.0280722092442965
-0.269787162267724
0.831139212413319
0.379029501168658
0.0348356486384371
-0.159657521499806
-0.0541593477239419
-0.596603475151739
-0.745618064100701
0.150513909123885
0.0783643795320371
0.632267489710073
-0.164804752845051
0.918629037010788
-0.150698422027751
0.826945415474133
0.873167554695384
0.595804017622715
0.641967798929003
0.0897928102767809
-0.216575773023065
-0.282166945118091
-0.905060465535282
0.0627280420242093
-1.06680072050072
0.839627378326233
0.679139542980219
-0.464120272699
-0.362025902750872
0.573690600646308
0.72403445597763
-1.17020070809967
0.422312025197648
-0.52222336878128
-0.71571388105274
-0.552086582423672
-0.58959779087615
0.539810054500493
-0.0375476034174918
0.448155770969898
-0.303933604874271
0.794238713361303
0.222963286576992
0.399782246892845
0.0773098515959882
0.434172123106257
0.794763963995647
0.195824108333377
-0.759922741176138
0.0351624626969416
0.330761609210307
0.153950142831248
-0.189951362518751
-1.06182782641528
0.159126279618932
-0.775500464802959
-0.665711101954961
-0.624984728387617
0.0347615856419639
-0.065666429940106
-0.048370391749284
-0.669631623629378
0.732736325214172
-0.441359007332763
0.124395911760227
-0.0932378357597465
0.751826942481531
-0.718659111626112
0.782029772616635
-0.446968841112676
0.245906623779043
-1.00283461016421
-0.721890779357434
-0.752285493592003
-0.552220485129484
-0.121000075895371
0.29656584953692
-0.36894315761383
-0.973589828657979
-0.471309873380338
-1.08586948812254
-0.656858302175916
-0.704082766498544
0.496560447200126
-1.07565254409554
-0.782364466814125
-0.277634771468714
0.252758042651357
-0.04188345494396
0.780932406662744
0.787830277496768
0.592203498671522
-0.89212549188611
0.652032710335761
-1.12378934728263
-0.83210547943269
-0.816005349143985
-0.269808191379181
-0.858650565753488
-0.994510952568639
0.625387011723911
0.781941413736399
0.556314968381127
0.466423083165622
0.56891804209246
0.366760328351959
0.0573243569407987
-0.355635200606027
0.420755840943818
-0.813578642649535
-0.0742326965229538
0.671357357892814
-0.811682640184359
-0.633835693862108
-0.0434048306359793
-0.40289305677388
0.807610949924571
-0.964343406726954
-0.675174067482969
-0.48045163448003
-1.02367560337604
-0.755018462198934
-0.202037660555204
0.750747077976521
-0.221657302277259
0.428977965855828
0.534364065545845
-0.620691717105165
-0.627637766089117
-0.509341745180878
-0.31878964500578
-0.724201253625647
-0.594125198471474
-0.806615226305396
0.210988319436009
-0.635532207673314
-0.103273620017831
-0.149398896544955
0.927219400820684
-0.26502623101753
0.295480959427717
-0.89322427772759
-1.04418019688979
-0.0613685114808673
-0.110760042466985
-0.908917488459758
0.116595352441591
0.427559347566234
-0.350662054571927
0.276643360000233
-0.782868027264882
-0.743663229524015
-0.461514556684505
0.397792130523918
0.69458659542327
0.122917154812816
-0.0826944747787934
0.784522211871781
-0.545981528222966
0.647352762729722
0.530801070034154
-0.273492405297246
-0.385072429725725
0.182593905218414
0.616754740357267
-0.276711825078267
0.327379888805651
-0.639502407923258
0.431589750863092
-0.34843307825439
0.799483299093772
0.203059015746004
-0.788477231316528
0.567468932934439
-0.0754585612344011
0.529155240473419
-0.81404886435005
0.884748230317904
0.105925827925915
0.0109727218935173
-0.44469993079597
-0.877341138913321
0.567785735433711
-0.0887739031339757
-0.72428613676573
-0.573595357819538
0.414048035551314
-0.566822172957694
-0.8783763883957
1.06305968151608
0.62312587913756
0.229525255059704
-0.660140630862513
-0.706704580105355
0.258416946279739
-0.093010516031433
0.799739733141708
-0.118106022798251
0.43103730456694
-0.692167048634487
-0.103975335241794
-0.140256845939933
-1.15853497534004
0.661564250206486
0.251733766965039
-0.0364149684577009
-0.818380776524481
0.101764587684221
-0.446429585689255
-0.951218553486935
-0.354117275906716
-0.274493491906738
-0.385744053671799
0.468019271147374
-0.128073434149557
0.0439234904322091
-0.127533766483101
0.626415358736176
-0.0381971871209228
0.136259523392579
0.114385624101642
-0.189714518718126
-0.771083221648918
0.566061079682345
0.31709890002685
-0.126184761295389
0.0419617305100702
1.02302212753837
-0.471510810718494
-0.670184974147845
0.856872742887816
0.170242138890554
-0.726619143423397
-0.313247460769614
-0.842931820974613
0.609771642463511
-0.990618247491856
0.464974066679483
0.209964551975086
-0.0175026810030236
-0.776632674128371
-0.554285362877312
0.825913735526057
0.878638582527796
0.222639092433302
-0.208165128874725
-0.515788892965156
-0.348723109743976
0.148797043784285
-0.919320988768634
0.982339426619316
-0.770865979311742
-0.935938317582139
-0.535594269194949
0.249978846258155
-0.992300440805336
-0.348580094197979
-0.495410646854426
-0.310530950591512
-0.37486141443318
-0.976619555343829
-0.768339398626162
-0.254977374091623
-0.599880522799282
-0.817557142471727
0.35676717928724
-0.60116935764787
0.976524552299956
0.47078699937509
0.381007650133781
0.00498597451900952
0.219423186080823
-0.828831520402953
0.764209362006924
-0.26821967123494
-0.542369907731647
-0.229527128286467
-0.752993203733958
-0.674054939165585
-0.181632052584614
-0.596537270401946
-0.585571863209583
-0.180846655739486
-0.71042411221003
-0.757526439658239
0.736382573268391
0.329561250824276
0.958662197806951
0.493832979079448
-0.829069760888946
0.092771379315836
0.712645460447578
0.0237365702277884
-0.17882543212534
0.144505708768584
-0.897067583474502
0.809320113842644
0.567939451499732
0.79719064923573
0.882755208272906
-0.670840408498919
-0.568947378076853
0.110162724723389
0.708536338275857
0.0422839353279155
-0.236865739352459
-0.942432074822303
-0.700334360397163
0.732528190916014
-0.212888472210154
0.230496606798212
-0.592485442762548
-0.80982782625926
-0.837401771132922
-0.750854818536765
0.622914953760523
0.429849020724408
-0.531285454342824
-0.833592043084283
-0.54069813137823
-0.946123617343834
-0.508642018556883
-0.461317120839367
0.340849505500085
-0.692783621380333
0.292479205716345
-0.803264950826628
0.356621090630447
-0.376445964382334
-0.356251250087916
-0.336462865470234
0.216144179318033
-0.53659988924186
-0.550403312543616
-0.765924623582131
0.973217093245873
0.304655752267587
0.106563802712112
0.251613717201899
0.496742368739732
0.715576074952511
0.0898061450202187
-0.714774982872644
-0.25168955518793
-0.0187071774305885
-0.270602866886245
0.56825934064405
-0.0694761264123931
-0.351520726447351
0.615377899879576
-0.219687539427406
0.418881830836109
0.444062518960098
0.370381978441684
0.876813827230049
0.905444754843153
0.9519273273756
0.820109002648037
0.442778495877786
0.779961551366017
-0.403788331115674
-0.278140046162924
0.690084237002556
0.102168605077944
-0.860152002082894
-0.973655004506954
0.963092281871729
0.752208237424636
0.939537542136006
-0.696393177579746
-0.640455023762183
-0.640119238348868
0.257621971175339
-0.286458219779757
-0.196140847945548
0.0432727235121317
-0.740703053462542
0.852708287712105
-0.55449618517737
0.659297628827122
0.786138650175024
0.33046556746611
-0.214269154762476
0.109150706875282
0.951914247116491
0.304161680433816
0.810303176699144
0.130766625978752
-0.378837110560809
-0.642117659587131
-0.969249913198675
0.494657613949976
0.688837799581285
0.498237226144033
-0.0681468401547119
0.00362751390866377
0.402060865548854
0.19151032300368
-0.363413074852552
-0.0248464100256409
-0.205325384897486
0.842063586123626
0.0193678340643564
-0.594501723996909
0.309047198628865
-0.521771662309889
-0.762698683130091
-0.193981266989003
-0.370159118892334
-0.0965527659336579
0.739577080473764
-0.773368646064828
0.497521173119199
0.863268393997429
1.04025307736406
0.318815223016869
1.0006631905631
-0.378897601648972
0.166950967039201
-0.151691288279178
-0.756709750575552
-0.147318769097371
0.151203449898442
0.590086709819054
-0.726358323007377
-0.125956956134046
-0.324754191336583
0.763674023615878
0.805755515859966
0.813762723062835
0.642218400140909
0.107981150600444
0.25416930185641
0.513539529043061
-0.0780715154808437
1.0035010526717
-0.64172305641312
-0.559385818128922
0.888967685290512
0.595187123608398
0.211436293505051
0.128772755097021
-0.402990265320111
0.795913844375871
-0.301577998474846
0.870284514847596
-0.955610370323914
0.860380772334691
0.499082432721592
0.628337168468101
-0.00175484016497106
-0.234260543461439
1.01036388700832
0.801519318128837
-0.254168875728812
0.946739242332044
-0.283169260267097
0.472877111938894
-0.833242074853893
-0.515154941640402
0.856763257703601
-0.49303118716213
0.0349947415412098
-0.138739217256124
0.297221768409408
-0.321971300305458
0.0374282147399553
1.08139925838522
0.07865729345575
-0.810022163468933
0.0992247311006951
0.671987453782379
-0.157376373636318
0.677799874895621
0.736763752769049
0.195152383390187
-0.666902208117176
0.389628837962032
-0.115695551544592
-0.611541790959259
-0.177750912583579
-0.151415492190521
-0.694142080456695
-0.801257050561264
-0.145154654108764
-0.0416558256896126
0.178300972619188
0.538444274967263
-0.154551226305867
0.0184715041395176
0.322723371929125
-0.0574627446259041
-0.664057738100251
0.456052855354799
0.807909908081518
-0.221226232329055
-0.825941151458584
0.86819770857099
-0.35701255785026
-0.839569853721627
-0.0473206766062641
-0.912352709585994
-0.0943652216204794
0.434475630183489
-0.344288247144293
0.399966719990407
0.939707766511945
-0.657148137943766
-0.906223154448438
0.583831403114312
0.652704635920228
0.34706995857944
-0.38050272434308
0.852366782896451
0.731884091236422
0.0836168611014603
-0.705071908291017
-0.083849454874061
1.05199638226214
-0.597887543806679
0.555695979729376
0.5450169084438
0.290352744799777
-0.896277220536217
-0.105946665180249
-0.761765862375594
0.457051830119393
0.496035619971321
0.965170860570411
0.058467512328469
0.140350313320334
-0.403227354369297
-0.11987507920504
-0.186882026975028
0.443058221955745
-0.250596872686824
0.969892283209182
-0.118613194082059
0.553615382911619
0.455208823947406
0.0187799531704372
-0.131396229943036
0.511718026465915
0.337179275139283
0.446139737054189
1.05285575756059
-0.619857849746342
-0.45606476410678
0.747609140313024
-0.261796673015145
-0.490063949072823
0.29745446258975
0.816832001723248
-0.711248501799373
-0.324652216120922
0.486385778882265
-0.115202288748562
-0.102628876107788
-0.359923040723051
-0.476178265619944
-0.950376851991404
-0.472816842266689
-0.59711909567836
0.0613140692047324
-0.527079818326866
0.0690672833515905
-0.519650860753329
0.823314184397281
-0.567863904713714
0.0672761346086625
0.23983154329141
0.494788123063648
0.414399308674125
-0.318342962930721
0.463646719529544
-0.251787302054809
1.05322570108574
0.964672227348361
-0.321228316380515
-0.121890074438794
0.885839261479424
-0.0174388446911366
0.80096392028054
0.283926525661048
-0.369351456021686
0.935362366160095
-0.138580670365115
-0.337803709757113
-0.80201899250495
-0.979991144409832
0.89979340819391
0.0838665416181041
-0.747841079856216
0.0225007053847472
0.401542247988766
-0.49549494339567
-0.465289518436808
-0.412251621085558
0.0104969814762641
-0.538721884068298
0.63059124376121
-0.351144512581529
-0.802258646446241
-0.23881907039951
0.557110143258646
0.0474219339471914
0.906248623812594
0.181965886010314
-0.106232641135104
1.02925070979339
0.493504941981363
-0.0303114333264674
-0.703383193190151
0.851600664242162
-0.29468969193645
0.118268003065756
-0.239054581634472
0.161497735609702
-0.543415652195303
-0.457471908921233
-0.795481067184425
0.787689948655876
0.569095021319133
-0.627077380860904
0.210841016082966
-0.745006415539285
0.370566477243659
-0.540989037478941
0.316907871556226
0.01328141878197
-0.724025063975764
0.535431107016291
-0.00619697126698322
-0.75300712822969
0.268193349588286
0.270570615520693
-0.147648061541821
0.146746267732054
0.784673900722156
0.623095013175864
-0.913699940143436
0.745266117456552
0.822914993684067
-0.790135631648138
-0.450713787328183
-0.0263016271294988
-0.165108632625293
-0.575124058826516
-0.662501169987579
-0.733190112375792
0.684260665301591
0.326411690216998
-0.84532183859334
-0.459026628750655
-0.645295901187194
0.894920131758928
0.0987400572561321
0.8327618047357
0.562235127441883
0.3152905252155
0.661787819149103
0.44368576053914
0.868329216752565
0.879086697125848
0.790589971086034
-0.958891674682945
1.02258560133042
-0.915110709896167
-0.398565511390373
0.463525870080171
-0.696194985440104
0.64670648659731
0.375072310683116
-0.129757958872014
-0.486335204143845
-0.504972828763168
1.00352130053749
0.370933611124595
0.799387134650262
-0.761479587255039
0.471870598381669
0.0113301855195835
-0.797335137558978
0.0984074563269154
0.364145930227874
-0.0511603714465512
0.371172329723008
-0.547676047260051
0.852445313952125
0.366785944954648
-0.817497715407204
-0.0035792910456154
0.579488180704942
-0.488581573992474
0.962391953953863
-0.374640270672488
0.853143670080204
0.922253375207307
-0.584359449425457
-0.46963409473451
-0.0630257078205222
-0.213332565887985
0.865824517252008
-0.0960548568403713
0.993649709102222
1.05409385494771
0.93777682209172
0.318631668623055
-0.908154642036015
0.924321654787577
0.956862340146995
0.780391596664285
-0.891871246180918
0.358607347958284
0.873473600630391
-0.309032848566287
0.242348183715348
-0.205498150921776
-0.440524977612852
-0.162238248220791
-0.351519272194733
0.555869114835187
-0.828171571094965
0.180852046711651
0.237982998630622
0.270577821283113
-0.954337762918694
-0.12589167296156
-0.123994148557693
0.909840510399455
-0.308255617902441
-0.902569437455031
-0.0344071830902961
0.260888198360168
0.274947936920898
-0.265921555892445
0.212478336429106
0.365051789485954
0.16453777965261
0.38068624585262
0.0902265022336698
-0.906116919896761
-0.594673603388196
0.986288985880468
0.431607239260758
-0.551349192707791
-0.0285202278578071
-0.729249763442545
-0.349746372044586
0.239112789965477
0.316588979582099
-0.0127416844445001
0.316347883777317
0.55104390712717
0.866502925300466
0.378120932345978
-0.443783841690179
-0.315264107353575
0.696741521764365
-0.231619458990923
1.02807079099872
0.0481758340142637
-0.571549935081287
-0.769585361249479
0.297271549262779
0.935265991077063
-0.123598916782824
-0.107290366551563
-0.86833961301465
0.18402746727473
0.539553800619183
0.942410540168908
0.681111488358069
0.267921332405126
0.839526080642923
-0.37889372922019
0.176612386482815
-0.834782656557127
0.68307247321491
-0.269748260307657
-0.743498703296678
0.774756059753988
-0.769155295095484
0.631924819155373
-0.469723306534048
0.689445592042487
-0.182799575312577
0.493447101364613
0.449154547398854
0.897747032553862
-0.849265951627759
-0.441182357966132
0.749785706909705
-0.51067871334
0.401798277597153
1.05950686299385
0.692601634717548
-0.780607160746586
-0.258783835425079
0.558785805142765
0.628621204513507
-0.823350663108201
-0.768641591824672
0.531667354282551
0.743422115450622
0.378202796029087
0.276655021530199
-0.974056305498009
0.696581537118639
0.273282805446614
-0.752617111066363
-0.620839749522077
-0.0844754806051637
-0.0859845944295677
-0.472558635738782
-0.676652319757628
-0.116317184830438
-0.189641619746685
0.67178405501679
0.65084279740908
0.21447733313535
0.502162298222965
0.490074237419434
-0.777058792661301
0.0162747809672768
-0.0144810362709309
-0.77669861302748
0.243163236589923
0.937356986328192
0.898681501965436
0.0397100015045793
0.0329573008341539
0.493592919184205
-0.831766250333997
0.129902941567986
-0.889443312638097
0.58630505152831
-0.233395629443497
0.951520076709476
0.150649627323981
-0.668808968447409
-0.257688706651487
0.802582376580427
-0.742240715389547
0.752635076549572
0.811712608016699
0.673106695559118
-0.0840683755565351
-0.895604324552532
0.23032884775949
0.273263924500212
-0.0791167660507034
-0.459617024665971
0.0951456378796062
-0.621244852224883
-0.816417534381334
-0.218569704756978
-0.88364798511288
-0.391883985353098
-0.16254187009571
0.242332618639394
-0.861362844648461
-0.816172257466998
0.869246292273895
-0.703827875338826
0.261783845953283
-0.0548860585603157
-0.23888161661132
0.740231777136091
-0.612680000475544
-0.247108263457362
-0.795655397442789
-0.0248266357893198
-0.40432951326904
0.376752665198881
-0.412540857908591
0.855242110654423
0.398480792130785
-0.386568062631204
0.297719162124542
0.378344976533697
0.364952921946632
0.21844837450597
-0.193926137699608
-0.242263542274486
-0.761338180073211
-0.409155470045637
-0.517137716171185
0.88775550187972
0.0466401203818661
0.423499383737369
0.547596666120079
-0.775167179043269
0.172584290217959
0.999069320712936
-0.73201674961462
-0.435650570672915
0.915741705742903
0.955289587919926
-0.466661605993004
-0.048603668580725
-0.0513705098072147
0.185242353908777
0.790176837960935
-0.413971026596494
0.193214020651915
1.06683115700401
1.04709857188044
0.803763974643139
0.874104527138643
-0.573447836344187
0.489851170290662
0.619661159644942
0.413976120349573
0.534142964541686
0.915722175460751
-0.0389650516888289
0.413071537079902
0.173960572855711
-0.844574012193539
-0.234563825335105
-0.459559787280631
-0.0176710118421917
-0.211188451446122
-0.00596101444721443
0.206888840299444
0.977473069469037
0.812281974046832
-0.376252410098227
0.116295734049995
1.01904356535513
0.976236436610159
0.515225780667115
-0.837660601919266
-0.553305790451237
-0.476241055865149
-0.732658092949806
0.522666569713569
-0.680773266254379
0.653155386067297
-0.764985167120211
-0.407953117086169
-0.270437456624945
1.02092875721351
-0.387219981118653
0.930926652738803
0.955567730832888
-0.113630133322584
0.725189027633925
-0.842161885340693
0.401819886184364
0.216682197059308
-0.231635274859748
0.818489741195759
0.779273977034525
-0.586435608047721
0.976543299669295
-0.5966909667393
-0.203462161043652
0.405186943787134
0.256876797640312
-0.678371956696995
0.512170192646459
-0.241443028110784
0.935913559875627
-0.453304530847369
-0.938428909642401
0.518531236621371
-0.0189204758615417
0.0263017425625833
0.688605568096754
0.472483863712885
0.108413601250033
0.507353455385745
0.909174635231149
-0.807179283778443
0.845714442766456
-0.000663929290501536
-0.774175466709209
0.093103374286309
0.257116694912474
0.101208805063498
-0.899580743344842
-0.52216963558995
0.718858142715965
-0.206693297000959
0.206820865783593
0.719827076524564
-0.567345292224461
1.092474870541
-0.396813415763697
0.896311124977869
-0.240622684805634
-0.0188971329036399
-0.515344132102943
0.990034221393328
0.117163706904641
1.00066812690391
-0.856030484187889
-0.861555548694805
0.90040656731229
-0.578987154037652
0.8635240885392
-0.322608267254807
-0.534554599079084
0.933931279600796
-0.875811549485987
0.265407423452097
0.886173127407452
0.568515814668072
-0.432685515281644
-0.0209142566820211
-0.839241991477884
0.6684503948103
-0.884474002582571
-0.858241558291042
-0.76005063321335
0.0466343273876509
0.0280409551335958
0.117715449764374
0.323917731914171
-0.6014065233997
0.210751952519418
0.00130635853871699
-0.519795709350432
0.822995080424599
-0.25153384026486
-0.820889042865546
0.051409844101741
0.921159479677736
0.0488614321094796
0.822981203975933
-0.156776735982516
-0.920275560446374
0.19811146062847
-0.16572956515869
0.213923176210824
0.38650547774647
0.975935400389466
0.753475078735922
-0.367082414925454
0.88083613297376
0.75021047534524
-0.23809203693778
0.450433223949429
0.573102665798229
0.694790701529465
0.0607238562671572
-0.15390871449038
-0.63349666035857
0.827472024300264
-0.851120685366983
-0.00669972479991954
0.0239485439925947
-0.181175796202962
0.526711606819126
0.239896175254342
-0.12651018246979
-0.81324283584643
-0.368274043032558
0.177603680448368
0.935354333217031
-0.789993450401226
0.959758546572018
-0.421613320823038
-0.293240297959921
-0.897606461816461
-0.935345180189168
-0.553631749124187
0.238460050869067
-0.134103362265511
-0.235410080368234
0.000648285778837975
0.248731825315001
-0.528117334054496
0.428980992626077
-0.381082025208178
-0.578411079915851
0.541769843016238
-0.0868656721374392
-0.873716100264953
0.683075078448864
0.334362866935714
-0.313867408389241
-0.903232148529521
-0.0958109220912715
-0.166904924242616
0.818082633020107
0.25854382688707
0.67013495842968
0.59433852407637
-0.659433790952921
0.199861879991456
0.344097575596976
-0.419284982066418
-0.294189006959821
0.685644117245351
0.812251092356086
-0.702255153739953
-0.239336940548043
0.461959916874128
0.613936501858511
-0.399507360534972
0.600879625327368
0.508169851826626
0.0765501880529507
0.156118409675755
0.748744435460157
-0.46460402685761
0.325219611144271
-0.152916795342502
-0.222651072239518
0.218633023734943
0.124391860061873
-0.615362392284876
0.375462612057888
-0.56282259036626
0.419945567933761
0.834730086511135
0.58851127157891
0.871167164732135
-0.717822077271392
-0.18157113570296
-0.212506614737862
0.65302970724128
-0.435895128311558
0.634560158551974
0.691629428136907
-0.322870441979232
0.770321315558206
0.760398174086915
-0.15662166811822
-0.803043553421085
-0.146527907372172
0.493218735761458
-0.448673767664902
0.0873498120668324
0.668747891153058
0.0958473596698681
-0.0729251942196877
0.593891331837478
-0.0973294444782867
0.102970538723451
0.722704456919047
-0.453515557166035
-0.415383337681682
-0.0703691392351178
0.914806031502321
-0.15657678351739
0.0846256172576009
-0.895344396438329
-0.842899520352106
0.944424936821593
-0.280063198592209
-0.0443555934083695
0.244285839570441
-0.16217270846614
0.834290097329693
0.986414955366044
0.0205589414867659
0.555229284564768
0.574316923616423
0.145567210968325
-0.150224613179855
0.685278026386925
-0.921105254240293
-0.440448885639173
-0.638175541180312
0.607544480395468
0.799440613003261
-0.732843577100926
-0.24029021930345
-0.812354436515652
-0.357499451676725
0.737225984274495
-0.193539553111706
0.0153452424065392
-0.066282873728856
-0.967536460162732
-0.105548697459322
0.557463947808425
0.7079982005187
-0.0852440086676356
0.657592964490482
0.690215477792715
0.609417977191187
-0.0494524254061862
0.56682740500176
0.983194460337015
-0.658247026805811
0.79197129187404
0.339807404263477
0.888836979901936
-0.708810258446828
0.465220573375345
-0.893081160175792
-1.09972289002293
-0.565399702749716
-0.776708540030732
-0.362519874247648
-0.986675130756248
-0.709065417149514
-1.01419908425961
-0.12754074303535
-0.331563565097224
0.224747696612399
0.838217717625822
0.146327320208099
-0.130559681677952
-0.858080637885304
-0.731705222640933
0.955134050748932
0.825639578530016
0.104193783022811
0.503227266181314
0.951031217846744
-0.226615793474861
0.598499442755423
0.260622813564987
-0.801928429550863
0.321137522932388
0.226785654693565
-0.480410522017014
0.477895747436773
-0.654016271610777
0.243053681751975
0.173703879825558
-0.861545582257653
0.194111065712431
0.392156710289223
-0.380963008538949
-0.536207314506598
-0.30668041357738
0.325236526342983
-0.228495926262674
0.068047850728708
0.550305753921484
1.01698905602316
0.0293796075591079
-0.464952816212333
0.819271639006479
0.824940436484234
-0.274153422915963
0.959060012921474
-0.756407636616648
0.910392258283117
0.560274082058455
-0.21000576524142
-0.238609304503315
0.67057897930541
0.561171499086854
-0.456172746280183
0.497189331080277
-0.671871887281463
0.642572385241116
0.0580757038666049
0.828211617409848
-0.58521013697896
-0.5978296967656
0.366471921676655
-0.885991987330889
0.68527161862558
0.869257683047992
0.310615698225059
0.35519522950378
0.732043156708057
0.348360060923522
-0.356022505030179
-0.56960730243547
-0.497154969027744
-0.539478849739725
-0.126520345858893
-0.24886199576054
-0.202556146509515
-0.67853691294391
0.405012959372212
-0.50622437632888
-0.241812421578416
0.493096246706328
-0.411773739363475
0.908763644356494
-0.399526300144839
0.555711928713609
0.726455328894772
0.978681003981291
-0.836217255825802
0.038846491214303
-0.620908451928786
0.812402318154171
0.789551593550638
0.222596898538313
0.0807108592422233
0.501262623204139
0.54620650305406
-0.476310585845031
-0.707169857907085
1.08533935790694
0.495811286206846
-0.319896741009839
-0.381946661646558
-0.233608955324715
0.0561819463739512
-0.640913299332384
-0.68877796884382
0.351504250052939
-0.152074615423981
0.986395111183726
-0.17763083903871
1.14087146857134
-0.684645669854413
-0.377262212039694
0.206474315087492
0.0450045584662059
0.916135799487676
0.601926546526318
0.588212633996353
-0.695532564846326
-0.77691294170463
0.355624782854909
0.190514247693464
-0.441734507592167
-0.200695529657637
-0.158399536418664
-0.311052037010949
0.33485989916955
0.387858386130852
0.349187818118005
0.232854179327672
-0.573535344535034
-0.774197768418938
0.477580959674003
0.08577214040548
-0.824752814971524
0.0204634074398084
0.995711595607968
-0.0389782412351664
-0.748007135088658
0.159403322028643
-0.678642187637148
0.114235083213793
-0.804852771541503
-0.747822599816393
-0.646965163293841
0.613171841589524
0.332064981602423
-0.951912073140497
1.01066267027594
0.530734859508565
0.749312329918129
-0.287717861461384
0.896344183668426
0.791755334726402
-0.909827461041566
0.372405550118904
0.929728044190936
0.940524343583717
-0.720074519064763
0.81886663027093
0.0465618455330608
-1.01048126061608
0.543318193784861
-0.134761148954111
-0.496724216753093
0.936385904428132
-0.244419670988257
0.356951877704582
-0.177148933454829
0.893349512731415
-1.11227124643385
-0.329969840338703
0.42437258218934
0.169202808548326
0.972183115302423
-0.794133751122675
-0.103770264609508
-0.813108261925682
-0.742470473827224
0.0166517482260725
0.253783576257953
0.226596858518687
0.324634183526733
0.783279079809886
0.465069293158317
0.709657758126562
-0.682465001895694
0.641156417156499
-0.0757300827380417
-0.21316126334533
0.0992715097983689
-0.912406256569348
-0.357114163119932
-0.704610272212515
-1.05730622131961
-0.837153276520221
0.358188405557023
0.255645823119812
0.819579362382688
-0.510665092933249
-0.120847354112717
0.923502292589945
0.202293419476598
0.998605546982422
0.475897443786504
-0.0597103997125412
0.123990727052852
-0.421382851805598
0.756262870595724
0.844544746507601
-0.493364824688217
0.842146821761262
0.720073956731892
0.264895499778319
-0.474450359387841
0.727643908708185
-0.483393616322016
0.705432590901959
0.381858398841085
-0.266950584127334
0.469836038717376
-0.136608778636655
-0.726757475628262
0.882271982525229
-0.349815680160731
0.811451334181989
-0.886878019005939
0.129060242685906
0.153302830739993
0.713804113465412
-0.256793130941712
0.482641474541934
-0.783147817375335
0.684154945266344
-0.957411724914532
0.266940239017742
-1.0029652476055
0.292262725718154
-0.643167668704596
-0.43499531161515
-0.38299215230196
0.80954482280581
0.88895938618759
-0.00373620390807926
-0.79298898594163
0.257296925823344
-0.662226419188884
0.275096123401064
0.650636078825603
-0.957521273774269
0.509394512271974
0.516355280724889
0.766692555877316
0.0592241807671894
-0.0506482277340977
0.939484968462164
0.602934643156287
0.206427704483468
0.189091992830626
0.524105284439535
-0.278639241295906
0.943381562372526
0.384670105553755
-0.937166841333392
0.152098643215833
0.0197974007267849
0.584226760799129
1.01752095500465
0.314408609424525
0.43616052134336
0.881398047603319
0.305821342834728
0.458202960102463
-0.0639237914216694
-0.814252486674725
0.753415292279554
0.0389655364399158
0.179634830449309
0.614698467621872
0.301064761420152
0.373350628519489
-0.308267764314263
0.306337392144291
0.0357786512097672
-0.817069318758707
0.10810760278432
0.580834051460085
0.0659440448098533
-0.340564610447299
-0.96258880778841
0.628232554687272
-0.146564511619374
-0.781377193786684
-0.176052161566994
0.723048322884586
-0.34990207327814
-0.442030166853567
1.04524305167346
1.0448968493915
0.347090451891206
0.892881516179347
-0.420105263152014
-0.736456472178252
-0.41131807262512
-0.56952449365804
-0.752058449839815
-0.939334015028648
-0.199901521310318
-0.159869488650548
0.108632303271194
-0.16379869640863
-0.586896025981879
0.577291335267769
0.780064994142421
-0.92373975265156
0.997110117645188
-0.411967252745974
-0.745447853589353
0.788941313799904
-0.900878087903013
0.514761094077895
-0.548308025213563
0.160584045601511
0.186305011242053
0.823060874974586
0.113162080329375
0.219011407545351
-0.203347653395289
0.344571792433002
0.776392997690387
0.527283423662051
0.311511921679438
0.364066546730133
-0.613862098557931
0.482459322785894
-0.155421727418054
-0.525213465654633
-0.236392566836848
-0.315346739289388
1.00048883925161
0.00239956347837012
-0.327763061608526
-0.804415889613367
0.558628704279156
0.171500925582474
0.130806886303719
0.185287498312209
-0.547729476848083
-0.214971538522993
0.628546969359605
0.842047649738977
-0.891020854707812
-0.838009296778021
0.967929299243712
0.873446183377079
0.411994902410643
0.299900936503078
0.12463664188503
-0.113365126716532
0.403697203499583
0.141439644461279
0.431380773206428
0.569315074253297
0.125195931725955
0.620116330425555
0.611780706615037
0.188447084645786
0.28060824141381
-0.766386728100358
0.141205248175864
0.488079351203527
0.837316502090965
0.54518774897496
0.744059544505522
0.0277311962630364
-0.15675216510288
-0.699604399406846
0.592209597425021
0.829459817663101
-0.549076961035786
0.805162525103698
-0.239136567834782
0.979599708297131
0.556585641735785
0.714186147523087
0.398586594104566
0.173069346151717
0.3755248978288
-0.401789706176633
-0.809950351380452
0.639505708453297
0.387447057197136
0.862742835960876
0.346083964909555
0.0144455440940334
0.678353272862311
0.0822376807815139
0.00784060072692004
0.912827677704582
0.607170159388015
-1.0178556272801
0.90576533836846
-0.819536495177789
0.635009240624838
-0.768646250080494
-0.907060086677733
-0.551307291950055
-0.788252686882161
-0.110284004565434
0.0806315208026378
0.161069690810642
0.614662446973996
0.202592636343674
-0.475437734190438
0.633468126203628
-0.645935436797249
0.519332231328819
-0.895269869075032
0.503654585584282
-0.701634761418093
-0.511206008106109
0.898534009752563
-0.140749987746427
-0.851109475145325
0.52368271559055
-0.93668926038635
0.956877861687496
-0.719065353431376
-0.146352005343757
0.372988956238786
0.759142394556285
0.339545408970389
0.855728027728621
-0.568577076791404
-0.535091918521594
0.786029934480238
-0.339983989017241
-0.525395539965942
0.418240398749669
0.665195876053215
-0.0403000814635379
-0.0192509392045747
-0.515076160845576
0.491677298527042
0.0995974556609977
-0.873347403759662
-0.682250228151111
0.505154341296935
0.828803607233617
-0.24771907850985
-0.698384991076699
0.0420418611640166
0.530471484604563
0.630270318000547
0.143412853225987
-0.794698204674271
0.219770556764043
-0.913856055279116
-0.880424824777816
-0.739606902680384
-0.649854642242753
-0.567098322314027
0.50195947609245
0.542145494577631
0.363486686103361
0.841754696631524
0.84988639372222
-0.110697837894281
0.996795674598601
0.72420096791521
0.660483830369168
-0.0132219897760328
-0.255658601930431
0.926088565187735
0.441161377349483
0.604853035622176
0.503269145034981
0.400093277416928
0.0853746138352873
0.44949537638616
0.792519263799855
-0.513846618868198
-0.499220454607597
-0.797858207285558
0.233675620528682
-0.246636853609255
0.764544009670206
-0.820375108088138
0.339143559030305
-0.536595343181582
-0.183880727794184
-0.352584540587862
-0.693364830920263
0.0646601436322149
0.37112970049049
-0.351716556629085
0.495096535862397
-0.129438056487818
-0.922236894070058
0.245126326330969
-0.697202077592862
0.481505434891577
0.612710161185934
-0.789111194461499
0.169143166741254
0.324631601011126
-0.686269822750009
0.654061180680375
-0.75508517992974
0.579534072384339
-0.226365651605001
0.898850463311301
0.151408988109579
-0.278023677819234
-0.624631490792333
0.690700533901065
0.826576143698151
0.361934137225768
-0.490907272176741
-0.281615010763607
-0.995390141061675
0.541036578922306
0.60279171757534
0.687749138645826
0.0125161962131793
0.03115520245267
-0.364364564556752
0.670915157622301
-0.464910605132797
-0.155812914058485
-0.719602599215473
-0.234649416983085
0.389639209497753
0.858766343342661
0.152978135390875
-0.637994146923673
-0.0199651618590831
-0.569956850105514
0.170358346673317
1.00125094024923
-0.390839073153595
-0.748255930107161
0.93224722338759
0.636729123202093
0.595924917848904
-0.0803905799484341
0.594802259195087
0.677204068122671
-0.371804504789537
0.582759253944721
-0.133151325287072
-0.75520684949553
-0.550198044254509
0.412377242587385
0.217294915793843
-0.235527123381353
0.84240585642467
0.917175784113338
0.230774173642615
1.15668506657644
-0.320467605594072
-0.370032951747582
0.113465847618324
0.462249497560517
0.459928329459948
-0.777062253286886
-0.306221564459981
0.400550852870984
0.698478281253961
-0.777641266638429
-0.139787582185086
0.39204813704804
-0.863806121726866
-0.49432532995258
-0.794310126544899
0.883833987085252
0.600458083077772
0.944313827783726
-0.834612422735242
-0.803698023798497
0.499676423763137
0.0338812357166076
0.0465941504367807
-0.0679059406588603
0.911032284973413
0.918813419382288
-0.800702528575696
0.8631525115737
-0.455057580774515
-0.65287736174086
-0.523668503041387
0.0861200757596797
0.32626623205482
0.20492320093345
0.515949356582063
-0.892271049827508
0.226317708680018
-0.357453508777225
-0.693331435194114
0.341237172866315
-0.869702606706872
-0.840874964583394
1.01794560168497
-0.480923611847477
-0.149530689920283
0.551998002003437
-0.794073454581716
-0.93034594928645
0.349942424065482
0.470334726683793
0.22185508685949
0.945916487287427
0.725095467321384
-0.0990804874979879
-0.493502174482185
0.483147435342892
0.417869626876782
-0.915266377050329
0.487735932120275
0.521089190674276
-0.918988082035762
-0.0318956758219808
0.00479950640723512
0.508727339869923
0.862154573081469
0.83171505063585
-0.928627179070237
-0.137853332385175
-0.140191991724846
0.974914303543139
-0.471094615622665
-0.0746396152164204
0.688165099717397
-0.129228713958005
-0.864782463199684
0.419126575016745
0.144480608882319
-0.311570701795121
-0.839073111869215
-0.603449876097038
0.714209053205026
-0.953321607561014
-0.630408544634529
-0.0986736747081044
-0.0529220189915381
-0.596160322829853
0.272896546270931
-0.628588782150671
-0.295356876824948
-0.895952861944312
-0.226833325528223
0.323138329934874
0.231040090438879
-0.20507738895236
0.256476345815224
0.132109801022052
0.104252444433979
-0.582437982476983
-0.444500122790474
-0.0307786295929855
0.474530194550067
0.338109304377521
0.22258172827423
0.398084497872009
-0.0335529740945563
-0.679391138865059
-0.747575179166377
-0.149423806019317
-0.237107711275983
0.0523743452775408
-0.72920309711605
-0.351258177505376
0.8409353317927
0.017168445810497
0.757023194293816
-0.997750454865571
-0.418879641015633
-0.895944483179868
-0.438102998254083
0.458597889265117
-0.440297288756199
0.699515936692967
-0.840622650725693
-0.244956610189644
0.193770180000709
0.254505588327001
0.67075093178597
-0.125530643739806
0.615288596251355
0.0331929890217505
-0.641204600783591
-0.214409767003864
-0.803203875215478
0.250155925479288
-0.0310529152999814
-0.579941960217497
-0.155715832919165
-0.0566453248644571
0.911118862392252
-0.380877070756215
-0.848925275738491
-0.59525591229232
0.584201371483336
0.653419495522763
0.837078959519444
-0.881770533553848
0.409162604122464
-0.786324946184907
0.0395667775920144
0.261520489330389
-0.449531786858621
-0.017971780853343
0.827497327509941
0.0669923601789951
-0.620883118418871
0.755579991950494
0.190694618122466
-0.504894302049005
-0.782789490527053
0.729817051354994
-0.335865468149473
0.378232174262145
0.233409040796323
0.729021345538397
-0.306164823669451
0.476731078018261
-0.531132063927272
-0.392907470771752
-0.947231590229919
0.313875868765841
0.127768310102441
0.590308780142637
-0.8227589228084
0.941033717835162
0.300521858678886
-0.863467810994673
-0.910522266646312
-0.489927535521309
-0.086446515418614
0.0488919313025488
0.810904362561528
0.435099253463058
0.819973840168916
-0.643301958584716
-0.515399543890788
0.337933669199205
-0.137935297137642
-0.0025953264581376
-0.240176213523336
0.135866909676024
0.17995416534497
-0.677222962457723
-0.262453487092511
-0.791406766285508
-1.03951412053568
-0.227675116600654
0.168989441448227
0.81348681756979
-0.0858597154724042
-0.703664679991803
0.633416349245383
-0.203729126194225
-0.868373009052571
0.661040988691429
-0.922049509094745
-0.0591338589829594
-0.188181899125832
0.888128866482435
0.749201328934089
-0.769791742810312
0.667518747239838
-0.300997157895383
0.586577266155389
0.115354322706187
0.790664116220561
0.0672759461049906
0.448153752936559
-0.147089277108124
0.313999450124191
0.420879725571722
-0.337993852072937
0.462273883785073
0.827548924817528
-0.0430928995861544
-0.794198249634184
-0.165672833413819
-0.155843771182702
0.932970174764809
0.955621640103064
-0.442726096125823
-0.00110065900713476
-0.764409209792425
0.585649386645785
-0.369831568646865
0.460967751300981
0.0618133282661143
0.322084088741198
-0.83355728958482
-0.705921785160643
0.568614744548252
-0.46254693064286
-0.0542798268781712
0.193187305940739
-0.546254889566065
0.439802286679663
-0.451716820564112
-0.121429586554634
0.71153258623316
-0.589729161892231
-0.162206869072697
0.282420184095155
-0.624301648037266
-0.356108984267609
0.550324419303891
0.668186394678397
-0.823625521923068
-0.0379242984722525
0.262978757610008
0.563299561557971
0.264757714001575
-0.884904660481249
-0.0792512538520591
1.00284257634361
0.281957250134622
0.305192173027585
0.440124774993203
0.133814849062389
0.00725313663228298
0.698467906207141
-0.263035154258244
0.731941997038022
0.270631210038987
-0.422091179078316
0.840876158632125
0.00163956683770407
0.770906606674607
-0.759132899028243
0.348872578178533
0.514214005555984
0.735613978760759
-0.882559690617203
0.235337840108704
0.579838720771599
0.120522581288263
0.280911467896695
-0.264321851968376
0.766372086683947
-0.91100548594727
-0.00339792246852522
0.350289359717093
-0.812175963379356
-0.807428500097544
-0.290317907067337
0.0406579969265607
0.460768098184622
0.679242794629673
-0.0132332231284491
0.918467437669134
0.153811215527004
-0.983289489564349
0.452976472421498
0.940578639296446
-0.925959211685931
0.674874866889976
0.0916253229068372
-0.964145408578807
0.795959299846516
-0.148516741324848
-0.342327133494344
0.960138614021256
0.919976726161565
0.579361413138314
0.75405830957106
0.933399779375376
0.346832799962321
-0.0470446897390719
0.37975440454811
-0.0742857021167871
-0.915913769739671
-0.292381882788879
0.762776699970869
0.0110635412310391
0.996784698236066
-0.599381639777714
-0.388006100406948
0.562721667691905
-0.424766762372482
0.589718748850667
-0.582586116941181
0.401791044207102
-0.1703912175396
-0.651506520918181
-0.794106320293608
0.488080852776472
-0.741089159744401
-0.821827620747381
0.182073338245798
0.880513514762464
0.989331365085893
0.228062975990028
-0.0549172937921683
0.00960221367550477
0.587765025055423
0.0887701935593002
0.447130380969735
-0.379538516255562
-0.493443296334706
-0.122417022429246
0.754905864642343
-0.541925394551334
-0.747092852803636
-0.924182276130006
0.873781902222226
-0.558838572445691
-0.759638194426374
-0.537987871462511
0.987414706440611
0.752875571893483
0.1349884742579
0.558171304917447
0.399067258979711
-0.87304127924902
-0.662827009228688
0.212732336610464
0.123976579414692
0.539244140095574
0.324112597589454
-0.790533863343715
0.662178522539929
0.206925732955337
0.850160624969684
0.494397722323304
-0.0635192158716123
-0.135074172774936
0.802380811373072
-0.182187849796068
0.4536056730873
-0.150770684408163
-0.123669114357676
0.945891875956307
0.0620896230363377
0.688712812409545
0.799902208358054
0.980052986544984
0.181888397377965
-0.200670473852584
-0.491772786611777
0.736382868577979
0.162559833502786
0.666324698160977
-0.967375050866233
0.363738904810824
-0.263322913009524
-0.607904445927508
0.734700167942062
-0.287076411691725
-0.406161876548874
-0.666234280948655
0.958134585087255
0.842659694827355
0.282535071910308
-0.705806889647682
0.249554170606277
-0.405843758731702
-0.386823611977303
-0.272814705134413
0.10941999403327
-0.013958608202944
-0.330832604258197
0.429050169783349
-0.0144441915811357
0.16798716465423
-0.0825413885541216
0.199836462314422
-0.510433351496554
0.712495369905069
-0.71067808417745
-0.735472304847411
-1.09649821537671
-0.68883357872862
0.100489189375182
0.562451041040223
-0.0326594353512894
0.858336403542628
0.00358535999718352
-0.639253064908806
-0.34336832306932
-0.561350812220912
0.117726116902478
0.0899090304974754
-0.759660338669884
0.127964464146478
-0.117682940881077
0.0606854696961617
-0.31950928640343
-0.221432091097042
-0.519095262866175
0.229715038365131
0.384880170871013
-0.461811499039684
0.771459016579723
0.559188323816101
0.121121883182323
0.803811095069612
-0.292519268707996
-0.131340504309538
-0.530039597361795
0.639080563797938
-0.976043258452815
-0.948635279379473
-0.636676582969729
-0.829776375620393
-0.741901283817112
0.509814727506819
-0.36155035636594
0.642825254016247
0.362891666175134
0.418401671582801
0.587085341867364
-0.753724878718107
-0.924493663999591
-0.311509461490283
0.849573825431321
0.544446004917383
0.194681998264271
0.896971223697309
-0.644009069755779
0.969481529933601
-0.40197549464318
0.767052664155931
0.304196339691091
0.164759233036251
-0.0233631092279228
0.472366507091818
-0.316689153027386
0.71106001642873
-0.43020879014221
0.150483832509751
0.0294142309735535
-1.0087199373056
0.75869279631388
-0.102673070778203
-0.661931537338619
0.0513139226465233
-0.211424660426115
-0.910977542963319
-0.15046370086114
0.355753518306337
-0.568877556816443
0.0616847555182112
0.383394657552775
0.0234705507631042
0.669476852194351
0.230387778817323
-0.420835638285546
0.169877882126346
0.739240103254766
0.610003203075734
-0.275748493361122
-0.025234450686741
-0.334577369408167
-0.354962333349496
0.211997190554312
-0.601830415928531
-0.218126656817707
0.111216029380155
0.0664424522583143
-0.323445820648837
-0.256777650902952
-0.143195103609109
0.0227199562821414
-0.779850662318539
-0.5900506102555
0.559617332746336
-0.58581565966635
0.132186011408726
-0.647066112979016
-0.172150625294789
-0.249567769660788
0.107228214680184
0.0938419272610371
0.0872177676358173
0.639717968489465
0.593988661761484
-0.56905367199142
-0.650426010227895
0.660851809710976
0.951080567369016
0.0757231188417419
0.662755363191299
-0.915623674233057
0.0244924783078307
-0.540040443508385
-0.994471086044516
0.245022155213025
0.0500023858421658
0.634724140775423
0.902057465557706
-0.80120037299136
0.656353066415626
0.0098697583913504
-0.882986323677537
-0.470650550437491
0.48158447230039
0.997805849904076
0.198062764602115
-0.346232715645986
-0.888588793811216
-0.190090533177998
0.485938221767291
-0.145013344887543
-0.0653936274617405
-0.111562129346355
0.689455754350603
-0.959241929095215
0.768967880807187
0.183764586815225
0.754796474323286
-0.933158084447402
-0.465259364393315
0.48940486240284
0.0585487276309439
0.52665197006785
0.0366539195718067
-0.250225006959089
-1.03672787540598
0.679760355709732
-0.616097122860174
-0.697035994105299
0.342039097332865
0.441848800395153
-0.629590609364575
-0.397569231172962
0.145638577079597
-0.877270637044965
-0.0629542972912371
-0.473356094080044
-0.836967340167041
0.620280909934146
0.24226782207479
0.736538511998506
0.664384989038171
0.318030825184232
0.785862522345375
-0.00411884757855864
0.2996558130104
-0.767083436097043
-0.155331339347604
0.943324125612256
0.398997702744296
0.80450930692494
0.854156972692164
0.842892676457196
0.65337346118518
-0.930166299416589
0.900063400193196
-0.445065655836023
0.472169566244568
-0.301933619756231
0.987357865777609
0.50061753074219
-0.692343292288318
0.762893569574328
0.40400058210451
1.0315449142726
-0.496556034066487
-0.616231046422873
0.786130722481361
0.634653792659858
0.239656722931489
0.398091708166977
0.191318411287062
-0.678731249698447
-0.0671576359772433
-0.130358636829314
0.902816421528122
0.747578910967356
0.703819303476744
-0.978906946035677
0.478180509084307
0.761510239883107
-0.16099790796259
-0.655977336656603
-0.160843141801323
0.482795886925118
0.523005140604029
-0.487343264372222
-0.0638528620758548
0.0684559275769411
-0.775021089857109
-0.67319948349022
0.0242846427821203
0.505273509421339
0.696868338452584
0.853627750196363
0.510968359610522
0.946964148758048
1.02369838783587
0.878749908575075
-0.365756714455954
0.068905069924002
-0.476453406385768
0.274655201536294
-0.222420724710285
-0.967007775710813
-0.394116230351695
0.55537747387954
-0.0400387128157683
-0.174546255783628
-0.83014809084532
-0.926473624441798
-0.211408365942189
0.369925168486154
0.132964652872738
-0.790181660118651
-0.338256369543262
0.956105117643651
-0.051059395217376
0.891252394735105
-0.461586442355336
-0.904355100851216
0.572348927020787
-0.112540348244205
0.521682965145774
-0.0103582989503828
-0.517826204940972
0.780072781465732
-0.254694028795193
0.201475194856998
0.407113817728403
-0.971942374004672
0.811349056154509
0.890656936186652
0.403739534969542
-0.559573883941859
0.275767107326645
0.594117099110814
0.545964906594805
-0.258588825905764
-0.176783167254678
0.881861244515679
0.450208304924024
1.06952941931326
-0.11623742389174
-0.857128815278172
0.53841045053297
0.652824018936503
-0.551975750001969
0.595785999067813
0.355263341872988
0.731345651947768
0.112016242469305
-0.803359518495219
0.433477943010017
-0.380952496991275
0.603043005430006
0.729924321770678
0.806081484287563
0.88871467932621
0.669268471171858
-0.0822993983166228
-0.147921502471187
0.787868561517386
0.440512309672551
-0.834891120209974
-0.753056539743841
-0.156072426720697
0.910683740492094
-0.393919052300285
-0.172309387696363
-0.0374417304856452
-0.665648418510636
-0.853568325255588
0.0363156829328122
-0.377473496889775
-0.294513741858344
0.586853980181479
-0.879202919820901
0.479493471768089
0.465899043552972
-0.173364713229737
0.398363079980005
0.229504008647881
0.952532041038365
0.748940202529196
-0.0169380980123065
0.733834755447978
-0.435036774345098
-0.139905530859786
-0.120930657154895
0.564334041852637
0.807142756636538
0.685730324235671
0.0660157001634678
0.872320032339465
-0.0101483920314139
0.568087151442038
-0.475176914824853
-0.413445105193314
0.794495243633881
-0.379841459155896
0.671933600571838
0.740535892602164
-0.235649245270477
-0.615231095434758
0.393382704452294
-0.066095802760324
0.0765977506431752
-0.226740147549937
0.979241995847386
-0.888125640130005
0.731299898500035
-0.568175633432107
-0.523794950116373
-0.096108133156716
0.546304762178688
0.656348833042426
0.867255040523211
0.695172885617794
0.207971201119632
-0.442936094777767
-0.716889915524356
0.00821478538403344
0.689325883346249
0.174520329381724
0.0823836413602563
-0.429252863698032
0.0156342125461688
0.116170960029386
0.571829537028517
0.0179981524685932
0.030007718349304
0.477035779300679
0.576872868090927
-0.271892663360405
0.0442065139173627
0.619029579524974
-0.511940200732811
0.615391866232819
-0.594335497903122
-0.916632296108242
-0.325906059858555
0.843225985168521
-0.0536917809039534
-0.156271879371332
0.90006675637697
0.409971584713988
0.230640854533273
-0.799449332702512
-0.683820848307002
0.285966749894135
0.665828728115788
-0.226933763583965
0.374067367436253
0.246253439977721
-0.642904809624898
-0.323395614062411
-0.951936315562186
0.539869064390078
0.29137331130107
-0.186711304287239
0.817022388510607
0.831130968545034
0.0719922625066027
-0.133635001330029
0.00698559790220155
-0.824879389596393
-0.231567725922552
0.703210375181639
0.849585004802739
-0.988783844061185
0.279448234511172
-0.66045948525921
0.32523192505314
0.115320698977205
0.88191725159899
-0.542128827232824
-0.927950397538579
-0.170705418037922
0.265447766952787
0.657910661122603
0.371069300030849
-0.111570843572852
-0.111976135528828
-0.653941905885253
0.390482720117695
-0.749326978603673
-0.885080358730579
-0.610076404852722
-0.633212426708593
-0.699386948646197
0.44390065065273
-0.186394993142448
-0.81283216621411
0.484983454301772
-0.850588272524765
-0.250570931294534
-0.287076258315038
-0.918692927343664
0.844389815425545
0.711837951374245
-0.380363935516362
0.485663347831109
-0.689797136836822
-0.702279349252389
-0.979831150400582
0.320147059176121
0.440143330501304
-0.744889115413844
0.387769696185676
0.946730788494113
-0.347436620195313
0.264321544810105
-0.682177616222827
0.665451303961982
0.479387981794594
0.0204290513020172
0.0346175643573111
-0.23689769414371
0.443398676643208
-0.283672844153136
-0.96106723725989
-0.626942166000123
0.30717428500424
0.518178608506392
-0.463080655622113
-0.560211003826271
-0.873916676513176
0.804616971684368
-0.08227735140301
0.0641441830101552
0.662833460054583
0.929100235761981
-0.0497024460316921
0.539389087100815
0.037649199131435
0.824521019937429
-0.414158396057241
-0.406738749614457
-0.662793302723792
-0.905156265701594
-0.160877474720386
0.88638043192657
0.0169260798846215
-0.536073966765924
0.699128177802322
-0.777114590239354
-0.475666333859689
-0.436062216197145
-0.952293276000992
0.16595298235875
0.748755345129591
0.991843958989634
-0.316960662973129
0.162181936569091
0.694928761241279
-0.753504790252716
-0.829110348322117
-0.224327266283854
0.739878807112686
0.565465019602372
0.187512756382449
0.634461942841151
0.336668919656356
-0.677293098708746
-0.716328681876881
-0.264488149186553
-0.668066931241969
-0.203366143289665
-0.386485198528989
0.545410677545658
-0.600651080891544
-0.635259206545443
-0.6804222194715
0.213121512893001
0.736070526210729
-0.975507292671185
0.222549889382795
-0.296209163673122
0.660151056966812
-0.879660019946587
0.742959653826609
0.475823434957996
0.634802590062645
0.630385985848946
0.24972404082365
0.59901508021786
0.155371185162754
0.725089170277797
0.814451832592081
-0.232028259455637
0.693928076132325
0.816228655865802
-0.13977000758633
-0.218679349993887
-0.0655567170169366
0.227337501034232
-0.482154369145925
-0.391769725918746
-0.919049640975895
-0.170158363868933
0.745547622716264
0.625034007870939
0.868109111822067
-0.558010330778168
-0.241435001972401
0.267206814374218
0.424002759653353
0.150395334056738
0.17699464064207
0.58732056967346
-0.0621672984485998
0.389631426204926
0.0604367888064335
0.458429114094804
0.622916635538835
0.680389073961515
0.978618464061506
0.658817218949146
0.0367531291503045
-0.389687786959349
0.467909356030193
-0.497021294790817
-0.0795687987048875
0.828544677143772
0.797778203031024
-0.502720691059634
0.436107221376908
0.443034238830023
-0.770074750083559
-0.467599854699366
0.569624730140319
-0.239581877307766
-0.209136746874151
-0.158521198103443
-0.65198461078785
-0.884966003902904
0.60524323113784
0.469107393771877
0.318865328094816
-0.673212855141568
-0.672613485999504
1.02394081055453
-0.411812402394394
-0.484824086039392
1.1777180585473
-0.392936351080842
0.0114143940475981
0.444600596954086
0.12933128513786
0.252895658901132
0.291133932308829
-0.0851178463213244
0.59270191878972
0.477631846285089
0.367902309151398
0.159761072584381
-0.389406148487071
-1.03359696213224
-0.420271062663116
-0.775116404984852
0.787704494702371
0.834674839332561
-0.16041899751447
-0.372159250470473
0.974541716075093
-0.545615288140335
0.0920075991826439
-0.53623123153501
0.185656931109552
0.535950036968457
1.08133906279051
-0.1775490491729
-0.0853550217426194
0.313353923461405
-0.323707519925843
0.539001202323568
-0.997934840391541
-0.410300961129493
0.93670683018598
0.481354550017542
0.75328267427321
-0.838571518460268
-0.523004518249652
0.00422725250657969
0.287237862470693
-0.30974688425649
0.0501245685923112
0.158827654388323
0.295766768270292
-0.12379299170752
0.314803604025536
0.591760657440798
-0.212561402896896
0.11822080148613
-0.378648657121556
-0.591388105417999
0.157234881452411
1.00215213367773
-0.504179560038986
0.899922926534026
1.04436969761013
0.0497444686789745
-0.421991197329637
0.659646712029098
0.295310812215291
-0.225361653045478
-0.528973128412025
-0.223599112281057
0.187376994580498
1.09755590819585
0.452852860614875
-0.808662675320502
-0.797586328495822
0.244187140857743
-0.578447195140747
0.551598347707377
0.224096043245437
0.533121788755955
0.221172781449376
0.369477814632675
0.337516392118109
0.745570045094466
0.0168977768181621
1.17465077411084
-0.788361388964717
-0.448913206938651
1.01164242076805
0.919652384302312
-0.0134916688702542
-0.45936248499807
-0.38414337677545
-0.906358730091592
-0.781626383892922
-0.720320587338622
0.831276882148681
0.123935092604102
0.87539404234892
0.0456428938152113
0.98361094463408
-0.374227829800235
-0.679596336299837
-0.617556219243683
-0.997600133693438
0.23990351932668
0.356442774482493
-0.0969692744783286
0.351248212414626
0.695003809575348
-0.307846546760824
-0.133813274175215
-0.0771517549416141
0.417906787861035
-0.246254400505992
0.237243563281133
-0.342651403813641
-0.542537460790431
1.21039441443747
-0.413571618197586
0.589972913302492
-0.16462077817539
-0.092498969576608
-0.243373294822315
1.05855746523907
-0.0992499290972157
0.635174304832636
0.464145885658544
1.11735310495119
0.998929084664906
0.428056383570219
0.364011635933893
0.815106194069479
-0.551405891376238
0.644480998661315
-0.476935380272126
0.101339155465562
0.0959736000042606
0.734737609490806
0.526172296359942
-0.622611086129382
-0.0332541274154416
0.217255057364335
-0.532515495898518
0.359953583886218
-0.722125798576973
0.637861843051469
0.223725328718132
0.412553048173989
0.11829992199538
0.842278621519155
0.630895439836547
0.140195815317979
0.469994423793453
0.484193681362336
0.161405599571734
0.810034847113012
0.6351707030888
-0.643427350037869
0.198234088358493
0.856981701208182
-0.673824082342393
0.042255180787872
0.374562621016776
-0.634536698654432
0.374260261439273
-0.0642406607800579
-0.743691151351072
0.313566304167139
0.917196306304991
-0.7891242329873
0.714866765583832
-0.197460391877426
-0.283812671537029
-0.890445082393445
-0.425840612315931
0.676119877381576
-0.326458475646524
0.644573657604763
1.04760192318987
0.478176611653558
-0.447422344850614
1.06646441130949
0.0305385999232417
-0.789710003748363
0.891648539522832
-0.65140930272353
-0.49943138118468
0.248895349970519
-0.0281267307533238
-0.000704550807911065
0.573468459528379
-0.151047692992493
-0.541083664842386
0.44169638681268
-1.1563918156015
0.602989466149644
0.590176705418635
1.07524668851168
1.1134399486616
0.302812612168296
0.24285843359932
0.724314508048229
0.41874981250331
0.000903600897981902
-0.61274876042291
-0.00194838476136428
-0.430833500436818
0.468846900685133
0.00166139910749765
0.529514806958391
0.222655214142803
1.01359713686083
-0.585961238950677
0.887374160872033
0.518283282464093
-0.424956656487748
-0.605407268623508
0.427538817813503
-0.397954228052008
0.0525397869544281
-0.728849215853005
-0.105436505121307
-0.537012348556568
-0.00488453446525814
-0.429760793190488
-0.0705906291313774
-0.496396368935454
0.20725603837154
-0.955374298978029
-0.256818113817291
-0.93978748700302
-0.353482549398154
0.726073650642817
-0.217309100140138
-0.77126724488667
-0.177198266210053
-0.336366017047632
1.03417999379636
0.889588270500927
-0.0576710781124172
0.989106999654124
0.322492714860417
-0.48649235276394
0.613698438056534
0.968047928486265
0.740149974590572
-0.50867719315609
-0.44759467601365
0.980830783079631
0.58102986209159
0.637316132278116
-0.552892327544524
0.661886101308908
0.259729543503409
0.225977309909201
-0.664941715217722
0.168038596927527
-0.570873047959345
-0.463262402260054
0.538244778511262
-0.292397472086708
0.403453106883794
0.358318618943177
1.15939983840601
0.429822230117451
-0.447408904418659
-0.651437472748452
0.743704163615505
0.996333963680364
0.086637099622604
-0.829274901958102
-0.56484556966867
0.635957338300724
0.732768765499127
0.0577982446508709
0.000200897677419351
-0.251279109889459
0.315083527715416
0.331594965437065
0.0644510739670436
-0.321543621180124
1.11979150881837
0.369386519468736
-0.376903291774058
0.278216261872313
0.805100971307165
0.165268045596371
-0.421015881778004
0.830976837337136
0.981422786199773
0.566976855260495
1.101369239454
0.436009955769431
-0.668988468897415
-0.705666324742006
-0.351958751725058
-0.690053098667265
-0.284786725426686
-0.620377662972569
0.507247983749278
0.408308195935583
-0.281210509819317
-0.505027169616385
-0.0183317666701066
0.705431569717815
0.348282357440556
-0.185747757920464
0.972295406843957
-0.743734977610227
-0.760305790582658
0.776136322132324
-0.741109538580842
0.478026711536536
0.713303314197349
0.0247613912233868
-0.28936247281323
-0.692008795581002
-0.185131468118336
-0.231805575089038
0.453287322763733
0.26506834035762
0.674093985586228
0.912588143689694
0.955571212695365
0.658396591661249
-0.804713268644019
0.0699350116307941
0.452486249045658
0.572292386442273
-0.600524345746667
-0.376957396798054
-1.02889796401568
-0.229060580711586
0.561789737971334
0.462242673431713
0.902703291575561
0.493759058206226
-0.725107800367366
0.0939694246607887
-0.611905044709829
0.391055617079849
0.373587431473279
-0.591279155179839
0.687011429917385
-0.550987868301014
0.334820168728564
-0.465499546924067
0.534605350107156
0.12380192792554
0.416963235812261
-0.698174831185777
0.318509606013114
0.833916809021032
-0.0908924548159749
-0.698071642944709
-1.03641178169267
-0.0977385414305439
-0.56405977985774
0.134869567909288
0.232289226081626
0.892687564488885
0.105928278620058
-0.622986001914968
0.856620484798489
0.449123488900931
0.605995753178303
0.551444533867322
-0.729668936071363
-0.389353972044172
0.255071451089538
0.262126744367239
-0.90134275870633
0.902279000633753
-0.64613617109615
0.984613508906801
0.74243772822974
0.0929384469870074
1.06273464880622
0.484393501037527
-0.831403951043473
0.557743694764229
0.567042826781965
-0.634767368287525
-0.754951026360695
-0.972530723022598
0.108236194779023
-1.14804202784478
0.464467929705165
-0.173576695282587
0.305303288488441
-0.049200612072577
-0.0782921501229152
-0.160299330543573
0.549312949080188
-0.450666698579548
-0.370136002661516
0.349226659294718
-0.262240125389832
-0.63706823558253
-0.0985757873905343
0.878396720211661
-0.831170481960954
-0.172346127254011
0.758897800362179
1.03342567925713
-0.851982192727273
0.448289692302029
0.412670230816935
-0.0260526301693939
-0.315627264278589
-0.0959175054909722
-0.205816422784741
-0.183105599794485
-0.212885793068751
0.341637074309938
0.690949072763674
-0.864008333463389
0.749782652896943
0.479177511564521
0.908223143991405
0.332511952704675
0.791041837967734
0.497191649454332
0.602872854764537
-0.421337623986313
-0.472687910629735
0.353092755819811
-0.712668386404665
0.795568321052217
0.180753009033765
-0.778974426449438
-0.806804520506999
0.645727192784517
-0.386993565235806
-0.694957568453641
0.362773073643123
-0.125621771794362
-0.221475685816985
-0.767982416027447
-1.18009465025099
0.50467354997559
-0.819227909567218
-0.953953786706145
0.387802110614101
0.638977988512433
0.54930410882796
0.493038986090049
0.554133274833137
-1.08512057544342
-0.409509224761923
-0.538305585523713
0.731844198556511
0.353341489741083
-0.494209932194004
0.533060497211469
0.927201272997732
-0.396390109859542
0.0350011725037712
0.0186157488314298
0.427640260382769
-0.207489218895666
0.165292888990584
0.646020647334878
-1.13431642221417
-0.297035688613149
-0.0987142050099979
0.271248328248508
-0.61437981022641
-0.65922493177779
0.688394805967673
-0.518437467397211
-0.176531827966603
0.0610545889841605
0.137229977263528
0.831038327455274
-0.211535973904723
0.569415758972085
0.850518749787308
0.8052375076757
0.0251828933163668
0.0497495813292972
0.785146072686573
-0.684091601143168
0.0388210958493354
-0.376014777431319
-0.652458235108242
-0.225043559094716
0.20807756625602
0.116152146408983
-0.539713000683657
-0.0542920765178734
-0.906610381711343
-0.878188617104951
0.104591240544921
0.450318993948728
-0.24655687313798
-0.486058262765343
-0.941139041573354
-0.288480246704124
-0.274234739367977
-0.77030696502789
-0.111959302993888
-0.163619685609394
-0.952282073153574
-0.961022813667397
0.521388533642958
-0.322897233447312
-0.702076515009582
-0.30218597254215
-0.252350434878141
-0.667581617139447
-0.339622500498996
0.173661772069982
0.903604772235116
-0.584430607058688
0.0611273188545
-0.115921161880393
-0.330978135317857
0.4144189117132
-0.330184502662066
-0.528599155818386
-0.429568027292579
0.813491012008267
-0.640351800580495
-0.0849869338705938
-0.415410323490853
-0.0350591540878644
-0.963385119103845
0.681977308336359
0.0533231821517176
-0.853645287544355
0.540794893757414
0.291539516468416
0.24338667200152
0.0433669175669098
-0.6972982744964
-0.032389049067106
-0.713856283392836
0.0154778383893439
0.105105434209328
0.718777963282183
-0.471230347939472
-0.487901803258051
-0.654287122615353
-0.83610808853986
-0.796893587990792
-0.15488754220407
-0.725797636148905
-0.144572898903438
-0.236250956763617
-0.740073265113412
1.07015047767457
-0.311199826752647
-0.712180166374677
-0.538644664231756
0.74910144696965
0.1444844285548
-0.433460382825974
0.252916824702491
0.767423118826973
-0.132845100578332
-0.185637401497713
-0.256260883938251
0.727750779836853
-0.424174025186078
-0.237469268376046
0.414670196595011
-0.933274690272424
0.0513420396407755
-0.741143851067285
-0.897041119223453
-0.387301368866116
0.703316677901126
-0.801921045355551
-0.402578717834642
0.655911227801495
0.790784497444721
0.454411146097515
-0.664410084554632
-0.383487900201921
0.45309702118348
-0.379621963391185
0.252425412786225
0.113748431579948
0.0224289056732267
-0.723159058843886
0.0951959807803856
0.341495377169206
-0.0473028739861613
0.28222783756596
0.145914846768619
-0.671131906338532
-0.060192040272215
0.204045789725723
-0.708749252570839
0.108124669908372
-0.980523903274579
-0.0225568427468514
0.822773323122241
0.433812924398511
-0.160630495560049
-0.344472683835527
-0.114663931402083
-0.806533831231017
-0.83508621243897
0.342618610571473
-0.692005449694947
